{"learner":{"attributes":{"scikit_learn":"{\"_estimator_type\": \"classifier\"}"},"feature_names":[],"feature_types":[],"gradient_booster":{"model":{"cats":{"enc":[],"feature_segments":[],"sorted_idx":[]},"gbtree_model_param":{"num_parallel_tree":"1","num_trees":"250"},"iteration_indptr":[0,1,2,3,4,5,6,7,8,9,10,11,12,13,14,15,16,17,18,19,20,21,22,23,24,25,26,27,28,29,30,31,32,33,34,35,36,37,38,39,40,41,42,43,44,45,46,47,48,49,50,51,52,53,54,55,56,57,58,59,60,61,62,63,64,65,66,67,68,69,70,71,72,73,74,75,76,77,78,79,80,81,82,83,84,85,86,87,88,89,90,91,92,93,94,95,96,97,98,99,100,101,102,103,104,105,106,107,108,109,110,111,112,113,114,115,116,117,118,119,120,121,122,123,124,125,126,127,128,129,130,131,132,133,134,135,136,137,138,139,140,141,142,143,144,145,146,147,148,149,150,151,152,153,154,155,156,157,158,159,160,161,162,163,164,165,166,167,168,169,170,171,172,173,174,175,176,177,178,179,180,181,182,183,184,185,186,187,188,189,190,191,192,193,194,195,196,197,198,199,200,201,202,203,204,205,206,207,208,209,210,211,212,213,214,215,216,217,218,219,220,221,222,223,224,225,226,227,228,229,230,231,232,233,234,235,236,237,238,239,240,241,242,243,244,245,246,247,248,249,250],"tree_info":[0,0,0,0,0,0,0,0,0,0,0,0,0,0,0,0,0,0,0,0,0,0,0,0,0,0,0,0,0,0,0,0,0,0,0,0,0,0,0,0,0,0,0,0,0,0,0,0,0,0,0,0,0,0,0,0,0,0,0,0,0,0,0,0,0,0,0,0,0,0,0,0,0,0,0,0,0,0,0,0,0,0,0,0,0,0,0,0,0,0,0,0,0,0,0,0,0,0,0,0,0,0,0,0,0,0,0,0,0,0,0,0,0,0,0,0,0,0,0,0,0,0,0,0,0,0,0,0,0,0,0,0,0,0,0,0,0,0,0,0,0,0,0,0,0,0,0,0,0,0,0,0,0,0,0,0,0,0,0,0,0,0,0,0,0,0,0,0,0,0,0,0,0,0,0,0,0,0,0,0,0,0,0,0,0,0,0,0,0,0,0,0,0,0,0,0,0,0,0,0,0,0,0,0,0,0,0,0,0,0,0,0,0,0,0,0,0,0,0,0,0,0,0,0,0,0,0,0,0,0,0,0,0,0,0,0,0,0,0,0,0,0,0,0,0,0,0,0,0,0],"trees":[{"base_weights":[-4.4366643E-2,-1.7007037E0,5.45352E-1,-5.3103607E-2,-0E0,7.768561E-1,-4.5405407E-2,-1.1189768E0,9.6422136E-1,-4E-2,-0E0,5.209167E-1,1.234163E0,-2.8567385E-2,2.5648039E-2,4.5163096E-3,4.193359E-2],"categories":[],"categories_nodes":[],"categories_segments":[],"categories_sizes":[],"default_left":[0,0,0,0,0,0,0,0,0,0,0,0,0,0,0,0,0],"id":0,"left_children":[1,3,5,-1,-1,7,-1,9,11,-1,-1,13,15,-1,-1,-1,-1],"loss_changes":[1.15907166E2,4.056816E0,4.343274E1,0E0,0E0,3.0395477E1,0E0,2.1645079E0,6.6749268E0,0E0,0E0,1.7381905E1,6.5608444E0,0E0,0E0,0E0,0E0],"parents":[2147483647,0,0,1,1,2,2,5,5,7,7,8,8,11,11,12,12],"right_children":[2,4,6,-1,-1,8,-1,10,12,-1,-1,14,16,-1,-1,-1,-1],"split_conditions":[3.6341354E-1,2.7099278E0,1.9873838E3,-5.3103607E-2,-0E0,1.6956816E0,-4.5405407E-2,1.4004163E3,2.9203014E1,-4E-2,-0E0,1.3352643E-1,3.8921308E-2,-2.8567385E-2,2.5648039E-2,4.5163096E-3,4.193359E-2],"split_indices":[12,0,2,0,0,8,0,2,20,0,0,14,1,0,0,0,0],"split_type":[0,0,0,0,0,0,0,0,0,0,0,0,0,0,0,0,0],"sum_hessian":[1.141729E2,2.9210281E1,8.4962616E1,2.810514E1,1.1051402E0,7.7712616E1,7.25E0,5.85514E0,7.1857475E1,4.75E0,1.1051402E0,3.0114487E1,4.1742992E1,4.60514E0,2.5509346E1,6.3808413E0,3.5362152E1],"tree_param":{"num_deleted":"0","num_feature":"29","num_nodes":"17","size_leaf_vector":"1"}},{"base_weights":[-9.865807E-4,-1.6778371E0,6.6248864E-1,-5.2258044E-2,-0E0,8.808308E-1,-4.309315E-2,-1.6324569E-2,9.889778E-1,-2.075224E-2,1.0501769E0,1.28197875E-2,3.7096255E-2],"categories":[],"categories_nodes":[],"categories_segments":[],"categories_sizes":[],"default_left":[0,0,0,0,0,0,0,0,0,0,0,0,0],"id":1,"left_children":[1,3,5,-1,-1,7,-1,-1,9,-1,11,-1,-1],"loss_changes":[1.3188295E2,4.0323944E0,4.093041E1,0E0,0E0,1.3303711E1,0E0,0E0,9.186142E0,0E0,6.462105E0,0E0,0E0],"parents":[2147483647,0,0,1,1,2,2,5,5,8,8,10,10],"right_children":[2,4,6,-1,-1,8,-1,-1,10,-1,12,-1,-1],"split_conditions":[8.006617E-2,1.9882708E3,1.9873838E3,-5.2258044E-2,-0E0,1.7206879E0,-4.309315E-2,-1.6324569E-2,3.4864736E-1,-2.075224E-2,3.8848215E-1,1.28197875E-2,3.7096255E-2],"split_indices":[3,2,2,0,0,8,0,0,12,0,9,0,0],"split_type":[0,0,0,0,0,0,0,0,0,0,0,0,0],"sum_hessian":[1.1408675E2,3.1690035E1,8.239671E1,3.05852E1,1.1048353E0,7.590006E1,6.4966516E0,4.4590793E0,7.144099E1,1.4989431E0,6.994204E1,1.8242517E1,5.1699524E1],"tree_param":{"num_deleted":"0","num_feature":"29","num_nodes":"13","size_leaf_vector":"1"}},{"base_weights":[3.9151758E-2,-1.6222818E0,6.685621E-1,-0E0,-5.066516E-2,-8.916603E-2,8.976137E-1,-3.9437495E-2,4.162398E-1,1.308677E0,5.394605E-1,-1.5264617E-2,7.025351E-1,-2.8801525E-3,4.2478055E-2,7.848723E-1,-4.302811E-1,-0E0,3.0351618E-2,3.6219086E-2,-0E0,-3.418505E-2,8.69759E-3],"categories":[],"categories_nodes":[],"categories_segments":[],"categories_sizes":[],"default_left":[0,0,0,0,0,0,0,0,0,0,0,0,0,0,0,0,0,0,0,0,0,0,0],"id":2,"left_children":[1,3,5,-1,-1,7,9,-1,11,13,15,-1,17,-1,-1,19,21,-1,-1,-1,-1,-1,-1],"loss_changes":[1.2355195E2,3.9892807E0,1.5516209E1,0E0,0E0,1.474121E1,7.504322E0,0E0,5.1332417E0,5.3113823E0,1.0317694E1,0E0,3.3652644E0,0E0,0E0,1.046406E1,5.6378508E0,0E0,0E0,0E0,0E0,0E0,0E0],"parents":[2147483647,0,0,1,1,2,2,5,5,6,6,8,8,9,9,10,10,12,12,15,15,16,16],"right_children":[2,4,6,-1,-1,8,10,-1,12,14,16,-1,18,-1,-1,20,22,-1,-1,-1,-1,-1,-1],"split_conditions":[8.006617E-2,5.578529E-1,3.891146E-2,-0E0,-5.066516E-2,6.500639E2,5.200488E-1,-3.9437495E-2,6.476022E-1,1.1212358E-2,1.8435549E0,-1.5264617E-2,1.3702647E-1,-2.8801525E-3,4.2478055E-2,5.4970064E0,6.8741205E2,-0E0,3.0351618E-2,3.6219086E-2,-0E0,-3.418505E-2,8.69759E-3],"split_indices":[3,9,1,0,0,10,12,0,0,24,0,0,18,0,0,6,10,0,0,0,0,0,0],"split_type":[0,0,0,0,0,0,0,0,0,0,0,0,0,0,0,0,0,0,0,0,0,0,0],"sum_hessian":[1.1453142E2,3.0382479E1,8.414894E1,1.1034105E0,2.9279068E1,1.93095E1,6.483944E1,4.9922957E0,1.4317204E1,2.7068335E1,3.7771103E1,2.6036096E0,1.1713595E1,1.6044339E0,2.54639E1,3.0858614E1,6.912491E0,3.8133445E0,7.9002504E0,1.9066267E1,1.1792347E1,3.2459147E0,3.666576E0],"tree_param":{"num_deleted":"0","num_feature":"29","num_nodes":"23","size_leaf_vector":"1"}},{"base_weights":[-2.3102371E-2,-1.5386231E0,5.8658844E-1,-0E0,-1.5969969E0,6.756E-1,-3.1485274E-2,-4.9762536E-2,-0E0,1.2595062E-1,9.148714E-1,-1.0077014E0,6.4731205E-1,1.1477659E0,-0E0,7.118031E-3,-4.2250104E-2,3.3582184E-2,-5.223624E-3,8.9760395E-3,3.7958354E-2,2.2774307E-2,-1.2038689E-2],"categories":[],"categories_nodes":[],"categories_segments":[],"categories_sizes":[],"default_left":[0,0,0,0,0,0,0,0,0,0,0,0,0,0,0,0,0,0,0,0,0,0,0],"id":3,"left_children":[1,3,5,-1,7,9,-1,-1,-1,11,13,15,17,19,21,-1,-1,-1,-1,-1,-1,-1,-1],"loss_changes":[1.1369568E2,3.663765E0,1.3930103E1,0E0,3.8547516E0,1.0323582E1,0E0,0E0,0E0,1.7964397E1,1.2214996E1,5.97013E0,9.020231E0,3.0417366E0,4.8307195E0,0E0,0E0,0E0,0E0,0E0,0E0,0E0,0E0],"parents":[2147483647,0,0,1,1,2,2,4,4,5,5,9,9,10,10,11,11,12,12,13,13,14,14],"right_children":[2,4,6,-1,8,10,-1,-1,-1,12,14,16,18,20,22,-1,-1,-1,-1,-1,-1,-1,-1],"split_conditions":[8.006617E-2,5.967083E-1,2.5512671E0,-0E0,2.9787054E0,4.3768647E-1,-3.1485274E-2,-4.9762536E-2,-0E0,2.35E2,7.202358E-1,2.4124943E-1,3.2353638E1,1.499404E-1,4.98234E0,7.118031E-3,-4.2250104E-2,3.3582184E-2,-5.223624E-3,8.9760395E-3,3.7958354E-2,2.2774307E-2,-1.2038689E-2],"split_indices":[3,9,21,0,0,9,0,0,0,22,13,9,15,14,6,0,0,0,0,0,0,0,0],"split_type":[0,0,0,0,0,0,0,0,0,0,0,0,0,0,0,0,0,0,0,0,0,0,0],"sum_hessian":[1.1857868E2,3.3379486E1,8.5199196E1,1.1025876E0,3.2276897E1,8.2206505E1,2.9926906E0,3.117318E1,1.1037183E0,2.6492027E1,5.5714478E1,7.455674E0,1.9036354E1,4.394122E1,1.177326E1,1.7098536E0,5.7458205E0,1.2014545E1,7.0218077E0,6.7252145E0,3.7216003E1,3.5162241E0,8.257035E0],"tree_param":{"num_deleted":"0","num_feature":"29","num_nodes":"23","size_leaf_vector":"1"}},{"base_weights":[2.0342195E-2,-1.5376706E0,5.595938E-1,-4.8126668E-2,-0E0,6.601115E-1,-3.3189338E-2,-5.238185E-1,7.616755E-1,1.1091298E-2,-2.7734788E-2,-9.687885E-2,8.43953E-1,-2.7330466E-2,1.2201619E-2,3.0890772E-2,1.0499849E-2],"categories":[],"categories_nodes":[],"categories_segments":[],"categories_sizes":[],"default_left":[0,0,0,0,0,0,0,0,0,0,0,0,0,0,0,0,0],"id":4,"left_children":[1,3,5,-1,-1,7,-1,9,11,-1,-1,13,15,-1,-1,-1,-1],"loss_changes":[1.0373186E2,3.7913284E0,1.6699446E1,0E0,0E0,1.1572674E1,0E0,3.752612E0,6.3874435E0,0E0,0E0,4.4804E0,5.591049E0,0E0,0E0,0E0,0E0],"parents":[2147483647,0,0,1,1,2,2,5,5,7,7,8,8,11,11,12,12],"right_children":[2,4,6,-1,-1,8,-1,10,12,-1,-1,14,16,-1,-1,-1,-1],"split_conditions":[9.999949E-2,3.377842E1,7.904411E-1,-4.8126668E-2,-0E0,2.588169E0,-3.3189338E-2,1.2061549E1,3.0288963E1,1.1091298E-2,-2.7734788E-2,4.2558476E-1,5.47E2,-2.7330466E-2,1.2201619E-2,3.0890772E-2,1.0499849E-2],"split_indices":[4,15,13,0,0,23,0,25,15,0,0,9,22,0,0,0,0],"split_type":[0,0,0,0,0,0,0,0,0,0,0,0,0,0,0,0,0],"sum_hessian":[1.2000038E2,2.9664146E1,9.0336235E1,2.8564651E1,1.0994955E0,8.661753E1,3.7187018E0,5.7975483E0,8.0819984E1,1.4563857E0,4.3411627E0,6.5053787E0,7.4314606E1,2.247243E0,4.258136E0,5.1694813E1,2.2619791E1],"tree_param":{"num_deleted":"0","num_feature":"29","num_nodes":"17","size_leaf_vector":"1"}},{"base_weights":[-0E0,-1.4581751E0,5.703725E-1,-1.5166075E0,-0E0,-1.4612651E-1,7.917268E-1,-4.7361422E-2,-0E0,5.65482E-1,-1.0761342E0,1.3164298E-1,1.1317862E0,9.5243704E-1,-2.3987288E-2,-4.262139E-2,2.4499479E-3,7.818471E-1,-2.9498774E-1,-2.5211878E-3,1.1938126E0,-1.9002353E-3,3.533438E-2,3.0825423E-2,-0E0,-3.312942E-2,3.171628E-4,-0E0,3.726469E-2],"categories":[],"categories_nodes":[],"categories_segments":[],"categories_sizes":[],"default_left":[0,0,0,0,0,0,0,0,0,0,0,0,0,0,0,0,0,0,0,0,0,0,0,0,0,0,0,0,0],"id":5,"left_children":[1,3,5,7,-1,9,11,-1,-1,13,15,17,19,21,-1,-1,-1,23,25,-1,27,-1,-1,-1,-1,-1,-1,-1,-1],"loss_changes":[1.00917694E2,3.3941422E0,1.4406631E1,3.6011353E0,0E0,1.5879752E1,1.4238056E1,0E0,0E0,8.645699E0,5.062784E0,7.844457E0,4.061184E0,3.3601017E0,0E0,0E0,0E0,2.3918996E0,4.657781E0,0E0,2.8837433E0,0E0,0E0,0E0,0E0,0E0,0E0,0E0,0E0],"parents":[2147483647,0,0,1,1,2,2,3,3,5,5,6,6,9,9,10,10,11,11,12,12,13,13,17,17,18,18,20,20],"right_children":[2,4,6,8,-1,10,12,-1,-1,14,16,18,20,22,-1,-1,-1,24,26,-1,28,-1,-1,-1,-1,-1,-1,-1,-1],"split_conditions":[8.006617E-2,2.7593355E0,3.8921308E-2,5.559553E-1,-0E0,2.146996E0,2.1338656E0,-4.7361422E-2,-0E0,2.940025E0,1.0804112E0,1.8961315E0,1.19675435E-1,1.8304645E0,-2.3987288E-2,-4.262139E-2,2.4499479E-3,1.0367462E1,2.9093424E1,-2.5211878E-3,1.1212358E-2,-1.9002353E-3,3.533438E-2,3.0825423E-2,-0E0,-3.312942E-2,3.171628E-4,-0E0,3.726469E-2],"split_indices":[3,7,1,24,0,8,8,0,0,12,12,7,14,8,0,0,0,25,20,0,24,0,0,0,0,0,0,0,0],"split_type":[0,0,0,0,0,0,0,0,0,0,0,0,0,0,0,0,0,0,0,0,0,0,0,0,0,0,0,0,0],"sum_hessian":[1.1744068E2,3.209869E1,8.534199E1,3.0997423E1,1.1012682E0,1.9769909E1,6.557208E1,2.9897137E1,1.1002867E0,1.1339568E1,8.430341E0,2.3738403E1,4.1833675E1,9.591488E0,1.7480805E0,6.4796042E0,1.9507364E0,9.20949E0,1.45289135E1,1.6048561E0,4.022882E1,1.5999275E0,7.9915605E0,6.755656E0,2.4538338E0,2.9975657E0,1.1531347E1,1.3540894E0,3.887473E1],"tree_param":{"num_deleted":"0","num_feature":"29","num_nodes":"29","size_leaf_vector":"1"}},{"base_weights":[-3.2238558E-2,-1.4705807E0,4.7126877E-1,-4.6088178E-2,-0E0,6.567473E-1,-4.14326E-2,-9.581697E-1,8.607463E-1,-0E0,-1.1075714E0,-3.657E-1,9.9414295E-1,-0E0,-3.879207E-2,-2.7127625E-2,1.3000964E-3,-0E0,3.258036E-2],"categories":[],"categories_nodes":[],"categories_segments":[],"categories_sizes":[],"default_left":[0,0,0,0,0,0,0,0,0,0,0,0,0,0,0,0,0,0,0],"id":6,"left_children":[1,3,5,-1,-1,7,-1,9,11,-1,13,15,17,-1,-1,-1,-1,-1,-1],"loss_changes":[8.734937E1,3.6050034E0,3.1915358E1,0E0,0E0,2.8680035E1,0E0,1.6979008E0,1.3198257E1,0E0,2.0657492E0,2.3556793E0,6.201172E0,0E0,0E0,0E0,0E0,0E0,0E0],"parents":[2147483647,0,0,1,1,2,2,5,5,7,7,8,8,10,10,11,11,12,12],"right_children":[2,4,6,-1,-1,8,-1,10,12,-1,14,16,18,-1,-1,-1,-1,-1,-1],"split_conditions":[1.0002991E-1,1.9867781E3,1.9873838E3,-4.6088178E-2,-0E0,1.7206879E0,-4.14326E-2,9.8626965E2,2.7179282E0,-0E0,8.481562E2,1.463527E-1,9.8614264E2,-0E0,-3.879207E-2,-2.7127625E-2,1.3000964E-3,-0E0,3.258036E-2],"split_indices":[4,2,2,0,0,8,0,2,23,0,11,18,2,0,0,0,0,0,0],"split_type":[0,0,0,0,0,0,0,0,0,0,0,0,0,0,0,0,0,0,0],"sum_hessian":[1.16008514E2,2.934161E1,8.666691E1,2.8246006E1,1.0956056E0,8.019747E1,6.469433E0,7.8903418E0,7.230713E1,1.1041752E0,6.7861667E0,6.383765E0,6.592337E1,1.1045536E0,5.681613E0,2.2380528E0,4.1457124E0,5.7478323E0,6.0175533E1],"tree_param":{"num_deleted":"0","num_feature":"29","num_nodes":"19","size_leaf_vector":"1"}},{"base_weights":[-1.8103444E-3,-1.4541521E0,5.260721E-1,-4.7451336E-2,-7.5283095E-2,-1.9678503E-1,7.8754836E-1,-2.1525493E-2,1.8147506E-2,-1.1872618E0,2.7594587E-1,-9.685397E-2,8.7469345E-1,-4.159724E-2,-0E0,1.0458267E0,-6.479173E-1,-1.9993644E-2,1.6328594E-2,1.0767691E0,1.746519E-1,-0E0,3.7332986E-2,1.0702682E-2,-3.0020567E-2,-3.1188608E-3,3.4068685E-2,2.7912296E-2,-2.0397717E-2],"categories":[],"categories_nodes":[],"categories_segments":[],"categories_sizes":[],"default_left":[0,0,0,0,0,0,0,0,0,0,0,0,0,0,0,0,0,0,0,0,0,0,0,0,0,0,0,0,0],"id":7,"left_children":[1,3,5,-1,7,9,11,-1,-1,13,15,17,19,-1,-1,21,23,-1,-1,25,27,-1,-1,-1,-1,-1,-1,-1,-1],"loss_changes":[9.217978E1,4.586769E0,1.71421E1,0E0,3.1756918E0,1.2504438E1,5.5801888E0,0E0,0E0,2.2995567E0,1.418112E1,3.3905802E0,7.4897766E0,0E0,0E0,2.80449E0,4.228963E0,0E0,0E0,3.9234924E0,1.1974535E1,0E0,0E0,0E0,0E0,0E0,0E0,0E0,0E0],"parents":[2147483647,0,0,1,1,2,2,4,4,5,5,6,6,9,9,10,10,11,11,12,12,15,15,16,16,19,19,20,20],"right_children":[2,4,6,-1,8,10,12,-1,-1,14,16,18,20,-1,-1,22,24,-1,-1,26,28,-1,-1,-1,-1,-1,-1,-1,-1],"split_conditions":[8.006617E-2,7.373091E2,6.8741205E2,-4.7451336E-2,7.706643E-2,2.9213884E1,3.0387417E1,-2.1525493E-2,1.8147506E-2,7.4292314E-1,1.16E2,1.734108E-1,8.9881696E-2,-4.159724E-2,-0E0,4.2224497E-1,1.370654E-1,-1.9993644E-2,1.6328594E-2,1.9986777E0,5.106347E-1,-0E0,3.7332986E-2,1.0702682E-2,-3.0020567E-2,-3.1188608E-3,3.4068685E-2,2.7912296E-2,-2.0397717E-2],"split_indices":[3,10,10,0,3,20,15,0,0,13,22,14,3,0,0,12,14,0,0,23,13,0,0,0,0,0,0,0,0],"split_type":[0,0,0,0,0,0,0,0,0,0,0,0,0,0,0,0,0,0,0,0,0,0,0,0,0,0,0,0,0],"sum_hessian":[1.1563376E2,3.0142288E1,8.549147E1,2.6988731E1,3.1535568E0,2.2333261E1,6.315821E1,1.9437021E0,1.2098548E0,6.580447E0,1.5752814E1,5.130486E0,5.8027725E1,5.487027E0,1.0934201E0,8.743658E0,7.0091567E0,3.0879707E0,2.0425153E0,4.363996E1,1.438776E1,1.3446665E0,7.3989916E0,1.4473057E0,5.561851E0,1.595822E0,4.204414E1,7.8516417E0,6.536119E0],"tree_param":{"num_deleted":"0","num_feature":"29","num_nodes":"29","size_leaf_vector":"1"}},{"base_weights":[8.839516E-3,-1.41485E0,5.2588284E-1,-4.43353E-2,-0E0,-3.71173E-1,8.041712E-1,3.4831703E-1,-1.1155206E0,-1.55388415E-2,9.194865E-1,7.359276E-1,-2.4002632E-2,-1.2504723E0,-0E0,-1.1907332E-1,1.0014281E0,-5.9314105E-3,3.1029327E-2,-4.1977968E-2,-0E0,1.2047817E-2,-2.3584662E-2,-6.3658296E-3,3.23946E-2],"categories":[],"categories_nodes":[],"categories_segments":[],"categories_sizes":[],"default_left":[0,0,0,0,0,0,0,0,0,0,0,0,0,0,0,0,0,0,0,0,0,0,0,0,0],"id":8,"left_children":[1,3,5,-1,-1,7,9,11,13,-1,15,17,-1,19,-1,21,23,-1,-1,-1,-1,-1,-1,-1,-1],"loss_changes":[8.832231E1,3.424282E0,2.2955292E1,0E0,0E0,1.291254E1,1.1635277E1,6.6387396E0,1.9943676E0,0E0,6.1520653E0,3.7785301E0,0E0,1.5054684E0,0E0,2.922887E0,6.6251793E0,0E0,0E0,0E0,0E0,0E0,0E0,0E0,0E0],"parents":[2147483647,0,0,1,1,2,2,5,5,6,6,7,7,8,8,10,10,11,11,13,13,15,15,16,16],"right_children":[2,4,6,-1,-1,8,10,12,14,-1,16,18,-1,20,-1,22,24,-1,-1,-1,-1,-1,-1,-1,-1],"split_conditions":[7.8798614E-2,8.4225323E2,3.8921308E-2,-4.43353E-2,-0E0,2.146996E0,1.7206879E0,2.7759833E0,2.3964778E-1,-1.55388415E-2,2.588169E0,2.2788601E-2,-2.4002632E-2,5.5848594E0,-0E0,5.6905996E-2,5.8990445E0,-5.9314105E-3,3.1029327E-2,-4.1977968E-2,-0E0,1.2047817E-2,-2.3584662E-2,-6.3658296E-3,3.23946E-2],"split_indices":[3,10,1,0,0,8,8,12,18,0,23,1,0,6,0,1,27,0,0,0,0,0,0,0,0],"split_type":[0,0,0,0,0,0,0,0,0,0,0,0,0,0,0,0,0,0,0,0,0,0,0,0,0],"sum_hessian":[1.16567604E2,2.9872677E1,8.669492E1,2.8781315E1,1.0913614E0,1.994345E1,6.675147E1,1.0340573E1,9.602878E0,4.446893E0,6.230458E1,8.59374E0,1.7468321E0,8.509065E0,1.0938127E0,4.0437894E0,5.826079E1,1.8388989E0,6.754842E0,7.1617994E0,1.3472657E0,2.2972152E0,1.7465742E0,2.9408114E0,5.531998E1],"tree_param":{"num_deleted":"0","num_feature":"29","num_nodes":"25","size_leaf_vector":"1"}},{"base_weights":[8.353125E-3,-1.3323274E0,5.2236176E-1,-1.3899723E0,-0E0,-3.7311488E-1,6.9267833E-1,-0E0,-4.3498743E-2,-3.9351813E-2,5.018932E-1,1.1143911E0,3.2442012E-1,-5.9006056E-3,8.159524E-1,3.188219E-1,3.9740466E-2,-2.5800198E-1,6.3898206E-1,-0E0,3.241082E-2,-1.0810548E-2,2.5556592E-2,-2.5013061E-2,2.8199753E-2,2.3546858E-2,-1.3129605E-2],"categories":[],"categories_nodes":[],"categories_segments":[],"categories_sizes":[],"default_left":[0,0,0,0,0,0,0,0,0,0,0,0,0,0,0,0,0,0,0,0,0,0,0,0,0,0,0],"id":9,"left_children":[1,3,5,7,-1,9,11,-1,-1,-1,13,15,17,-1,19,21,-1,23,25,-1,-1,-1,-1,-1,-1,-1,-1],"loss_changes":[8.218954E1,3.0578384E0,1.3927824E1,3.1321983E0,0E0,1.3807005E1,1.0075985E1,0E0,0E0,0E0,2.5583048E0,3.8747597E0,8.407007E0,0E0,1.9071088E0,4.5002503E0,0E0,1.2525687E1,5.4296865E0,0E0,0E0,0E0,0E0,0E0,0E0,0E0,0E0],"parents":[2147483647,0,0,1,1,2,2,3,3,5,5,6,6,10,10,11,11,12,12,14,14,15,15,17,17,18,18],"right_children":[2,4,6,8,-1,10,12,-1,-1,-1,14,16,18,-1,20,22,-1,24,26,-1,-1,-1,-1,-1,-1,-1,-1],"split_conditions":[8.006617E-2,5.6047473E0,3.1987827E-2,3.3174313E1,-0E0,1.3310009E-1,5.031291E-1,-0E0,-4.3498743E-2,-3.9351813E-2,8.490226E-2,3.9422297E-1,1.4666985E-1,-5.9006056E-3,1.516237E-1,8.028301E-2,3.9740466E-2,6.0034348E1,2.2512767E0,-0E0,3.241082E-2,-1.0810548E-2,2.5556592E-2,-2.5013061E-2,2.8199753E-2,2.3546858E-2,-1.3129605E-2],"split_indices":[3,6,1,27,0,18,12,0,0,0,3,12,14,0,14,1,0,25,0,0,0,0,0,0,0,0,0],"split_type":[0,0,0,0,0,0,0,0,0,0,0,0,0,0,0,0,0,0,0,0,0,0,0,0,0,0,0],"sum_hessian":[1.1583499E2,3.0950497E1,8.48845E1,2.9856833E1,1.0936632E0,1.27150755E1,7.2169426E1,1.0915227E0,2.876531E1,5.9286695E0,6.786406E0,3.1121037E1,4.1048386E1,1.8427862E0,4.9436197E0,8.055497E0,2.306554E1,1.3963882E1,2.7084503E1,1.3489174E0,3.5947022E0,3.4147794E0,4.640718E0,1.0123742E1,3.8401406E0,2.473817E1,2.3463337E0],"tree_param":{"num_deleted":"0","num_feature":"29","num_nodes":"27","size_leaf_vector":"1"}},{"base_weights":[4.1893073E-3,-1.3102783E0,5.1276404E-1,-1.3673396E0,-0E0,6.899262E-1,-3.8983863E-2,-4.2779647E-2,-0E0,-7.4191403E-1,8.142841E-1,-3.3911653E-2,7.187896E-4,-1.3284902E-2,9.025362E-1,3.147774E-2,7.5510903E-3],"categories":[],"categories_nodes":[],"categories_segments":[],"categories_sizes":[],"default_left":[0,0,0,0,0,0,0,0,0,0,0,0,0,0,0,0,0],"id":10,"left_children":[1,3,5,7,-1,9,-1,-1,-1,11,13,-1,-1,-1,15,-1,-1],"loss_changes":[7.9699135E1,3.0288467E0,2.9309128E1,3.0310173E0,0E0,1.5577347E1,0E0,0E0,0E0,2.7369382E0,9.387295E0,0E0,0E0,0E0,5.6417923E0,0E0,0E0],"parents":[2147483647,0,0,1,1,2,2,3,3,5,5,9,9,10,10,14,14],"right_children":[2,4,6,8,-1,10,-1,-1,-1,12,14,-1,-1,-1,16,-1,-1],"split_conditions":[8.006617E-2,2.7584546E0,1.9873838E3,5.6873834E-1,-0E0,3.0387417E1,-3.8983863E-2,-4.2779647E-2,-0E0,1.1761737E-1,2.2514756E0,-3.3911653E-2,7.187896E-4,-1.3284902E-2,8.9881696E-2,3.147774E-2,7.5510903E-3],"split_indices":[3,7,2,24,0,15,0,0,0,4,23,0,0,0,3,0,0],"split_type":[0,0,0,0,0,0,0,0,0,0,0,0,0,0,0,0,0],"sum_hessian":[1.1580638E2,3.1152758E1,8.4653625E1,3.0063498E1,1.0892587E0,7.849454E1,6.1590886E0,2.897088E1,1.0926185E0,5.1576366E0,7.333691E1,3.2235239E0,1.9341128E0,3.91193E0,6.942497E1,5.5027214E1,1.4397758E1],"tree_param":{"num_deleted":"0","num_feature":"29","num_nodes":"17","size_leaf_vector":"1"}},{"base_weights":[-2.7745109E-2,-1.3211634E0,4.077638E-1,-4.162525E-2,-0E0,5.617498E-1,-3.770101E-2,-9.746547E-1,7.2120374E-1,-3.473922E-2,-0E0,-4.1662848E-1,8.269284E-1,-2.2645695E-2,5.4907775E-3,9.261593E-4,2.994774E-2],"categories":[],"categories_nodes":[],"categories_segments":[],"categories_sizes":[],"default_left":[0,0,0,0,0,0,0,0,0,0,0,0,0,0,0,0,0],"id":11,"left_children":[1,3,5,-1,-1,7,-1,9,11,-1,-1,13,15,-1,-1,-1,-1],"loss_changes":[6.563655E1,3.2092514E0,2.3202095E1,0E0,0E0,2.1053316E1,0E0,1.7220702E0,9.864822E0,0E0,0E0,2.0362697E0,8.875885E0,0E0,0E0,0E0,0E0],"parents":[2147483647,0,0,1,1,2,2,5,5,7,7,8,8,11,11,12,12],"right_children":[2,4,6,-1,-1,8,-1,10,12,-1,-1,14,16,-1,-1,-1,-1],"split_conditions":[1.0002991E-1,3.377842E1,1.9873838E3,-4.162525E-2,-0E0,1.6956816E0,-3.770101E-2,1.4004163E3,2.588169E0,-3.473922E-2,-0E0,6.595273E-1,5.3781193E-1,-2.2645695E-2,5.4907775E-3,9.261593E-4,2.994774E-2],"split_indices":[4,15,2,0,0,8,0,2,23,0,0,9,13,0,0,0,0],"split_type":[0,0,0,0,0,0,0,0,0,0,0,0,0,0,0,0,0],"sum_hessian":[1.1179894E2,2.742633E1,8.437262E1,2.6346504E1,1.0798262E0,7.871572E1,5.656891E0,6.145045E0,7.257068E1,5.0545483E0,1.0904964E0,5.267715E0,6.730296E1,3.570175E0,1.6975403E0,1.2854635E1,5.444833E1],"tree_param":{"num_deleted":"0","num_feature":"29","num_nodes":"17","size_leaf_vector":"1"}},{"base_weights":[-0E0,-1.3166782E0,4.8681882E-1,-4.1323017E-2,-0E0,6.462626E-1,-3.6638767E-2,-1.6501836E-2,7.435984E-1,4.8647362E-1,3.861118E-2,2.4879595E-2,-3.2690952E-3],"categories":[],"categories_nodes":[],"categories_segments":[],"categories_sizes":[],"default_left":[0,0,0,0,0,0,0,0,0,0,0,0,0],"id":12,"left_children":[1,3,5,-1,-1,7,-1,-1,9,11,-1,-1,-1],"loss_changes":[7.452245E1,3.090271E0,2.422016E1,0E0,0E0,1.0064896E1,0E0,0E0,8.187649E0,1.1566172E1,0E0,0E0,0E0],"parents":[2147483647,0,0,1,1,2,2,5,5,8,8,9,9],"right_children":[2,4,6,-1,-1,8,-1,-1,10,12,-1,-1,-1],"split_conditions":[8.006617E-2,1.9867781E3,1.9873838E3,-4.1323017E-2,-0E0,1.7206879E0,-3.6638767E-2,-1.6501836E-2,5.64342E0,1.8961315E0,3.861118E-2,2.4879595E-2,-3.2690952E-3],"split_indices":[3,2,2,0,0,8,0,0,6,7,0,0,0],"split_type":[0,0,0,0,0,0,0,0,0,0,0,0,0],"sum_hessian":[1.1166768E2,2.9477037E1,8.219064E1,2.8390257E1,1.0867803E0,7.6578445E1,5.6121984E0,4.6753974E0,7.1903046E1,5.2006832E1,1.9896212E1,3.3038174E1,1.896866E1],"tree_param":{"num_deleted":"0","num_feature":"29","num_nodes":"13","size_leaf_vector":"1"}},{"base_weights":[-2.8982695E-2,-4.2599343E-2,3.5120514E-1,-1.0981889E0,5.456693E-1,-3.6709376E-2,-0E0,6.96982E-1,-9.354293E-1,7.681199E-1,-1.6262814E-2,-3.4255266E-2,-0E0,-1.2700516E-2,2.560097E-2],"categories":[],"categories_nodes":[],"categories_segments":[],"categories_sizes":[],"default_left":[0,0,0,0,0,0,0,0,0,0,0,0,0,0,0],"id":13,"left_children":[1,-1,3,5,7,-1,-1,9,11,13,-1,-1,-1,-1,-1],"loss_changes":[6.029607E1,0E0,2.5891354E1,1.1357574E0,1.9057186E1,0E0,0E0,7.451729E0,1.9814148E0,8.14996E0,0E0,0E0,0E0,0E0,0E0],"parents":[2147483647,0,0,2,2,3,3,4,4,7,7,8,8,9,9],"right_children":[2,-1,4,6,8,-1,-1,10,12,14,-1,-1,-1,-1,-1],"split_conditions":[4.1495953E0,-4.2599343E-2,1.6956816E0,4.13E2,1.9873838E3,-3.6709376E-2,-0E0,6.736108E1,8.475623E2,2.588169E0,-1.6262814E-2,-3.4255266E-2,-0E0,-1.2700516E-2,2.560097E-2],"split_indices":[6,0,8,22,2,0,0,23,10,23,0,0,0,0,0],"split_type":[0,0,0,0,0,0,0,0,0,0,0,0,0,0,0],"sum_hessian":[1.0911929E2,2.253084E1,8.658845E1,8.839511E0,7.774894E1,7.4892945E0,1.3502166E0,7.180916E1,5.939783E0,6.90108E1,2.7983508E0,4.848382E0,1.0914009E0,3.6865427E0,6.5324265E1],"tree_param":{"num_deleted":"0","num_feature":"29","num_nodes":"15","size_leaf_vector":"1"}},{"base_weights":[-6.401309E-2,-1.2960442E0,3.7455148E-1,1.5540871E-2,-4.2752136E-2,5.1319563E-1,-9.56353E-1,6.483927E-1,-3.1110499E-2,-3.492096E-2,-0E0,-3.8921133E-1,7.4408793E-1,-2.4898803E-2,1.8017966E-3,2.5813887E-2,7.699571E-4],"categories":[],"categories_nodes":[],"categories_segments":[],"categories_sizes":[],"default_left":[0,0,0,0,0,0,0,0,0,0,0,0,0,0,0,0,0],"id":14,"left_children":[1,3,5,-1,-1,7,9,11,-1,-1,-1,13,15,-1,-1,-1,-1],"loss_changes":[6.1257305E1,8.908451E0,1.6058247E1,0E0,0E0,1.7231285E1,2.1342006E0,7.9157104E0,0E0,0E0,0E0,1.862837E0,5.1260757E0,0E0,0E0,0E0,0E0],"parents":[2147483647,0,0,1,1,2,2,5,5,6,6,7,7,11,11,12,12],"right_children":[2,4,6,-1,-1,8,10,12,-1,-1,-1,14,16,-1,-1,-1,-1],"split_conditions":[4.563353E0,1.8112645E-1,1.9873838E3,1.5540871E-2,-4.2752136E-2,7.920349E1,3.2843258E1,3.0288963E1,-3.1110499E-2,-3.492096E-2,-0E0,1.675405E-1,4.9649122E-1,-2.4898803E-2,1.8017966E-3,2.5813887E-2,7.699571E-4],"split_indices":[6,9,2,0,0,27,15,15,0,0,0,14,18,0,0,0,0],"split_type":[0,0,0,0,0,0,0,0,0,0,0,0,0,0,0,0,0],"sum_hessian":[1.08721634E2,2.781433E1,8.09073E1,1.1892322E0,2.6625097E1,7.472724E1,6.1800675E0,7.0099724E1,4.6275177E0,5.0966697E0,1.0833974E0,4.9600134E0,6.513971E1,2.2100778E0,2.7499356E0,5.5119663E1,1.0020045E1],"tree_param":{"num_deleted":"0","num_feature":"29","num_nodes":"17","size_leaf_vector":"1"}},{"base_weights":[-0E0,-1.2488203E0,4.3960863E-1,-3.930162E-2,-0E0,5.9713286E-1,-3.571495E-2,-2.077839E-2,6.8151706E-1,7.72896E-1,-3.8448066E-1,2.5300404E-2,-0E0,-2.7438182E-2,5.965819E-3],"categories":[],"categories_nodes":[],"categories_segments":[],"categories_sizes":[],"default_left":[0,0,0,0,0,0,0,0,0,0,0,0,0,0,0],"id":15,"left_children":[1,3,5,-1,-1,7,-1,-1,9,11,13,-1,-1,-1,-1],"loss_changes":[6.419723E1,2.922844E0,2.3277634E1,0E0,0E0,9.675686E0,0E0,0E0,8.261974E0,4.3227196E0,2.8742888E0,0E0,0E0,0E0,0E0],"parents":[2147483647,0,0,1,1,2,2,5,5,8,8,9,9,10,10],"right_children":[2,4,6,-1,-1,8,-1,-1,10,12,14,-1,-1,-1,-1],"split_conditions":[8.006617E-2,1.9882708E3,1.9873838E3,-3.930162E-2,-0E0,1.7206879E0,-3.571495E-2,-2.077839E-2,8.385816E-1,2.231372E0,5.5320877E-1,2.5300404E-2,-0E0,-2.7438182E-2,5.965819E-3],"split_indices":[3,2,2,0,0,8,0,0,24,9,9,0,0,0,0],"split_type":[0,0,0,0,0,0,0,0,0,0,0,0,0,0,0],"sum_hessian":[1.1274359E2,2.8473518E1,8.427007E1,2.73944E1,1.0791187E0,7.827967E1,5.9904013E0,3.5579698E0,7.47217E1,6.9760666E1,4.9610324E0,6.4349846E1,5.41082E0,2.4531002E0,2.5079324E0],"tree_param":{"num_deleted":"0","num_feature":"29","num_nodes":"15","size_leaf_vector":"1"}},{"base_weights":[-7.515893E-3,-1.1893517E0,3.6631152E-1,-3.7799176E-2,2.3202911E-4,5.4663867E-1,-3.677053E-2,6.1912537E-1,-2.4156233E-2,7.8928983E-1,-8.495883E-2,-1.8188896E-2,2.5618268E-2,-1.7677829E-2,1.9821603E-2],"categories":[],"categories_nodes":[],"categories_segments":[],"categories_sizes":[],"default_left":[0,0,0,0,0,0,0,0,0,0,0,0,0,0,0],"id":16,"left_children":[1,3,5,-1,-1,7,-1,9,-1,11,13,-1,-1,-1,-1],"loss_changes":[4.8286488E1,2.8739052E0,2.4550371E1,0E0,0E0,8.2877445E0,0E0,9.232199E0,0E0,6.5329285E0,6.549922E0,0E0,0E0,0E0,0E0],"parents":[2147483647,0,0,1,1,2,2,5,5,7,7,9,9,10,10],"right_children":[2,4,6,-1,-1,8,-1,10,-1,12,14,-1,-1,-1,-1],"split_conditions":[7.874501E-2,8.4225323E2,1.9873291E3,-3.7799176E-2,2.3202911E-4,2.5512671E0,-3.677053E-2,2.940025E0,-2.4156233E-2,1.7099112E0,1.675405E-1,-1.8188896E-2,2.5618268E-2,-1.7677829E-2,1.9821603E-2],"split_indices":[3,10,2,0,0,21,0,12,0,8,14,0,0,0,0],"split_type":[0,0,0,0,0,0,0,0,0,0,0,0,0,0,0],"sum_hessian":[1.0439054E2,2.4358099E1,8.003245E1,2.3296368E1,1.0617311E0,7.335121E1,6.6812353E0,7.0998146E1,2.3530633E0,5.7556007E1,1.34421425E1,1.4640393E0,5.6091965E1,8.669218E0,4.7729244E0],"tree_param":{"num_deleted":"0","num_feature":"29","num_nodes":"15","size_leaf_vector":"1"}},{"base_weights":[-8.540425E-2,-1.2812021E0,3.1195563E-1,-4.0638827E-2,4.636743E-4,-8.2706785E-1,4.6061137E-1,-0E0,-9.649791E-1,-1.1051759E-1,6.756375E-1,-3.4122065E-2,-0E0,-1.0703397E0,3.5402963E-1,9.2635584E-1,1.3204885E-1,-3.7996113E-2,-0E0,2.7143871E-2,-8.273733E-3,3.019264E-2,-0E0,3.0676208E-2,-5.7798657E-3],"categories":[],"categories_nodes":[],"categories_segments":[],"categories_sizes":[],"default_left":[0,0,0,0,0,0,0,0,0,0,0,0,0,0,0,0,0,0,0,0,0,0,0,0,0],"id":17,"left_children":[1,3,5,-1,-1,7,9,-1,11,13,15,-1,-1,17,19,21,23,-1,-1,-1,-1,-1,-1,-1,-1],"loss_changes":[5.1177853E1,3.272091E0,1.4142885E1,0E0,0E0,1.3533435E0,9.339567E0,0E0,1.6487713E0,1.0444739E1,6.5327435E0,0E0,0E0,1.8346977E0,6.1036396E0,2.547392E0,6.558499E0,0E0,0E0,0E0,0E0,0E0,0E0,0E0,0E0],"parents":[2147483647,0,0,1,1,2,2,5,5,6,6,8,8,9,9,10,10,13,13,14,14,15,15,16,16],"right_children":[2,4,6,-1,-1,8,10,-1,12,14,16,-1,-1,18,20,22,24,-1,-1,-1,-1,-1,-1,-1,-1],"split_conditions":[3.5342318E-1,8.301621E2,1.7654101E0,-4.0638827E-2,4.636743E-4,8.2362573E2,6.8741205E2,-0E0,1.1793419E-1,2.9213884E1,1.4380623E3,-3.4122065E-2,-0E0,7.4292314E-1,2.9300348E1,1.1162223E3,1.9159124E0,-3.7996113E-2,-0E0,2.7143871E-2,-8.273733E-3,3.019264E-2,-0E0,3.0676208E-2,-5.7798657E-3],"split_indices":[12,10,8,0,0,11,10,0,4,20,11,0,0,13,20,10,8,0,0,0,0,0,0,0,0],"split_type":[0,0,0,0,0,0,0,0,0,0,0,0,0,0,0,0,0,0,0,0,0,0,0,0,0],"sum_hessian":[1.03003914E2,2.4895174E1,7.8108734E1,2.3841309E1,1.0538654E0,7.5752463E0,7.053349E1,1.0879861E0,6.4872603E0,1.8921915E1,5.1611576E1,5.3835497E0,1.1037103E0,5.67166E0,1.3250256E1,3.372743E1,1.788415E1,4.6226854E0,1.0489746E0,7.026451E0,6.2238045E0,3.0783966E1,2.9434605E0,4.0417314E0,1.3842419E1],"tree_param":{"num_deleted":"0","num_feature":"29","num_nodes":"25","size_leaf_vector":"1"}},{"base_weights":[4.305543E-2,-1.115983E0,4.333675E-1,-1.1772335E0,2.3651302E-4,-1.4635697E-1,6.174064E-1,-3.7178952E-2,-0E0,-8.440065E-1,4.2463785E-1,-3.359228E-1,7.2957754E-1,-0E0,-1.073303E0,7.408243E-1,-2.1504745E-2,8.120555E-3,-1.8725451E-2,2.0246352E-1,1.1228893E0,-0E0,-3.65851E-2,-5.0186273E-3,2.9803628E-2,-2.3954986E-3,2.3998996E-2,-1.1560593E-3,3.6481764E-2],"categories":[],"categories_nodes":[],"categories_segments":[],"categories_sizes":[],"default_left":[0,0,0,0,0,0,0,0,0,0,0,0,0,0,0,0,0,0,0,0,0,0,0,0,0,0,0,0,0],"id":18,"left_children":[1,3,5,7,-1,9,11,-1,-1,13,15,17,19,-1,21,23,-1,-1,-1,25,27,-1,-1,-1,-1,-1,-1,-1,-1],"loss_changes":[5.217185E1,2.595459E0,9.698565E0,2.5459557E0,0E0,9.660863E0,7.85972E0,0E0,0E0,2.334423E0,5.7638197E0,1.9068195E0,1.1552681E1,0E0,1.027236E0,3.3842087E0,0E0,0E0,0E0,5.3961287E0,4.363289E0,0E0,0E0,0E0,0E0,0E0,0E0,0E0,0E0],"parents":[2147483647,0,0,1,1,2,2,3,3,5,5,6,6,9,9,10,10,11,11,12,12,14,14,15,15,19,19,20,20],"right_children":[2,4,6,8,-1,10,12,-1,-1,14,16,18,20,-1,22,24,-1,-1,-1,26,28,-1,-1,-1,-1,-1,-1,-1,-1],"split_conditions":[8.006617E-2,2.9787054E0,3.8921308E-2,3E0,2.3651302E-4,1.4213303E-1,3.0387417E1,-3.7178952E-2,-0E0,4.4354075E-1,2.940025E0,4.84393E0,2.9213884E1,-0E0,8.0839396E-2,8.490226E-2,-2.1504745E-2,8.120555E-3,-1.8725451E-2,5.64342E0,3.9422297E-1,-0E0,-3.65851E-2,-5.0186273E-3,2.9803628E-2,-2.3954986E-3,2.3998996E-2,-1.1560593E-3,3.6481764E-2],"split_indices":[3,0,1,5,0,18,15,0,0,16,12,6,20,0,3,3,0,0,0,6,12,0,0,0,0,0,0,0,0],"split_type":[0,0,0,0,0,0,0,0,0,0,0,0,0,0,0,0,0,0,0,0,0,0,0,0,0,0,0,0,0],"sum_hessian":[1.1194212E2,2.6940979E1,8.5001144E1,2.5880424E1,1.0605551E0,1.9926172E1,6.507497E1,2.481548E1,1.064945E0,8.932147E0,1.0994024E1,5.9615483E0,5.9113422E1,2.145614E0,6.786533E0,9.501975E0,1.4920495E0,1.4008977E0,4.5606503E0,2.7097841E1,3.201558E1,1.2897426E0,5.4967904E0,1.7843488E0,7.7176266E0,1.9011179E1,8.086662E0,2.0661235E0,2.9949457E1],"tree_param":{"num_deleted":"0","num_feature":"29","num_nodes":"29","size_leaf_vector":"1"}},{"base_weights":[4.3176045E-3,-1.1141691E0,4.26724E-1,-3.6919706E-2,-0E0,5.8589476E-1,-3.4249052E-2,-1.4427057E-2,1.7509114E-2,6.630484E-2,7.780855E-1,5.373233E-1,-5.567157E-1,8.711065E-1,-8.709694E-2,2.597616E-2,-4.5808214E-3,1.0382449E-2,-2.8107535E-2,-0E0,2.8868385E-2,6.6376175E-3,-2.0822128E-2],"categories":[],"categories_nodes":[],"categories_segments":[],"categories_sizes":[],"default_left":[0,0,0,0,0,0,0,0,0,0,0,0,0,0,0,0,0,0,0,0,0,0,0],"id":19,"left_children":[1,3,5,-1,7,9,-1,-1,-1,11,13,15,17,19,21,-1,-1,-1,-1,-1,-1,-1,-1],"loss_changes":[5.2329525E1,4.1574593E0,2.1339277E1,0E0,1.9023772E0,7.0002804E0,0E0,0E0,0E0,7.407721E0,4.8996773E0,3.9553318E0,4.558202E0,4.364933E0,1.7695765E0,0E0,0E0,0E0,0E0,0E0,0E0,0E0,0E0],"parents":[2147483647,0,0,1,1,2,2,4,4,5,5,9,9,10,10,11,11,12,12,13,13,14,14],"right_children":[2,4,6,-1,8,10,-1,-1,-1,12,14,16,18,20,22,-1,-1,-1,-1,-1,-1,-1,-1],"split_conditions":[8.006617E-2,7.373091E2,1.9873838E3,-3.6919706E-2,7.404287E-2,4.2558476E-1,-3.4249052E-2,-1.4427057E-2,1.7509114E-2,4.822612E-1,2.231372E0,1.589061E-1,1.146603E-1,4.884477E-1,3.23821E1,2.597616E-2,-4.5808214E-3,1.0382449E-2,-2.8107535E-2,-0E0,2.8868385E-2,6.6376175E-3,-2.0822128E-2],"split_indices":[3,10,2,0,3,9,0,0,0,12,9,14,4,0,15,0,0,0,0,0,0,0,0],"split_type":[0,0,0,0,0,0,0,0,0,0,0,0,0,0,0,0,0,0,0,0,0,0,0],"sum_hessian":[1.0747553E2,2.8240004E1,7.923553E1,2.5531282E1,2.7087214E0,7.336179E1,5.8737354E0,1.5004581E0,1.2082632E0,2.1237509E1,5.2124287E1,1.2707772E1,8.529736E0,4.757358E1,4.5507045E0,8.75434E0,3.953432E0,2.1911654E0,6.33857E0,4.2350206E0,4.3338562E1,3.3142326E0,1.2364718E0],"tree_param":{"num_deleted":"0","num_feature":"29","num_nodes":"23","size_leaf_vector":"1"}},{"base_weights":[-1.6065333E-2,-1.1240317E0,3.1306034E-1,-3.8220946E-2,-0E0,4.5338917E-1,-3.3702526E-2,1.0182533E-2,-1.3481484E-2,-9.300951E-1,6.021073E-1,-0E0,-3.3230055E-2,6.7228955E-1,-1.7269196E-2,3.058132E-2,1.1261293E-2],"categories":[],"categories_nodes":[],"categories_segments":[],"categories_sizes":[],"default_left":[0,0,0,0,0,0,0,0,0,0,0,0,0,0,0,0,0],"id":20,"left_children":[1,3,5,-1,7,9,-1,-1,-1,11,13,-1,-1,15,-1,-1,-1],"loss_changes":[4.0738785E1,3.9889374E0,1.7818438E1,0E0,1.1323692E0,1.7247211E1,0E0,0E0,0E0,1.5975962E0,6.8591537E0,0E0,0E0,5.7770023E0,0E0,0E0,0E0],"parents":[2147483647,0,0,1,1,2,2,4,4,5,5,9,9,10,10,13,13],"right_children":[2,4,6,-1,8,10,-1,-1,-1,12,14,-1,-1,16,-1,-1,-1],"split_conditions":[1.0002991E-1,3.356862E1,1.9873838E3,-3.8220946E-2,1.6975462E-1,1.7206879E0,-3.3702526E-2,1.0182533E-2,-1.3481484E-2,9.8626965E2,8.459291E-1,-0E0,-3.3230055E-2,1.1669759E-1,-1.7269196E-2,3.058132E-2,1.1261293E-2],"split_indices":[4,15,2,0,18,8,0,0,0,2,24,0,0,4,0,0,0],"split_type":[0,0,0,0,0,0,0,0,0,0,0,0,0,0,0,0,0],"sum_hessian":[1.0667522E2,2.3672625E1,8.3002594E1,2.0440807E1,3.2318172E0,7.717976E1,5.822831E0,1.7820808E0,1.4497364E0,6.14493E0,7.1034836E1,1.1000375E0,5.0448923E0,6.825065E1,2.7841873E0,2.8446518E1,3.9804127E1],"tree_param":{"num_deleted":"0","num_feature":"29","num_nodes":"17","size_leaf_vector":"1"}},{"base_weights":[-1.2869968E-2,-1.1170688E0,3.3715394E-1,-3.555209E-2,7.645835E-4,-3.1163287E-1,5.762555E-1,1.795074E-1,-1.1599565E0,8.24082E-1,7.099984E-2,6.68252E-1,-2.7698385E-2,-3.957185E-2,-0E0,-6.9550346E-3,8.9871514E-1,5.950442E-1,-4.6132287E-1,-5.009945E-3,2.9994432E-2,2.8947838E-2,-4.873858E-3,2.3313224E-2,-5.3715766E-3,-2.3219604E-2,1.3356354E-2],"categories":[],"categories_nodes":[],"categories_segments":[],"categories_sizes":[],"default_left":[0,0,0,0,0,0,0,0,0,0,0,0,0,0,0,0,0,0,0,0,0,0,0,0,0,0,0],"id":21,"left_children":[1,3,5,-1,-1,7,9,11,13,15,17,19,-1,-1,-1,-1,21,23,25,-1,-1,-1,-1,-1,-1,-1,-1],"loss_changes":[4.254234E1,2.7060432E0,1.3293193E1,0E0,0E0,1.0472094E1,7.144541E0,9.675609E0,1.7460384E0,3.9381428E0,7.063493E0,4.209523E0,0E0,0E0,0E0,0E0,3.4294224E0,2.4085884E0,4.288637E0,0E0,0E0,0E0,0E0,0E0,0E0,0E0,0E0],"parents":[2147483647,0,0,1,1,2,2,5,5,6,6,7,7,8,8,9,9,10,10,11,11,16,16,17,17,18,18],"right_children":[2,4,6,-1,-1,8,10,12,14,16,18,20,-1,-1,-1,-1,22,24,26,-1,-1,-1,-1,-1,-1,-1,-1],"split_conditions":[7.8798614E-2,8.301621E2,6.8741205E2,-3.555209E-2,7.645835E-4,1.6605719E0,1.4380623E3,2.5512671E0,6.75017E2,1.9986777E0,1.9697369E0,2.9203014E1,-2.7698385E-2,-3.957185E-2,-0E0,-6.9550346E-3,1.3677578E3,5.5814843E0,1.1543192E3,-5.009945E-3,2.9994432E-2,2.8947838E-2,-4.873858E-3,2.3313224E-2,-5.3715766E-3,-2.3219604E-2,1.3356354E-2],"split_indices":[3,10,10,0,0,7,11,21,10,23,7,20,0,0,0,0,10,6,10,0,0,0,0,0,0,0,0],"split_type":[0,0,0,0,0,0,0,0,0,0,0,0,0,0,0,0,0,0,0,0,0,0,0,0,0,0,0],"sum_hessian":[1.05114006E2,2.4589304E1,8.05247E1,2.3550837E1,1.0384673E0,2.0958174E1,5.9566525E1,1.3898803E1,7.0593705E0,3.8453533E1,2.1112991E1,1.049083E1,3.407972E0,6.0092077E0,1.0501627E0,1.8181459E0,3.6635387E1,1.09937935E1,1.0119198E1,2.8346395E0,7.6561913E0,3.5098E1,1.5373877E0,9.417084E0,1.5767106E0,8.151666E0,1.9675322E0],"tree_param":{"num_deleted":"0","num_feature":"29","num_nodes":"27","size_leaf_vector":"1"}},{"base_weights":[-0E0,-1.1090842E0,3.553515E-1,-3.529119E-2,9.368692E-4,4.9134716E-1,-3.245082E-2,5.61953E-1,-2.3898566E-2,9.080821E-1,2.3544593E-1,-4.98974E-3,2.9703772E-2,-2.345397E-2,1.1498359E-2],"categories":[],"categories_nodes":[],"categories_segments":[],"categories_sizes":[],"default_left":[0,0,0,0,0,0,0,0,0,0,0,0,0,0,0],"id":22,"left_children":[1,3,5,-1,-1,7,-1,9,-1,11,13,-1,-1,-1,-1],"loss_changes":[4.357848E1,2.7084236E0,1.7043728E1,0E0,0E0,7.850685E0,0E0,7.507576E0,0E0,3.8348637E0,6.742877E0,0E0,0E0,0E0,0E0],"parents":[2147483647,0,0,1,1,2,2,5,5,7,7,9,9,10,10],"right_children":[2,4,6,-1,-1,8,-1,10,-1,12,14,-1,-1,-1,-1],"split_conditions":[7.8798614E-2,1.9867781E3,1.9873838E3,-3.529119E-2,9.368692E-4,2.5512671E0,-3.245082E-2,1.1669759E-1,-2.3898566E-2,3.0027214E1,1.0399293E3,-4.98974E-3,2.9703772E-2,-2.345397E-2,1.1498359E-2],"split_indices":[3,2,2,0,0,21,0,4,0,15,11,0,0,0,0],"split_type":[0,0,0,0,0,0,0,0,0,0,0,0,0,0,0],"sum_hessian":[1.0616009E2,2.4878265E1,8.128182E1,2.3846344E1,1.0319216E0,7.5774925E1,5.5068984E0,7.3273674E1,2.5012498E0,3.309549E1,4.017819E1,1.7698212E0,3.1325668E1,3.5806344E0,3.6597553E1],"tree_param":{"num_deleted":"0","num_feature":"29","num_nodes":"15","size_leaf_vector":"1"}},{"base_weights":[1.1009456E-3,-1.0447751E0,3.73056E-1,-3.470387E-2,-2.279332E-2,5.32656E-1,-3.3467002E-2,-1.781198E-2,1.6769724E-2,-3.3761978E-1,6.710824E-1,1.0570538E-1,-2.6070548E-2,-9.707314E-3,7.207624E-1,-1.2297311E-2,1.6659733E-2,2.6191968E-2,8.89039E-3],"categories":[],"categories_nodes":[],"categories_segments":[],"categories_sizes":[],"default_left":[0,0,0,0,0,0,0,0,0,0,0,0,0,0,0,0,0,0,0],"id":23,"left_children":[1,3,5,-1,7,9,-1,-1,-1,11,13,15,-1,-1,17,-1,-1,-1,-1],"loss_changes":[4.194697E1,2.5815392E0,2.0028473E1,0E0,2.4293463E0,9.580946E0,0E0,0E0,0E0,3.1668856E0,3.8938847E0,2.218132E0,0E0,0E0,2.9916115E0,0E0,0E0,0E0,0E0],"parents":[2147483647,0,0,1,1,2,2,4,4,5,5,9,9,10,10,11,11,14,14],"right_children":[2,4,6,-1,8,10,-1,-1,-1,12,14,16,-1,-1,18,-1,-1,-1,-1],"split_conditions":[8.006617E-2,7.373091E2,1.9873291E3,-3.470387E-2,7.706643E-2,5.221604E-1,-3.3467002E-2,-1.781198E-2,1.6769724E-2,6.447716E-1,2.2514756E0,5.7057065E-1,-2.6070548E-2,-9.707314E-3,1.4019148E3,-1.2297311E-2,1.6659733E-2,2.6191968E-2,8.89039E-3],"split_indices":[3,10,2,0,3,0,0,0,0,24,23,13,0,0,11,0,0,0,0],"split_type":[0,0,0,0,0,0,0,0,0,0,0,0,0,0,0,0,0,0,0],"sum_hessian":[1.0468714E2,2.616198E1,7.852516E1,2.289893E1,3.2630508E0,7.2384796E1,6.1403604E0,2.0598993E0,1.2031515E0,9.042888E0,6.334191E1,5.2904873E0,3.7524E0,2.0099137E0,6.1331997E1,2.0286477E0,3.2618396E0,4.271226E1,1.8619738E1],"tree_param":{"num_deleted":"0","num_feature":"29","num_nodes":"19","size_leaf_vector":"1"}},{"base_weights":[-1.7348655E-2,-1.0815753E0,3.1949404E-1,-3.4422647E-2,4.7060385E-4,4.0482587E-1,-2.7495332E-2,7.8292304E-1,9.054692E-2,-1.7571363E-3,8.7221026E-1,-3.4072228E-2,2.6822147E-1,5.3940336E-3,3.0335143E-2,1.4783035E-2,-9.060623E-3],"categories":[],"categories_nodes":[],"categories_segments":[],"categories_sizes":[],"default_left":[0,0,0,0,0,0,0,0,0,0,0,0,0,0,0,0,0],"id":24,"left_children":[1,3,5,-1,-1,7,-1,9,11,-1,13,-1,15,-1,-1,-1,-1],"loss_changes":[3.9416843E1,2.5186272E0,9.1808E0,0E0,0E0,8.794402E0,0E0,3.1251926E0,1.0210612E1,0E0,2.1336231E0,0E0,5.7969766E0,0E0,0E0,0E0,0E0],"parents":[2147483647,0,0,1,1,2,2,5,5,7,7,8,8,10,10,12,12],"right_children":[2,4,6,-1,-1,8,-1,10,12,-1,14,-1,16,-1,-1,-1,-1],"split_conditions":[7.8798614E-2,2.7099278E0,2.5512671E0,-3.4422647E-2,4.7060385E-4,1.1669759E-1,-2.7495332E-2,3.1183202E-2,1.0399293E3,-1.7571363E-3,1.8198586E1,-3.4072228E-2,5.5835094E0,5.3940336E-3,3.0335143E-2,1.4783035E-2,-9.060623E-3],"split_indices":[3,0,21,0,0,4,0,1,11,0,27,0,6,0,0,0,0],"split_type":[0,0,0,0,0,0,0,0,0,0,0,0,0,0,0,0,0],"sum_hessian":[1.0496555E2,2.4529415E1,8.0436134E1,2.348438E1,1.0450348E0,7.687807E1,3.5580664E0,3.2820126E1,4.4057945E1,2.6771607E0,3.0142963E1,3.8546915E0,4.020325E1,6.406562E0,2.3736403E1,2.9668947E1,1.0534306E1],"tree_param":{"num_deleted":"0","num_feature":"29","num_nodes":"17","size_leaf_vector":"1"}},{"base_weights":[-4.220149E-2,-1.1074945E0,3.1911942E-1,-3.7017304E-2,-0E0,4.652789E-1,-3.218582E-2,-1.575995E-2,1.642639E-2,3.709598E-2,6.760159E-1,8.403061E-1,-3.469295E-1,7.9710454E-1,-1.2145532E-1,-1.4959602E-3,3.1508595E-2,4.08367E-3,-2.3496108E-2,-0E0,2.635808E-2,1.2711357E-2,-1.2805107E-2],"categories":[],"categories_nodes":[],"categories_segments":[],"categories_sizes":[],"default_left":[0,0,0,0,0,0,0,0,0,0,0,0,0,0,0,0,0,0,0,0,0,0,0],"id":25,"left_children":[1,3,5,-1,7,9,-1,-1,-1,11,13,15,17,19,21,-1,-1,-1,-1,-1,-1,-1,-1],"loss_changes":[4.1464916E1,3.5276337E0,1.6870525E1,0E0,2.0084796E0,6.241081E0,0E0,0E0,0E0,9.219185E0,5.212364E0,2.4373622E0,4.624166E0,2.8214512E0,1.6254444E0,0E0,0E0,0E0,0E0,0E0,0E0,0E0,0E0],"parents":[2147483647,0,0,1,1,2,2,4,4,5,5,9,9,10,10,11,11,12,12,13,13,14,14],"right_children":[2,4,6,-1,8,10,-1,-1,-1,12,14,16,18,20,22,-1,-1,-1,-1,-1,-1,-1,-1],"split_conditions":[8.078151E-2,7.373091E2,1.9873838E3,-3.7017304E-2,7.706643E-2,4.2979366E-1,-3.218582E-2,-1.575995E-2,1.642639E-2,5.106347E-1,2.231372E0,3.9422297E-1,8.6536475E-2,4.884477E-1,8.9358884E-1,-1.4959602E-3,3.1508595E-2,4.08367E-3,-2.3496108E-2,-0E0,2.635808E-2,1.2711357E-2,-1.2805107E-2],"split_indices":[3,10,2,0,3,9,0,0,0,13,9,12,3,0,16,0,0,0,0,0,0,0,0],"split_type":[0,0,0,0,0,0,0,0,0,0,0,0,0,0,0,0,0,0,0,0,0,0,0],"sum_hessian":[1.0286505E2,2.5357208E1,7.750784E1,2.2355743E1,3.001466E0,7.1672806E1,5.8350377E0,1.8017229E0,1.199743E0,2.5198433E1,4.6474373E1,7.8032355E0,1.7395197E1,4.0893044E1,5.5813274E0,1.3259597E0,6.477276E0,8.364147E0,9.03105E0,3.9333572E0,3.6959686E1,1.1378231E0,4.4435043E0],"tree_param":{"num_deleted":"0","num_feature":"29","num_nodes":"23","size_leaf_vector":"1"}},{"base_weights":[4.7980513E-2,-3.611313E-2,3.279765E-1,-7.6361036E-1,5.1829493E-1,5.3080553E-3,-9.086498E-1,6.295663E-1,-7.026752E-1,-0E0,-1.0202739E0,1.9897695E-1,9.200662E-1,-2.737647E-2,1.1380947E-4,-3.4150805E-2,-0E0,-3.0181145E-2,1.17577715E-2,-0E0,3.1010756E-2],"categories":[],"categories_nodes":[],"categories_segments":[],"categories_sizes":[],"default_left":[0,0,0,0,0,0,0,0,0,0,0,0,0,0,0,0,0,0,0,0,0],"id":26,"left_children":[1,-1,3,5,7,-1,9,11,13,-1,15,17,19,-1,-1,-1,-1,-1,-1,-1,-1],"loss_changes":[3.7620373E1,0E0,1.9116005E1,2.5428782E0,1.1335655E1,0E0,1.5797224E0,8.102606E0,1.5017331E0,0E0,1.5105696E0,7.996697E0,4.190651E0,0E0,0E0,0E0,0E0,0E0,0E0,0E0,0E0],"parents":[2147483647,0,0,2,2,3,3,4,4,6,6,7,7,8,8,10,10,11,11,12,12],"right_children":[2,-1,4,6,8,-1,10,12,14,-1,16,18,20,-1,-1,-1,-1,-1,-1,-1,-1],"split_conditions":[1.3105452E0,-3.611313E-2,1.7654101E0,1.8400025E-1,1.9873838E3,5.3080553E-3,9.862883E2,2.9203014E1,8.475623E2,-0E0,6.167355E0,6.3974243E2,3.0251451E1,-2.737647E-2,1.1380947E-4,-3.4150805E-2,-0E0,-3.0181145E-2,1.17577715E-2,-0E0,3.1010756E-2],"split_indices":[7,0,8,12,2,0,2,20,10,0,12,10,15,0,0,0,0,0,0,0,0],"split_type":[0,0,0,0,0,0,0,0,0,0,0,0,0,0,0,0,0,0,0,0,0],"sum_hessian":[1.0433439E2,1.7539219E1,8.6795166E1,1.1601586E1,7.519358E1,1.0306847E0,1.0570901E1,7.017641E1,5.0171747E0,1.0826311E0,9.48827E0,3.0322445E1,3.9853962E1,3.9639294E0,1.0532454E0,8.394139E0,1.0941311E0,2.6642318E0,2.7658213E1,4.7737193E0,3.5080242E1],"tree_param":{"num_deleted":"0","num_feature":"29","num_nodes":"21","size_leaf_vector":"1"}},{"base_weights":[-3.3445965E-2,-1.0427328E0,2.9648295E-1,-3.3307217E-2,1.3197169E-3,4.3182197E-1,-3.081882E-2,-4.7492927E-1,5.409004E-1,-2.8622326E-2,1.253557E-2,-2.1597095E-2,6.179593E-1,2.1803785E-2,-2.8270397E-3],"categories":[],"categories_nodes":[],"categories_segments":[],"categories_sizes":[],"default_left":[0,0,0,0,0,0,0,0,0,0,0,0,0,0,0],"id":27,"left_children":[1,3,5,-1,-1,7,-1,9,11,-1,-1,-1,13,-1,-1],"loss_changes":[3.494761E1,2.5336819E0,1.4570052E1,0E0,0E0,7.7222023E0,0E0,4.6428204E0,7.2690105E0,0E0,0E0,0E0,5.4001675E0,0E0,0E0],"parents":[2147483647,0,0,1,1,2,2,5,5,7,7,8,8,12,12],"right_children":[2,4,6,-1,-1,8,-1,10,12,-1,-1,-1,14,-1,-1],"split_conditions":[7.8798614E-2,1.9867781E3,1.9873838E3,-3.3307217E-2,1.3197169E-3,3.0387417E1,-3.081882E-2,1.4004163E3,1.383801E0,-2.8622326E-2,1.253557E-2,-2.1597095E-2,7.8538156E-1,2.1803785E-2,-2.8270397E-3],"split_indices":[3,2,2,0,0,15,0,2,7,0,0,0,24,0,0],"split_type":[0,0,0,0,0,0,0,0,0,0,0,0,0,0,0],"sum_hessian":[9.997267E1,2.393809E1,7.6034584E1,2.2930458E1,1.007633E0,7.054733E1,5.4872513E0,6.362769E0,6.418456E1,4.415657E0,1.9471124E0,2.362205E0,6.1822357E1,5.4200756E1,7.6216E0],"tree_param":{"num_deleted":"0","num_feature":"29","num_nodes":"15","size_leaf_vector":"1"}},{"base_weights":[-0E0,-1.0170858E0,3.1243017E-1,-3.261196E-2,1.0749979E-3,-2.3817442E-1,4.973718E-1,2.3785067E-1,-9.5479435E-1,6.945721E-1,4.1186605E-2,-2.207012E-2,6.577649E-1,-3.7497915E-2,5.001802E-3,-6.8069114E-3,7.5968874E-1,4.770027E-1,-6.278702E-1,2.8161071E-2,-1.4408714E-2,2.5890497E-2,-0E0,-4.4634948E-3,1.8372752E-2,-3.3140756E-2,1.2201467E-2],"categories":[],"categories_nodes":[],"categories_segments":[],"categories_sizes":[],"default_left":[0,0,0,0,0,0,0,0,0,0,0,0,0,0,0,0,0,0,0,0,0,0,0,0,0,0,0],"id":28,"left_children":[1,3,5,-1,-1,7,9,11,13,15,17,-1,19,-1,-1,-1,21,23,25,-1,-1,-1,-1,-1,-1,-1,-1],"loss_changes":[3.3165466E1,2.4076557E0,8.541529E0,0E0,0E0,7.9279613E0,5.100521E0,6.535395E0,3.984829E0,3.1308727E0,6.7721286E0,0E0,4.6467524E0,0E0,0E0,0E0,3.3404446E0,1.6484437E0,5.620208E0,0E0,0E0,0E0,0E0,0E0,0E0,0E0,0E0],"parents":[2147483647,0,0,1,1,2,2,5,5,6,6,7,7,8,8,9,9,10,10,12,12,16,16,17,17,18,18],"right_children":[2,4,6,-1,-1,8,10,12,14,16,18,-1,20,-1,-1,-1,22,24,26,-1,-1,-1,-1,-1,-1,-1,-1],"split_conditions":[7.8798614E-2,2.9787054E0,6.8741205E2,-3.261196E-2,1.0749979E-3,1.6605719E0,1.4380623E3,3.8111396E-2,4.8653664E1,1.9986777E0,1.9811999E0,-2.207012E-2,1.5417025E0,-3.7497915E-2,5.001802E-3,-6.8069114E-3,1.1162223E3,1.8867519E0,1.1543192E3,2.8161071E-2,-1.4408714E-2,2.5890497E-2,-0E0,-4.4634948E-3,1.8372752E-2,-3.3140756E-2,1.2201467E-2],"split_indices":[3,0,10,0,0,7,11,1,23,23,7,0,0,0,0,0,10,21,10,0,0,0,0,0,0,0,0],"split_type":[0,0,0,0,0,0,0,0,0,0,0,0,0,0,0,0,0,0,0,0,0,0,0,0,0,0,0],"sum_hessian":[1.0076634E2,2.2485163E1,7.828118E1,2.1468338E1,1.0168256E0,1.8858068E1,5.942311E1,1.1714807E1,7.143262E0,3.9993496E1,1.9429617E1,2.7182467E0,8.99656E0,5.826744E0,1.3165176E0,1.8048939E0,3.8188602E1,1.2565812E1,6.8638043E0,7.848728E0,1.1478316E0,3.362628E1,4.5623207E0,1.54356E0,1.1022252E1,4.9364467E0,1.9273577E0],"tree_param":{"num_deleted":"0","num_feature":"29","num_nodes":"27","size_leaf_vector":"1"}},{"base_weights":[-0E0,-3.2562044E-2,3.14108E-1,4.45462E-1,-3.0769214E-2,2.2303239E-1,8.5958505E-1,-4.8184037E-1,4.0197262E-1,9.3165535E-1,-1.205368E-3,1.2690042E-2,-2.1544999E-2,-0E0,1.9062757E-2,-0E0,3.0034557E-2],"categories":[],"categories_nodes":[],"categories_segments":[],"categories_sizes":[],"default_left":[0,0,0,0,0,0,0,0,0,0,0,0,0,0,0,0,0],"id":29,"left_children":[1,-1,3,5,-1,7,9,11,13,15,-1,-1,-1,-1,-1,-1,-1],"loss_changes":[3.6830437E1,0E0,1.5154465E1,6.161685E0,0E0,7.099914E0,2.1674328E0,3.1464965E0,4.4459643E0,1.9091969E0,0E0,0E0,0E0,0E0,0E0,0E0,0E0],"parents":[2147483647,0,0,2,2,3,3,5,5,6,6,7,7,8,8,9,9],"right_children":[2,-1,4,6,-1,8,10,12,14,16,-1,-1,-1,-1,-1,-1,-1],"split_conditions":[7.8798614E-2,-3.2562044E-2,1.9873838E3,9.937657E2,-3.0769214E-2,3.8921308E-2,1.2225437E-1,1.2186135E-2,2.1338656E0,1.7099112E0,-1.205368E-3,1.2690042E-2,-2.1544999E-2,-0E0,1.9062757E-2,-0E0,3.0034557E-2],"split_indices":[3,0,2,2,0,1,4,24,8,8,0,0,0,0,0,0,0],"split_type":[0,0,0,0,0,0,0,0,0,0,0,0,0,0,0,0,0],"sum_hessian":[1.02917595E2,2.2347544E1,8.057005E1,7.493168E1,5.6383724E0,5.1535793E1,2.3395885E1,9.182968E0,4.2352825E1,2.2109728E1,1.2861575E0,1.136403E0,8.046565E0,1.5592097E1,2.6760729E1,1.3262455E0,2.0783484E1],"tree_param":{"num_deleted":"0","num_feature":"29","num_nodes":"17","size_leaf_vector":"1"}},{"base_weights":[-0E0,-1.0039072E0,3.1467098E-1,-3.2215305E-2,1.4374634E-3,-2.1018693E-2,4.060906E-1,-1.7809922E-2,5.0510496E-1,-0E0,6.545892E-1,-2.2442024E-2,1.2669334E-2,2.5385907E-2,7.812419E-3],"categories":[],"categories_nodes":[],"categories_segments":[],"categories_sizes":[],"default_left":[0,0,0,0,0,0,0,0,0,0,0,0,0,0,0],"id":30,"left_children":[1,3,5,-1,-1,-1,7,-1,9,11,13,-1,-1,-1,-1],"loss_changes":[3.284993E1,2.4348774E0,7.8537183E0,0E0,0E0,0E0,7.996934E0,0E0,5.5049915E0,6.255294E0,3.1213455E0,0E0,0E0,0E0,0E0],"parents":[2147483647,0,0,1,1,2,2,6,6,8,8,9,9,10,10],"right_children":[2,4,6,-1,-1,-1,8,-1,10,12,14,-1,-1,-1,-1],"split_conditions":[8.006617E-2,8.4225323E2,2.588169E0,-3.2215305E-2,1.4374634E-3,-2.1018693E-2,1.7654101E0,-1.7809922E-2,6.771071E2,2.9203014E1,1.4060123E3,-2.2442024E-2,1.2669334E-2,2.5385907E-2,7.812419E-3],"split_indices":[3,10,23,0,0,0,8,0,10,20,11,0,0,0,0],"split_type":[0,0,0,0,0,0,0,0,0,0,0,0,0,0,0],"sum_hessian":[1.0079827E2,2.272793E1,7.8070335E1,2.1717417E1,1.010512E0,4.896255E0,7.317408E1,5.238578E0,6.793551E1,1.5446779E1,5.2488728E1,5.3100705E0,1.0136708E1,3.2922962E1,1.9565763E1],"tree_param":{"num_deleted":"0","num_feature":"29","num_nodes":"15","size_leaf_vector":"1"}},{"base_weights":[-3.6758695E-2,-3.4727946E-2,2.0967864E-1,-7.0793223E-1,3.7361714E-1,-9.362644E-1,2.9725002E-3,1.4034517E-1,8.774646E-1,-3.1563133E-2,-0E0,4.5841384E-1,-3.203458E-1,2.8834503E-2,-0E0,-6.1114775E-3,2.3283077E-2,1.9567078E-2,-2.9633185E-2],"categories":[],"categories_nodes":[],"categories_segments":[],"categories_sizes":[],"default_left":[0,0,0,0,0,0,0,0,0,0,0,0,0,0,0,0,0,0,0],"id":31,"left_children":[1,-1,3,5,7,9,-1,11,13,-1,-1,15,17,-1,-1,-1,-1,-1,-1],"loss_changes":[2.9033735E1,0E0,1.3095437E1,3.01051E0,7.893839E0,1.2960415E0,0E0,8.18151E0,1.6121044E0,0E0,0E0,7.55038E0,1.5950442E1,0E0,0E0,0E0,0E0,0E0,0E0],"parents":[2147483647,0,0,2,2,3,3,4,4,5,5,7,7,8,8,11,11,12,12],"right_children":[2,-1,4,6,8,10,-1,12,14,-1,-1,16,18,-1,-1,-1,-1,-1,-1],"split_conditions":[1.3105452E0,-3.4727946E-2,1.7654101E0,1.3957682E0,5.64342E0,5.3078175E0,2.9725002E-3,1.8961315E0,2.5619047E0,-3.1563133E-2,-0E0,1.1546228E3,5.106347E-1,2.8834503E-2,-0E0,-6.1114775E-3,2.3283077E-2,1.9567078E-2,-2.9633185E-2],"split_indices":[7,0,8,16,6,12,0,7,7,0,0,11,13,0,0,0,0,0,0],"split_type":[0,0,0,0,0,0,0,0,0,0,0,0,0,0,0,0,0,0,0],"sum_hessian":[9.963877E1,1.6991722E1,8.264705E1,1.1059177E1,7.158787E1,8.853479E0,2.2056973E0,5.1359047E1,2.0228823E1,7.7658987E0,1.0875812E0,3.1030376E1,2.0328672E1,1.8271557E1,1.9572659E0,9.78339E0,2.1246986E1,7.986718E0,1.2341954E1],"tree_param":{"num_deleted":"0","num_feature":"29","num_nodes":"19","size_leaf_vector":"1"}},{"base_weights":[-0E0,-1.0196316E0,3.0504844E-1,-3.2028653E-2,-0E0,4.1638362E-1,-7.520677E-1,-2.762918E-1,5.612775E-1,1.1283803E-3,-2.8725877E-2,-6.072762E-1,1.9114044E-2,6.4999646E-1,-0E0,-2.8081525E-2,-0E0,-3.0439014E-3,2.1465125E-2,-8.463188E-3,1.9178934E-2],"categories":[],"categories_nodes":[],"categories_segments":[],"categories_sizes":[],"default_left":[0,0,0,0,0,0,0,0,0,0,0,0,0,0,0,0,0,0,0,0,0],"id":32,"left_children":[1,3,5,-1,-1,7,9,11,13,-1,-1,15,-1,17,19,-1,-1,-1,-1,-1,-1],"loss_changes":[3.209175E1,1.1029034E0,9.685356E0,0E0,0E0,7.7433567E0,1.7902012E0,4.7828965E0,2.91576E0,0E0,0E0,2.5883145E0,0E0,3.0431824E0,2.3662562E0,0E0,0E0,0E0,0E0,0E0,0E0],"parents":[2147483647,0,0,1,1,2,2,5,5,6,6,7,7,8,8,11,11,13,13,14,14],"right_children":[2,4,6,-1,-1,8,10,12,14,-1,-1,16,-1,18,20,-1,-1,-1,-1,-1,-1],"split_conditions":[4.563353E0,4.080663E-1,1.9873838E3,-3.2028653E-2,-0E0,2.9093424E1,1.5876359E0,2.5754611E0,2.940025E0,1.1283803E-3,-2.8725877E-2,9.933715E2,1.9114044E-2,3.9100426E-1,8.798715E-2,-2.8081525E-2,-0E0,-3.0439014E-3,2.1465125E-2,-8.463188E-3,1.9178934E-2],"split_indices":[6,12,2,0,0,20,21,16,12,0,0,2,0,12,3,0,0,0,0,0,0],"split_type":[0,0,0,0,0,0,0,0,0,0,0,0,0,0,0,0,0,0,0,0,0],"sum_hessian":[9.82481E1,2.185088E1,7.639722E1,2.0722466E1,1.1284144E0,7.064239E1,5.7548275E0,1.1309934E1,5.933246E1,1.0230638E0,4.731764E0,9.195591E0,2.1143425E0,5.0633644E1,8.698813E0,5.66622E0,3.5293708E0,3.3599648E0,4.7273678E1,6.579818E0,2.1189961E0],"tree_param":{"num_deleted":"0","num_feature":"29","num_nodes":"21","size_leaf_vector":"1"}},{"base_weights":[-2.736269E-2,-6.615415E-1,3.6014605E-1,-8.400834E-1,3.765366E-1,-2.1610014E-2,4.5739865E-1,5.6854E-3,-2.8235631E-2,-3.2324123E-3,1.9347657E-2,6.960701E-1,-0E0,9.2739925E-2,8.714441E-1,-2.2767675E-1,1.6798597E-2,1.0188329E-2,-1.2490728E-2,2.9023152E-2,-0E0,1.3273822E-2,-1.779846E-2],"categories":[],"categories_nodes":[],"categories_segments":[],"categories_sizes":[],"default_left":[0,0,0,0,0,0,0,0,0,0,0,0,0,0,0,0,0,0,0,0,0,0,0],"id":33,"left_children":[1,3,5,7,9,-1,11,-1,-1,-1,-1,13,15,17,19,21,-1,-1,-1,-1,-1,-1,-1],"loss_changes":[2.4664791E1,7.9617157E0,6.9919777E0,4.241007E0,1.2640542E0,0E0,6.484191E0,0E0,0E0,0E0,0E0,3.4262142E0,2.9433866E0,1.6951835E0,2.4975567E0,4.778901E0,0E0,0E0,0E0,0E0,0E0,0E0,0E0],"parents":[2147483647,0,0,1,1,2,2,3,3,4,4,6,6,11,11,12,12,13,13,14,14,15,15],"right_children":[2,4,6,8,10,-1,12,-1,-1,-1,-1,14,16,18,20,22,-1,-1,-1,-1,-1,-1,-1],"split_conditions":[6.8741205E2,2.6382267E0,8.746337E-2,1.0763526E1,1.1422593E-1,-2.1610014E-2,1.4380623E3,5.6854E-3,-2.8235631E-2,-3.2324123E-3,1.9347657E-2,9.8723975E2,1.0619994E3,9.8712634E2,1.288198E-1,8.039203E2,1.6798597E-2,1.0188329E-2,-1.2490728E-2,2.9023152E-2,-0E0,1.3273822E-2,-1.779846E-2],"split_indices":[10,16,4,27,4,0,11,0,0,0,0,2,10,2,1,10,0,0,0,0,0,0,0],"split_type":[0,0,0,0,0,0,0,0,0,0,0,0,0,0,0,0,0,0,0,0,0,0,0],"sum_hessian":[9.5813255E1,3.6293293E1,5.9519962E1,3.1703623E1,4.58967E0,3.4322813E0,5.608768E1,2.236272E0,2.9467352E1,1.399123E0,3.1905472E0,3.646521E1,1.9622469E1,9.543134E0,2.6922077E1,1.5054626E1,4.567842E0,7.5365024E0,2.0066314E0,2.4135742E1,2.786335E0,4.682958E0,1.0371669E1],"tree_param":{"num_deleted":"0","num_feature":"29","num_nodes":"23","size_leaf_vector":"1"}},{"base_weights":[1.5007875E-2,-9.5018506E-1,3.1571585E-1,-3.0603014E-2,-0E0,-1.8036151E-2,4.100706E-1,4.765155E-1,-2.1044448E-2,1.697753E-1,7.077778E-1,-2.1658467E-2,9.911074E-3,1.0727362E-3,2.5857773E-2],"categories":[],"categories_nodes":[],"categories_segments":[],"categories_sizes":[],"default_left":[0,0,0,0,0,0,0,0,0,0,0,0,0,0,0],"id":34,"left_children":[1,3,5,-1,-1,-1,7,9,-1,11,13,-1,-1,-1,-1],"loss_changes":[2.8487051E1,1.9696732E0,6.971679E0,0E0,0E0,0E0,5.7689943E0,4.1599617E0,0E0,4.9903016E0,3.3568115E0,0E0,0E0,0E0,0E0],"parents":[2147483647,0,0,1,1,2,2,6,6,7,7,9,9,10,10],"right_children":[2,4,6,-1,-1,-1,8,10,-1,12,14,-1,-1,-1,-1],"split_conditions":[8.006617E-2,5.164701E0,1.7654101E0,-3.0603014E-2,-0E0,-1.8036151E-2,2.5512671E0,2.9203014E1,-2.1044448E-2,1.0593258E3,2.5123743E-2,-2.1658467E-2,9.911074E-3,1.0727362E-3,2.5857773E-2],"split_indices":[3,6,8,0,0,0,21,20,0,11,24,0,0,0,0],"split_type":[0,0,0,0,0,0,0,0,0,0,0,0,0,0,0],"sum_hessian":[9.517541E1,2.1187323E1,7.398808E1,2.0010643E1,1.1766788E0,5.406465E0,6.858162E1,6.621589E1,2.3657322E0,3.088334E1,3.5332546E1,3.1710603E0,2.771228E1,7.6573443E0,2.7675203E1],"tree_param":{"num_deleted":"0","num_feature":"29","num_nodes":"15","size_leaf_vector":"1"}},{"base_weights":[-5.7165455E-2,-9.1168183E-1,1.964647E-1,1.22917965E-2,-1.0393612E0,3.034571E-1,-2.8065505E-2,-3.4264646E-2,1.3415115E-3,-3.626538E-1,4.578164E-1,-2.3742758E-2,1.3410467E-1,-1.6478348E-1,5.4087514E-1,-5.094289E-3,1.3381627E-2,-2.1900604E-2,6.4678197E-3,4.3287985E-3,2.297045E-2],"categories":[],"categories_nodes":[],"categories_segments":[],"categories_sizes":[],"default_left":[0,0,0,0,0,0,0,0,0,0,0,0,0,0,0,0,0,0,0,0,0],"id":35,"left_children":[1,3,5,-1,7,9,-1,-1,-1,11,13,-1,15,17,19,-1,-1,-1,-1,-1,-1],"loss_changes":[2.1706787E1,5.0424805E0,9.441753E0,0E0,3.0868187E0,7.7046094E0,0E0,0E0,0E0,3.5035744E0,3.4344454E0,0E0,1.0114453E0,2.2507124E0,4.0958605E0,0E0,0E0,0E0,0E0,0E0,0E0],"parents":[2147483647,0,0,1,1,2,2,4,4,5,5,9,9,10,10,12,12,13,13,14,14],"right_children":[2,4,6,-1,8,10,-1,-1,-1,12,14,-1,16,18,20,-1,-1,-1,-1,-1,-1],"split_conditions":[4.563353E0,3.138945E1,1.9873838E3,1.22917965E-2,3.356862E1,2.9093424E1,-2.8065505E-2,-3.4264646E-2,1.3415115E-3,8.875568E-2,3.0288963E1,-2.3742758E-2,1.9464277E0,1.4475234E-1,2.9203014E1,-5.094289E-3,1.3381627E-2,-2.1900604E-2,6.4678197E-3,4.3287985E-3,2.297045E-2],"split_indices":[6,27,2,0,15,20,0,0,0,1,15,0,21,14,20,0,0,0,0,0,0],"split_type":[0,0,0,0,0,0,0,0,0,0,0,0,0,0,0,0,0,0,0,0,0],"sum_hessian":[9.48525E1,2.0973177E1,7.3879326E1,1.1136299E0,1.9859547E1,6.9240425E1,4.638901E0,1.8462942E1,1.3966041E0,1.1909408E1,5.7331017E1,6.2955985E0,5.613809E0,5.807897E0,5.152312E1,2.4932547E0,3.1205544E0,2.1255054E0,3.6823916E0,2.0632725E1,3.0890396E1],"tree_param":{"num_deleted":"0","num_feature":"29","num_nodes":"21","size_leaf_vector":"1"}},{"base_weights":[-4.666056E-2,-3.0084372E-2,2.1478543E-1,3.3680877E-1,-2.8993743E-2,-4.77792E-1,4.2220426E-1,4.364013E-3,-2.390159E-2,7.8065586E-1,1.299093E-1,-1.6551038E-2,2.7613087E-2,2.157978E-2,-7.1591926E-3],"categories":[],"categories_nodes":[],"categories_segments":[],"categories_sizes":[],"default_left":[0,0,0,0,0,0,0,0,0,0,0,0,0,0,0],"id":36,"left_children":[1,-1,3,5,-1,7,9,-1,-1,11,13,-1,-1,-1,-1],"loss_changes":[2.5015795E1,0E0,1.1467872E1,5.3747873E0,0E0,1.988893E0,6.326416E0,0E0,0E0,6.559025E0,9.248429E0,0E0,0E0,0E0,0E0],"parents":[2147483647,0,0,2,2,3,3,5,5,6,6,9,9,10,10],"right_children":[2,-1,4,6,-1,8,10,-1,-1,12,14,-1,-1,-1,-1],"split_conditions":[7.8798614E-2,-3.0084372E-2,1.9873838E3,2.588169E0,-2.8993743E-2,1.2134915E1,1.8885841E0,4.364013E-3,-2.390159E-2,1.383801E0,1.8067708E0,-1.6551038E-2,2.7613087E-2,2.157978E-2,-7.1591926E-3],"split_indices":[3,0,2,23,0,27,7,0,0,7,21,0,0,0,0],"split_type":[0,0,0,0,0,0,0,0,0,0,0,0,0,0,0],"sum_hessian":[9.477096E1,1.9542377E1,7.5228584E1,6.986455E1,5.3640385E0,5.2014923E0,6.4663055E1,1.5982192E0,3.603273E0,2.6775343E1,3.788771E1,1.6430708E0,2.5132273E1,1.4365781E1,2.352193E1],"tree_param":{"num_deleted":"0","num_feature":"29","num_nodes":"15","size_leaf_vector":"1"}},{"base_weights":[-4.1797187E-2,-6.2714154E-1,3.0988663E-1,-2.9042149E-2,1.1003701E-1,7.099562E-1,1.0801974E-1,4.9768528E-1,-2.4144534E-2,-0E0,2.5650926E-2,-2.4740736E-1,3.7288228E-1,-1.8771188E-2,2.4800172E-2,5.701996E-1,-2.7590888E-2,2.896647E-2,1.16537675E-1,-1.3522237E-2,1.3305268E-2,-2.7581907E-3,2.312413E-2,1.3037257E-2,-6.9804527E-3],"categories":[],"categories_nodes":[],"categories_segments":[],"categories_sizes":[],"default_left":[0,0,0,0,0,0,0,0,0,0,0,0,0,0,0,0,0,0,0,0,0,0,0,0,0],"id":37,"left_children":[1,3,5,-1,7,9,11,13,-1,-1,-1,15,17,19,-1,21,-1,-1,23,-1,-1,-1,-1,-1,-1],"loss_changes":[2.016611E1,9.932129E0,4.3106833E0,0E0,5.2654104E0,1.779027E0,4.3228483E0,2.2641394E0,0E0,0E0,0E0,1.1602608E1,3.2464435E0,1.5123955E0,0E0,1.7323196E0,0E0,0E0,2.66887E0,0E0,0E0,0E0,0E0,0E0,0E0],"parents":[2147483647,0,0,1,1,2,2,4,4,5,5,6,6,7,7,11,11,12,12,13,13,15,15,18,18],"right_children":[2,4,6,-1,8,10,12,14,-1,-1,-1,16,18,20,-1,22,-1,-1,24,-1,-1,-1,-1,-1,-1],"split_conditions":[6.8741205E2,8.477092E-2,1.8067708E0,-2.9042149E-2,1.586854E0,1.16E2,4E0,2.1760054E0,-2.4144534E-2,-0E0,2.5650926E-2,5.106347E-1,7.2671704E2,1.4481266E0,2.4800172E-2,3.9422297E-1,-2.7590888E-2,2.896647E-2,3.59E2,-1.3522237E-2,1.3305268E-2,-2.7581907E-3,2.312413E-2,1.3037257E-2,-6.9804527E-3],"split_indices":[10,3,21,0,0,22,5,21,0,0,0,13,10,0,0,12,0,0,22,0,0,0,0,0,0],"split_type":[0,0,0,0,0,0,0,0,0,0,0,0,0,0,0,0,0,0,0,0,0,0,0,0,0],"sum_hessian":[9.330343E1,3.496415E1,5.8339283E1,2.3942888E1,1.1021262E1,1.7045969E1,4.1293312E1,8.765579E0,2.2556832E0,3.4813924E0,1.3564577E1,1.6882374E1,2.4410938E1,3.5533948E0,5.2121844E0,7.4193187E0,9.463057E0,5.11089E0,1.9300049E1,2.421852E0,1.1315427E0,1.3974952E0,6.0218234E0,1.059448E1,8.705568E0],"tree_param":{"num_deleted":"0","num_feature":"29","num_nodes":"25","size_leaf_vector":"1"}},{"base_weights":[-5.6445897E-2,-9.019087E-1,1.7983827E-1,-2.9336723E-2,5.1432976E-4,2.9283094E-1,-2.8037952E-2,8.079431E-2,7.833292E-1,-4.104793E-1,3.176482E-1,2.9786982E-2,1.286111E-1,1.53086055E-2,-2.5560925E-2,-6.527094E-3,1.6087698E-2,1.8606512E-2,-2.091335E-2],"categories":[],"categories_nodes":[],"categories_segments":[],"categories_sizes":[],"default_left":[0,0,0,0,0,0,0,0,0,0,0,0,0,0,0,0,0,0,0],"id":38,"left_children":[1,3,5,-1,-1,7,-1,9,11,13,15,-1,17,-1,-1,-1,-1,-1,-1],"loss_changes":[1.97791E1,2.027275E0,9.784894E0,0E0,0E0,6.8099394E0,0E0,6.3125005E0,1.9886503E0,8.047E0,4.742161E0,0E0,4.005838E0,0E0,0E0,0E0,0E0,0E0,0E0],"parents":[2147483647,0,0,1,1,2,2,5,5,7,7,8,8,9,9,10,10,12,12],"right_children":[2,4,6,-1,-1,8,-1,10,12,14,16,-1,18,-1,-1,-1,-1,-1,-1],"split_conditions":[7.8798614E-2,1.9797603E3,1.9873838E3,-2.9336723E-2,5.1432976E-4,9.937657E2,-2.8037952E-2,4.2558476E-1,1.8435549E0,5.106347E-1,1.5239897E-1,2.9786982E-2,1.7508582E0,1.53086055E-2,-2.5560925E-2,-6.527094E-3,1.6087698E-2,1.8606512E-2,-2.091335E-2],"split_indices":[3,2,2,0,0,2,0,9,0,13,14,0,16,0,0,0,0,0,0],"split_type":[0,0,0,0,0,0,0,0,0,0,0,0,0,0,0,0,0,0,0],"sum_hessian":[9.3578514E1,1.9671766E1,7.390675E1,1.8553839E1,1.117928E0,6.8849266E1,5.057488E0,5.04075E1,1.8441761E1,1.5233543E1,3.5173958E1,1.2608977E1,5.8327847E0,4.4695334E0,1.076401E1,9.539862E0,2.5634094E1,4.3476424E0,1.485142E0],"tree_param":{"num_deleted":"0","num_feature":"29","num_nodes":"19","size_leaf_vector":"1"}},{"base_weights":[-1.625209E-2,-3.205314E-2,1.9749485E-1,-6.2827533E-1,3.490107E-1,7.765237E-2,-8.6115944E-1,4.5534977E-1,-6.327357E-1,2.2215553E-2,-1.4092474E-2,-2.931118E-2,-0E0,2.4519137E-1,8.9480215E-1,1.2009131E-3,-2.5323346E-2,-1.022541E-2,1.36963185E-2,3.2663647E-2,1.954601E-4],"categories":[],"categories_nodes":[],"categories_segments":[],"categories_sizes":[],"default_left":[0,0,0,0,0,0,0,0,0,0,0,0,0,0,0,0,0,0,0,0,0],"id":39,"left_children":[1,-1,3,5,7,9,11,13,15,-1,-1,-1,-1,17,19,-1,-1,-1,-1,-1,-1],"loss_changes":[2.1651234E1,0E0,1.0075478E1,2.5504212E0,7.5680256E0,2.4122002E0,1.0852852E0,4.7925825E0,1.4658816E0,0E0,0E0,0E0,0E0,6.0690074E0,2.6772404E0,0E0,0E0,0E0,0E0,0E0,0E0],"parents":[2147483647,0,0,2,2,3,3,4,4,5,5,6,6,7,7,8,8,13,13,14,14],"right_children":[2,-1,4,6,8,10,12,14,16,-1,-1,-1,-1,18,20,-1,-1,-1,-1,-1,-1],"split_conditions":[1.2903537E0,-3.205314E-2,1.7654101E0,9.8927527E2,1.9873838E3,6.9986597E2,5.3078175E0,9.937593E2,2.9104004E1,2.2215553E-2,-1.4092474E-2,-2.931118E-2,-0E0,3.8305765E-1,1.8435549E0,1.2009131E-3,-2.5323346E-2,-1.022541E-2,1.36963185E-2,3.2663647E-2,1.954601E-4],"split_indices":[7,0,8,2,2,10,12,2,20,0,0,0,0,9,0,0,0,0,0,0,0],"split_type":[0,0,0,0,0,0,0,0,0,0,0,0,0,0,0,0,0,0,0,0,0],"sum_hessian":[9.045709E1,1.4317937E1,7.613916E1,1.0317114E1,6.5822044E1,2.357401E0,7.9597135E0,6.0816315E1,5.0057297E0,1.1602483E0,1.1971526E0,6.8742027E0,1.0855108E0,4.4018913E1,1.6797401E1,1.0188195E0,3.9869099E0,1.0715599E1,3.3303314E1,1.2954133E1,3.843268E0],"tree_param":{"num_deleted":"0","num_feature":"29","num_nodes":"21","size_leaf_vector":"1"}},{"base_weights":[-3.7056517E-2,-3.206526E-2,1.7141847E-1,-3.3639583E-1,3.8598424E-1,4.3631548E-1,-1.0014663E0,5.383941E-1,-1.12490505E-1,7.7318144E-1,-1.8307433E-2,-0E0,-1.0973828E0,-1.9483954E-1,6.4835507E-1,2.8659546E-1,-3.1149082E-2,-0E0,2.993775E-2,-0E0,-3.5862833E-2,6.5494888E-3,-2.206241E-2,2.1302866E-2,-0E0,-6.551375E-3,1.6486228E-2],"categories":[],"categories_nodes":[],"categories_segments":[],"categories_sizes":[],"default_left":[0,0,0,0,0,0,0,0,0,0,0,0,0,0,0,0,0,0,0,0,0,0,0,0,0,0,0],"id":40,"left_children":[1,-1,3,5,7,9,11,13,15,17,-1,-1,19,21,23,25,-1,-1,-1,-1,-1,-1,-1,-1,-1,-1,-1],"loss_changes":[2.0802286E1,0E0,8.851009E0,1.3351013E1,4.6563168E0,5.263359E0,1.2797375E0,4.0821686E0,6.2205205E0,2.0710855E0,0E0,0E0,1.3443222E0,2.0921533E0,1.9401779E0,1.8818793E0,0E0,0E0,0E0,0E0,0E0,0E0,0E0,0E0,0E0,0E0,0E0],"parents":[2147483647,0,0,2,2,3,3,4,4,5,5,6,6,7,7,8,8,9,9,12,12,13,13,14,14,15,15],"right_children":[2,-1,4,6,8,10,12,14,16,18,-1,-1,20,22,24,26,-1,-1,-1,-1,-1,-1,-1,-1,-1,-1,-1],"split_conditions":[1.3105452E0,-3.206526E-2,6.8741205E2,1.5303125E0,8.9881696E-2,1.5417025E0,4.8884665E2,4.165644E-1,4.765787E-1,4.4658556E0,-1.8307433E-2,-0E0,9.336059E-2,5.1965466E0,7.69E2,1.16E2,-3.1149082E-2,-0E0,2.993775E-2,-0E0,-3.5862833E-2,6.5494888E-3,-2.206241E-2,2.1302866E-2,-0E0,-6.551375E-3,1.6486228E-2],"split_indices":[7,0,10,7,3,0,10,0,12,6,0,0,18,6,22,22,0,0,0,0,0,0,0,0,0,0,0],"split_type":[0,0,0,0,0,0,0,0,0,0,0,0,0,0,0,0,0,0,0,0,0,0,0,0,0,0,0],"sum_hessian":[9.091956E1,1.4298384E1,7.662118E1,2.1729034E1,5.4892143E1,1.0021584E1,1.1707452E1,4.268423E1,1.2207912E1,8.337965E0,1.6836182E0,1.2287884E0,1.0478663E1,4.7721405E0,3.791209E1,9.118187E0,3.0897262E0,2.0523968E0,6.285568E0,1.0222656E0,9.456397E0,2.8563762E0,1.9157646E0,3.5121124E1,2.790966E0,2.5871422E0,6.5310445E0],"tree_param":{"num_deleted":"0","num_feature":"29","num_nodes":"27","size_leaf_vector":"1"}},{"base_weights":[-7.128423E-3,-3.1333543E-2,1.909375E-1,-3.4305146E-1,4.2021793E-1,1.4636274E-1,-2.7960164E-2,6.766569E-1,1.3821447E-1,-2.2652397E-2,6.620439E-1,7.470278E-1,-2.5675434E-3,-3.511037E-1,4.304091E-1,2.9936427E-2,-1.5759459E-2,2.3773048E-2,-0E0,6.211451E-4,-2.1476336E-2,1.7929586E-2,-1.2403339E-2],"categories":[],"categories_nodes":[],"categories_segments":[],"categories_sizes":[],"default_left":[0,0,0,0,0,0,0,0,0,0,0,0,0,0,0,0,0,0,0,0,0,0,0],"id":41,"left_children":[1,-1,3,5,7,9,-1,11,13,-1,15,17,-1,19,21,-1,-1,-1,-1,-1,-1,-1,-1],"loss_changes":[1.9702171E1,0E0,9.929511E0,7.5852633E0,3.486001E0,7.636044E0,0E0,1.9664059E0,4.676225E0,0E0,5.4968343E0,1.1491127E0,0E0,1.9770776E0,3.4821415E0,0E0,0E0,0E0,0E0,0E0,0E0,0E0,0E0],"parents":[2147483647,0,0,2,2,3,3,4,4,5,5,7,7,8,8,10,10,11,11,13,13,14,14],"right_children":[2,-1,4,6,8,10,-1,12,14,-1,16,18,-1,20,22,-1,-1,-1,-1,-1,-1,-1,-1],"split_conditions":[1.3105452E0,-3.1333543E-2,6.771071E2,1.6605719E0,8.3902515E2,3.8823545E-2,-2.7960164E-2,2.5420394E0,4.505272E-1,-2.2652397E-2,1.5417025E0,1.9868209E3,-2.5675434E-3,5.5835094E0,3.137616E0,2.9936427E-2,-1.5759459E-2,2.3773048E-2,-0E0,6.211451E-4,-2.1476336E-2,1.7929586E-2,-1.2403339E-2],"split_indices":[7,0,10,7,10,1,0,7,9,0,0,2,0,6,9,0,0,0,0,0,0,0,0],"split_type":[0,0,0,0,0,0,0,0,0,0,0,0,0,0,0,0,0,0,0,0,0,0,0],"sum_hessian":[8.987538E1,1.3443927E1,7.643145E1,2.2006247E1,5.4425205E1,1.2375968E1,9.630279E0,2.6110107E1,2.83151E1,3.8128326E0,8.563135E0,2.4540392E1,1.5697149E0,9.796003E0,1.8519096E1,7.252167E0,1.310968E0,2.3415901E1,1.1244922E0,5.106647E0,4.6893563E0,1.6437397E1,2.0816996E0],"tree_param":{"num_deleted":"0","num_feature":"29","num_nodes":"23","size_leaf_vector":"1"}},{"base_weights":[2.1022413E-2,-3.1313658E-2,2.2750059E-1,-2.543897E-1,4.2206576E-1,2.4440208E-1,-2.7480092E-2,6.374109E-1,2.1739414E-2,4.9167135E-1,-1.5136116E-2,-1.2351338E-2,7.3924077E-1,3.5453954E-1,-4.9904525E-1,2.367546E-2,-1.5011905E-2,-2.4133907E-3,2.3659738E-2,1.7127018E-2,-5.018381E-3,-3.2573555E-2,1.7877959E-3],"categories":[],"categories_nodes":[],"categories_segments":[],"categories_sizes":[],"default_left":[0,0,0,0,0,0,0,0,0,0,0,0,0,0,0,0,0,0,0,0,0,0,0],"id":42,"left_children":[1,-1,3,5,7,9,-1,11,13,15,-1,-1,17,19,21,-1,-1,-1,-1,-1,-1,-1,-1],"loss_changes":[2.0817064E1,0E0,7.9011292E0,8.647973E0,4.750983E0,3.2185316E0,0E0,4.794319E0,4.3733726E0,4.6509438E0,0E0,0E0,1.9175873E0,2.2171786E0,3.739839E0,0E0,0E0,0E0,0E0,0E0,0E0,0E0,0E0],"parents":[2147483647,0,0,2,2,3,3,4,4,5,5,7,7,8,8,9,9,12,12,13,13,14,14],"right_children":[2,-1,4,6,8,10,-1,12,14,16,-1,-1,18,20,22,-1,-1,-1,-1,-1,-1,-1,-1],"split_conditions":[1.3105452E0,-3.1313658E-2,6.771071E2,1.6605719E0,1.4060123E3,1.0754412E0,-2.7480092E-2,3.0387417E1,5.5835094E0,1.9873838E3,-1.5136116E-2,-1.2351338E-2,2.4261672E0,1.9556353E0,5.625499E0,2.367546E-2,-1.5011905E-2,-2.4133907E-3,2.3659738E-2,1.7127018E-2,-5.018381E-3,-3.2573555E-2,1.7877959E-3],"split_indices":[7,0,10,7,11,13,0,15,6,2,0,0,23,7,6,0,0,0,0,0,0,0,0],"split_type":[0,0,0,0,0,0,0,0,0,0,0,0,0,0,0,0,0,0,0,0,0,0,0],"sum_hessian":[9.237942E1,1.32933655E1,7.908605E1,2.1831064E1,5.725499E1,1.2735334E1,9.095731E0,3.5646465E1,2.1608522E1,1.05926895E1,2.1426444E0,2.180901E0,3.3465565E1,1.4158964E1,7.4495573E0,8.851295E0,1.7413944E0,1.256141E0,3.2209423E1,1.0553323E1,3.6056416E0,3.1494536E0,4.3001037E0],"tree_param":{"num_deleted":"0","num_feature":"29","num_nodes":"23","size_leaf_vector":"1"}},{"base_weights":[1.0082452E-2,-3.1040607E-2,2.1781187E-1,-2.3100704E-2,3.0524063E-1,4.0259194E-1,-6.435287E-1,-1.5637197E-2,4.7497198E-1,-2.5383186E-2,1.1346722E-3,2.504205E-2,5.8561973E-3],"categories":[],"categories_nodes":[],"categories_segments":[],"categories_sizes":[],"default_left":[0,0,0,0,0,0,0,0,0,0,0,0,0],"id":43,"left_children":[1,-1,3,-1,5,7,9,-1,11,-1,-1,-1,-1],"loss_changes":[2.0072462E1,0E0,7.063738E0,0E0,7.279521E0,5.10472E0,1.4654379E0,0E0,5.781557E0,0E0,0E0,0E0,0E0],"parents":[2147483647,0,0,2,2,4,4,5,5,6,6,8,8],"right_children":[2,-1,4,-1,6,8,10,-1,12,-1,-1,-1,-1],"split_conditions":[1.3105452E0,-3.1040607E-2,1.3538177E0,-2.3100704E-2,1.9873838E3,2.588169E0,5.7002872E1,-1.5637197E-2,1.8885841E0,-2.5383186E-2,1.1346722E-3,2.504205E-2,5.8561973E-3],"split_indices":[7,0,21,0,2,23,23,0,7,0,0,0,0],"split_type":[0,0,0,0,0,0,0,0,0,0,0,0,0],"sum_hessian":[9.0292435E1,1.3255486E1,7.703695E1,4.529172E0,7.2507774E1,6.72824E1,5.2253747E0,3.4853852E0,6.3797016E1,4.220708E0,1.0046669E0,2.5390985E1,3.840603E1],"tree_param":{"num_deleted":"0","num_feature":"29","num_nodes":"13","size_leaf_vector":"1"}},{"base_weights":[-3.530201E-2,-3.0561518E-2,1.4625736E-1,-7.4673283E-1,2.9881313E-1,6.4141178E-3,-9.3108153E-1,3.947354E-1,-6.0026604E-1,-3.1353287E-2,-0E0,4.7851115E-1,-2.5622377E-1,-2.4270212E-2,1.1232218E-3,-1.2928654E-2,1.6598798E-2,3.6863047E-3,-2.457141E-2],"categories":[],"categories_nodes":[],"categories_segments":[],"categories_sizes":[],"default_left":[0,0,0,0,0,0,0,0,0,0,0,0,0,0,0,0,0,0,0],"id":44,"left_children":[1,-1,3,5,7,-1,9,11,13,-1,-1,15,17,-1,-1,-1,-1,-1,-1],"loss_changes":[1.6777355E1,0E0,1.0735166E1,2.7671266E0,6.219719E0,0E0,1.1562376E0,3.791359E0,1.3553684E0,0E0,0E0,4.4272194E0,2.2144773E0,0E0,0E0,0E0,0E0,0E0,0E0],"parents":[2147483647,0,0,2,2,3,3,4,4,6,6,7,7,8,8,11,11,12,12],"right_children":[2,-1,4,6,8,-1,10,12,14,-1,-1,16,18,-1,-1,-1,-1,-1,-1],"split_conditions":[1.3105452E0,-3.0561518E-2,1.7654101E0,3.744074E0,1.9873838E3,6.4141178E-3,6.167355E0,1.7114439E0,5.7757076E1,-3.1353287E-2,-0E0,3.0288963E1,1.9927516E0,-2.4270212E-2,1.1232218E-3,-1.2928654E-2,1.6598798E-2,3.6863047E-3,-2.457141E-2],"split_indices":[7,0,8,6,2,0,12,9,23,0,0,15,8,0,0,0,0,0,0],"split_type":[0,0,0,0,0,0,0,0,0,0,0,0,0,0,0,0,0,0,0],"sum_hessian":[8.7853226E1,1.2683762E1,7.5169464E1,9.353182E0,6.5816284E1,1.0178626E0,8.335319E0,6.0987587E1,4.8286953E0,7.2616343E0,1.0736845E0,5.518361E1,5.803978E0,3.8238518E0,1.0048436E0,2.9610415E0,5.222257E1,3.8713388E0,1.9326392E0],"tree_param":{"num_deleted":"0","num_feature":"29","num_nodes":"19","size_leaf_vector":"1"}},{"base_weights":[-1.72574E-2,-3.020321E-2,1.58785E-1,-2.2115378E-2,6.3148874E-1,-3.977928E-1,3.3096018E-1,-8.358042E-3,7.9209924E-1,-8.824537E-1,-8.619652E-2,4.8006046E-1,-1.9064708E-2,2.6460383E-2,-0E0,-3.2745454E-2,-0E0,1.0639304E-2,-1.0420884E-2,2.0178063E-2,-1.4840786E-2],"categories":[],"categories_nodes":[],"categories_segments":[],"categories_sizes":[],"default_left":[0,0,0,0,0,0,0,0,0,0,0,0,0,0,0,0,0,0,0,0,0],"id":45,"left_children":[1,-1,3,5,7,9,11,-1,13,15,17,19,-1,-1,-1,-1,-1,-1,-1,-1,-1],"loss_changes":[1.6550474E1,0E0,7.0311494E0,7.966201E0,3.988905E0,3.834916E0,4.8860044E0,0E0,1.8654728E0,2.002324E0,2.6451077E0,5.9648075E0,0E0,0E0,0E0,0E0,0E0,0E0,0E0,0E0,0E0],"parents":[2147483647,0,0,2,2,3,3,4,4,5,5,6,6,8,8,9,9,10,10,11,11],"right_children":[2,-1,4,6,8,10,12,-1,14,16,18,20,-1,-1,-1,-1,-1,-1,-1,-1,-1],"split_conditions":[1.2903537E0,-3.020321E-2,5.64342E0,2.9213884E1,4.6357697E1,1.5166818E-1,1.9873838E3,-8.358042E-3,1.6933791E-1,1.4004163E3,1.8250521E0,5.5835094E0,-1.9064708E-2,2.6460383E-2,-0E0,-3.2745454E-2,-0E0,1.0639304E-2,-1.0420884E-2,2.0178063E-2,-1.4840786E-2],"split_indices":[7,0,6,20,23,18,2,0,1,2,7,6,0,0,0,0,0,0,0,0,0],"split_type":[0,0,0,0,0,0,0,0,0,0,0,0,0,0,0,0,0,0,0,0,0],"sum_hessian":[8.874078E1,1.240665E1,7.633414E1,5.5820656E1,2.0513483E1,2.7608086E1,2.8212568E1,2.3897426E0,1.8123741E1,8.741977E0,1.8866108E1,2.576201E1,2.4505582E0,1.662793E1,1.4958116E0,6.7017937E0,2.0401833E0,6.0401697E0,1.2825938E1,2.2458685E1,3.3033268E0],"tree_param":{"num_deleted":"0","num_feature":"29","num_nodes":"21","size_leaf_vector":"1"}},{"base_weights":[-5.838263E-2,-2.8031826E-2,1.5694714E-1,-2.8620842E-1,3.150506E-1,1.09572925E-1,-2.3699738E-2,-4.703929E-1,4.3046415E-1,-1.6681228E-2,3.9848697E-1,2.780559E-3,-2.7978674E-2,7.975379E-1,1.604284E-1,2.1172553E-2,-1.5415754E-2,1.8463733E-3,2.911933E-2,1.6811581E-2,-5.243834E-3],"categories":[],"categories_nodes":[],"categories_segments":[],"categories_sizes":[],"default_left":[0,0,0,0,0,0,0,0,0,0,0,0,0,0,0,0,0,0,0,0,0],"id":46,"left_children":[1,-1,3,5,7,9,-1,11,13,-1,15,-1,-1,17,19,-1,-1,-1,-1,-1,-1],"loss_changes":[1.745243E1,0E0,5.282712E0,4.3638353E0,5.3985953E0,2.6750448E0,0E0,2.5413098E0,4.203459E0,0E0,3.6435428E0,0E0,0E0,1.8905716E0,4.678109E0,0E0,0E0,0E0,0E0,0E0,0E0],"parents":[2147483647,0,0,2,2,3,3,4,4,5,5,7,7,8,8,10,10,13,13,14,14],"right_children":[2,-1,4,6,8,10,-1,12,14,-1,16,-1,-1,18,20,-1,-1,-1,-1,-1,-1],"split_conditions":[3.5342318E-1,-2.8031826E-2,6.75017E2,4.98234E0,3.0387417E1,3.8111396E-2,-2.3699738E-2,5.0568595E0,1.1669759E-1,-1.6681228E-2,1.4384677E0,2.780559E-3,-2.7978674E-2,1.6963463E0,5.4970064E0,2.1172553E-2,-1.5415754E-2,1.8463733E-3,2.911933E-2,1.6811581E-2,-5.243834E-3],"split_indices":[12,0,10,6,15,1,0,6,4,0,0,0,0,21,6,0,0,0,0,0,0],"split_type":[0,0,0,0,0,0,0,0,0,0,0,0,0,0,0,0,0,0,0,0,0],"sum_hessian":[8.690571E1,1.628753E1,7.061818E1,1.731162E1,5.3306557E1,1.0015647E1,7.2959743E0,5.486264E0,4.782029E1,1.9479865E0,8.06766E0,2.7065063E0,2.779758E0,1.7827679E1,2.9992613E1,6.783873E0,1.2837876E0,4.4608912E0,1.3366787E1,1.3743404E1,1.6249208E1],"tree_param":{"num_deleted":"0","num_feature":"29","num_nodes":"21","size_leaf_vector":"1"}},{"base_weights":[-2.2589179E-2,-3.0136978E-2,1.6169041E-1,2.6936343E-1,-6.1724323E-1,3.3718792E-1,-1.987477E-2,-2.7435007E-2,5.7335263E-3,3.597192E-2,5.668424E-1,-2.1319132E-2,7.4080597E-3,1.9936537E-2,-4.8537E-3],"categories":[],"categories_nodes":[],"categories_segments":[],"categories_sizes":[],"default_left":[0,0,0,0,0,0,0,0,0,0,0,0,0,0,0],"id":47,"left_children":[1,-1,3,5,7,9,-1,-1,-1,11,13,-1,-1,-1,-1],"loss_changes":[1.6486712E1,0E0,6.4097137E0,4.5463843E0,2.8967662E0,4.1326604E0,0E0,0E0,0E0,5.0115256E0,3.0028229E0,0E0,0E0,0E0,0E0],"parents":[2147483647,0,0,2,2,3,3,4,4,5,5,9,9,10,10],"right_children":[2,-1,4,6,8,10,-1,-1,-1,12,14,-1,-1,-1,-1],"split_conditions":[1.3105452E0,-3.0136978E-2,7.587625E-1,2.9810547E3,1.4193771E0,2.9203014E1,-1.987477E-2,-2.7435007E-2,5.7335263E-3,6.75017E2,3.6268732E-1,-2.1319132E-2,7.4080597E-3,1.9936537E-2,-4.8537E-3],"split_indices":[7,0,13,2,16,20,0,0,0,10,18,0,0,0,0],"split_type":[0,0,0,0,0,0,0,0,0,0,0,0,0,0,0],"sum_hessian":[8.498367E1,1.2450251E1,7.2533424E1,6.543811E1,7.095313E0,6.2688263E1,2.7498505E0,5.447899E0,1.647414E0,2.90615E1,3.3626762E1,4.836774E0,2.4224728E1,3.0410812E1,3.2159483E0],"tree_param":{"num_deleted":"0","num_feature":"29","num_nodes":"15","size_leaf_vector":"1"}},{"base_weights":[-0E0,-2.9780328E-2,1.8118685E-1,-6.211239E-1,3.003591E-1,5.07598E-3,-2.4370661E-2,3.8992754E-1,-5.792627E-1,5.1663727E-1,-8.696807E-2,-2.3411132E-2,5.270667E-4,2.0048188E-2,-0E0,1.1118296E-2,-2.2715887E-2],"categories":[],"categories_nodes":[],"categories_segments":[],"categories_sizes":[],"default_left":[0,0,0,0,0,0,0,0,0,0,0,0,0,0,0,0,0],"id":48,"left_children":[1,-1,3,5,7,-1,-1,9,11,13,15,-1,-1,-1,-1,-1,-1],"loss_changes":[1.6382801E1,0E0,7.6369123E0,2.1306841E0,5.8324704E0,0E0,0E0,4.2195053E0,1.2143703E0,3.9532871E0,5.196315E0,0E0,0E0,0E0,0E0,0E0,0E0],"parents":[2147483647,0,0,2,2,3,3,4,4,7,7,8,8,9,9,10,10],"right_children":[2,-1,4,6,8,-1,-1,10,12,14,16,-1,-1,-1,-1,-1,-1],"split_conditions":[1.3105452E0,-2.9780328E-2,1.6956816E0,6.8413645E-2,1.9873838E3,5.07598E-3,-2.4370661E-2,2.940025E0,2.5826075E0,8.9881696E-2,5.4970064E0,-2.3411132E-2,5.270667E-4,2.0048188E-2,-0E0,1.1118296E-2,-2.2715887E-2],"split_indices":[7,0,8,3,2,0,0,12,8,3,6,0,0,0,0,0,0],"split_type":[0,0,0,0,0,0,0,0,0,0,0,0,0,0,0,0,0],"sum_hessian":[8.7686584E1,1.2038556E1,7.5648026E1,8.151254E0,6.749677E1,1.1235648E0,7.0276885E0,6.2785427E1,4.7113476E0,5.030209E1,1.2483335E1,3.6905053E0,1.0208421E0,3.8111732E1,1.2190361E1,7.506538E0,4.9767966E0],"tree_param":{"num_deleted":"0","num_feature":"29","num_nodes":"17","size_leaf_vector":"1"}},{"base_weights":[-2.6532643E-2,-6.99948E-1,2.0526774E-1,-3.296271E-2,1.3294208E-1,3.1850132E-1,-2.5729105E-2,-6.0361098E-3,1.7373566E-2,1.08033925E-1,7.6230067E-1,2.473233E-1,-6.0793513E-1,2.8730601E-2,-0E0,-1.6567638E-2,1.1909114E-2,-2.7891282E-2,-0E0,-9.940559E-3,1.1303512E-2],"categories":[],"categories_nodes":[],"categories_segments":[],"categories_sizes":[],"default_left":[0,0,0,0,0,0,0,0,0,0,0,0,0,0,0,0,0,0,0,0,0],"id":49,"left_children":[1,3,5,-1,7,9,-1,-1,-1,11,13,15,17,-1,19,-1,-1,-1,-1,-1,-1],"loss_changes":[1.4444663E1,8.68872E0,8.375048E0,0E0,1.7775519E0,5.2558355E0,0E0,0E0,0E0,4.6698527E0,2.6143436E0,5.170413E0,1.482234E0,0E0,1.0267427E0,0E0,0E0,0E0,0E0,0E0,0E0],"parents":[2147483647,0,0,1,1,2,2,4,4,5,5,9,9,10,10,11,11,12,12,14,14],"right_children":[2,4,6,-1,8,10,-1,-1,-1,12,14,16,18,-1,20,-1,-1,-1,-1,-1,-1],"split_conditions":[3.9422297E-1,3.3453793E1,1.9873838E3,-3.296271E-2,7.245442E2,9.937593E2,-2.5729105E-2,-6.0361098E-3,1.7373566E-2,1.2796571E0,6.7860655E-2,3.7855245E-2,9.774592E2,2.8730601E-2,1.5628278E-1,-1.6567638E-2,1.1909114E-2,-2.7891282E-2,-0E0,-9.940559E-3,1.1303512E-2],"split_indices":[12,15,2,0,10,2,0,0,0,9,1,1,10,0,14,0,0,0,0,0,0],"split_type":[0,0,0,0,0,0,0,0,0,0,0,0,0,0,0,0,0,0,0,0,0],"sum_hessian":[8.711053E1,2.1824583E1,6.528594E1,1.4732288E1,7.092295E0,6.0691452E1,4.5944886E0,4.042384E0,3.049911E0,4.361905E1,1.7072403E1,3.8195683E1,5.423365E0,1.2934473E1,4.1379294E0,4.6465917E0,3.354909E1,2.888936E0,2.534429E0,1.9962419E0,2.1416874E0],"tree_param":{"num_deleted":"0","num_feature":"29","num_nodes":"21","size_leaf_vector":"1"}},{"base_weights":[-4.501721E-2,-2.9390335E-2,1.262934E-1,-5.761323E-1,2.3357083E-1,3.9432417E-3,-2.6083028E-2,6.519983E-2,1.9750016E-2,2.1233183E-1,-2.4345705E-2,1.0945094E-2,-1.21030705E-2],"categories":[],"categories_nodes":[],"categories_segments":[],"categories_sizes":[],"default_left":[0,0,0,0,0,0,0,0,0,0,0,0,0],"id":50,"left_children":[1,-1,3,5,7,-1,-1,9,-1,11,-1,-1,-1],"loss_changes":[1.4442667E1,0E0,5.673343E0,2.6235673E0,4.2888546E0,0E0,0E0,6.55804E0,0E0,4.529894E0,0E0,0E0,0E0],"parents":[2147483647,0,0,2,2,3,3,4,4,7,7,9,9],"right_children":[2,-1,4,6,8,-1,-1,10,-1,12,-1,-1,-1],"split_conditions":[1.3105452E0,-2.9390335E-2,1.6956816E0,1.0387988E1,5.64342E0,3.9432417E-3,-2.6083028E-2,5.5848594E0,1.9750016E-2,6.55E2,-2.4345705E-2,1.0945094E-2,-1.21030705E-2],"split_indices":[7,0,8,25,6,0,0,6,0,22,0,0,0],"split_type":[0,0,0,0,0,0,0,0,0,0,0,0,0],"sum_hessian":[8.399022E1,1.2000024E1,7.19902E1,7.762368E0,6.422783E1,2.0986016E0,5.6637664E0,4.8490784E1,1.5737045E1,4.3308643E1,5.182142E0,3.6015774E1,7.292867E0],"tree_param":{"num_deleted":"0","num_feature":"29","num_nodes":"13","size_leaf_vector":"1"}},{"base_weights":[-1.9739736E-2,-5.444721E-1,2.5294986E-1,-2.9792555E-2,-2.1777157E-1,4.930179E-1,-1.04285516E-1,-7.7185494E-1,1.5628763E-1,-9.4169594E-2,7.0179296E-1,-5.4197705E-1,2.3367044E-1,-0E0,-2.9024662E-2,3.9554697E-1,-1.2880281E-2,-2.48823E-2,3.0105102E-1,-3.558641E-4,7.562841E-1,-0E0,-7.994972E-1,5.8968645E-1,-3.0706128E-1,-9.207085E-3,1.7783456E-2,-6.517147E-3,2.2418872E-2,2.4189109E-2,-0E0,-3.1957686E-2,3.8227165E-4,-0E0,2.2648381E-2,2.4133914E-3,-1.8553877E-2],"categories":[],"categories_nodes":[],"categories_segments":[],"categories_sizes":[],"default_left":[0,0,0,0,0,0,0,0,0,0,0,0,0,0,0,0,0,0,0,0,0,0,0,0,0,0,0,0,0,0,0,0,0,0,0,0,0],"id":51,"left_children":[1,3,5,-1,7,9,11,13,15,17,19,21,23,-1,-1,25,-1,-1,27,-1,29,-1,31,33,35,-1,-1,-1,-1,-1,-1,-1,-1,-1,-1,-1,-1],"loss_changes":[1.2995387E1,3.5512028E0,5.3197355E0,0E0,4.9687614E0,4.875289E0,4.009594E0,1.8696628E0,2.2640574E0,3.8534737E0,1.4626436E0,1.8298619E0,3.2937703E0,0E0,0E0,2.097783E0,0E0,0E0,2.4263372E0,0E0,1.2176342E0,0E0,2.34759E0,1.0266602E0,1.1543217E0,0E0,0E0,0E0,0E0,0E0,0E0,0E0,0E0,0E0,0E0,0E0,0E0],"parents":[2147483647,0,0,1,1,2,2,4,4,5,5,6,6,7,7,8,8,9,9,10,10,11,11,12,12,15,15,18,18,20,20,22,22,23,23,24,24],"right_children":[2,4,6,-1,8,10,12,14,16,18,20,22,24,-1,-1,26,-1,-1,28,-1,30,-1,32,34,36,-1,-1,-1,-1,-1,-1,-1,-1,-1,-1,-1,-1],"split_conditions":[6.8741205E2,3.891146E-2,1.4060123E3,-2.9792555E-2,1.4781483E-1,4.778354E-2,1.5668699E-1,2.4508405E-1,1.5417025E0,5.221604E-1,3.0107111E1,8.039203E2,5.47E2,-0E0,-2.9024662E-2,1.3245823E0,-1.2880281E-2,-2.48823E-2,3E2,-3.558641E-4,1.6933791E-1,-0E0,1.0352772E3,9.8707324E2,6.865812E-1,-9.207085E-3,1.7783456E-2,-6.517147E-3,2.2418872E-2,2.4189109E-2,-0E0,-3.1957686E-2,3.8227165E-4,-0E0,2.2648381E-2,2.4133914E-3,-1.8553877E-2],"split_indices":[10,1,11,0,14,1,18,9,0,0,15,10,22,0,0,21,0,0,22,0,1,0,10,2,9,0,0,0,0,0,0,0,0,0,0,0,0],"split_type":[0,0,0,0,0,0,0,0,0,0,0,0,0,0,0,0,0,0,0,0,0,0,0,0,0,0,0,0,0,0,0,0,0,0,0,0,0],"sum_hessian":[8.587659E1,2.9312069E1,5.6564518E1,9.98757E0,1.93245E1,3.4212566E1,2.2351954E1,7.4696665E0,1.1854833E1,8.633497E0,2.5579067E1,9.857485E0,1.2494469E1,1.4450574E0,6.024609E0,9.483349E0,2.3714845E0,2.6924918E0,5.941005E0,1.274615E0,2.4304453E1,3.5456824E0,6.311803E0,7.982453E0,4.512016E0,1.2794604E0,8.203888E0,2.705094E0,3.2359111E0,2.3014975E1,1.2894785E0,4.7501574E0,1.5616454E0,2.0906897E0,5.891763E0,1.9558446E0,2.5561714E0],"tree_param":{"num_deleted":"0","num_feature":"29","num_nodes":"37","size_leaf_vector":"1"}},{"base_weights":[-5.0396887E-3,-2.9080398E-2,1.6239607E-1,-2.5505757E-1,3.2907626E-1,2.5590655E-1,-2.582571E-2,5.460848E-1,-1.9666135E-2,-1.9475684E-2,2.1420792E-2,-1.0650009E-2,6.4203906E-1,4.0985098E-1,-5.1703405E-1,-0E0,2.1847084E-2,-0E0,1.8352682E-2,-3.5039496E-2,-0E0],"categories":[],"categories_nodes":[],"categories_segments":[],"categories_sizes":[],"default_left":[0,0,0,0,0,0,0,0,0,0,0,0,0,0,0,0,0,0,0,0,0],"id":52,"left_children":[1,-1,3,5,7,9,-1,11,13,-1,-1,-1,15,17,19,-1,-1,-1,-1,-1,-1],"loss_changes":[1.4722884E1,0E0,5.435733E0,7.4669337E0,4.4814715E0,6.2989626E0,0E0,3.6373844E0,5.245077E0,0E0,0E0,0E0,2.1166058E0,1.3010669E0,4.449663E0,0E0,0E0,0E0,0E0,0E0,0E0],"parents":[2147483647,0,0,2,2,3,3,4,4,5,5,7,7,8,8,12,12,13,13,14,14],"right_children":[2,-1,4,6,8,10,-1,12,14,-1,-1,-1,16,18,20,-1,-1,-1,-1,-1,-1],"split_conditions":[1.3105452E0,-2.9080398E-2,6.771071E2,1.6605719E0,1.4060123E3,3.8823545E-2,-2.582571E-2,3.0387417E1,1.9556353E0,-1.9475684E-2,2.1420792E-2,-1.0650009E-2,3.1183202E-2,1.5811183E-1,6.2875484E1,-0E0,2.1847084E-2,-0E0,1.8352682E-2,-3.5039496E-2,-0E0],"split_indices":[7,0,10,7,11,1,0,15,7,0,0,0,1,14,27,0,0,0,0,0,0],"split_type":[0,0,0,0,0,0,0,0,0,0,0,0,0,0,0,0,0,0,0,0,0],"sum_hessian":[8.47374E1,1.1561151E1,7.317625E1,1.972198E1,5.3454266E1,1.087728E1,8.844699E0,3.3136635E1,2.031763E1,3.0082972E0,7.8689823E0,2.167927E0,3.0968706E1,1.0551871E1,9.765759E0,3.35161E0,2.7617096E1,3.4415336E0,7.110338E0,3.5673814E0,6.1983786E0],"tree_param":{"num_deleted":"0","num_feature":"29","num_nodes":"21","size_leaf_vector":"1"}},{"base_weights":[-0E0,-6.498251E-1,2.2134964E-1,-8.723984E-1,1.3698067E-1,-1.6196713E-2,3.2240057E-1,-0E0,-2.9592268E-2,-6.7664497E-3,1.7727641E-2,-1.8387705E-1,4.7739434E-1,-3.0753704E-2,1.3488746E-1,2.7612804E-2,1.7118219E-1,1.525715E-2,-1.06445E-2,-1.6452627E-2,1.0594818E-2],"categories":[],"categories_nodes":[],"categories_segments":[],"categories_sizes":[],"default_left":[0,0,0,0,0,0,0,0,0,0,0,0,0,0,0,0,0,0,0,0,0],"id":53,"left_children":[1,3,5,7,9,-1,11,-1,-1,-1,-1,13,15,-1,17,-1,19,-1,-1,-1,-1],"loss_changes":[1.2546068E1,4.511326E0,5.154865E0,2.2729158E0,1.4612901E0,0E0,4.8927364E0,0E0,0E0,0E0,0E0,4.5669336E0,5.366597E0,0E0,2.5853047E0,0E0,4.2533937E0,0E0,0E0,0E0,0E0],"parents":[2147483647,0,0,1,1,2,2,3,3,4,4,6,6,11,11,12,12,14,14,16,16],"right_children":[2,4,6,8,10,-1,12,-1,-1,-1,-1,14,16,-1,18,-1,20,-1,-1,-1,-1],"split_conditions":[3.9422297E-1,8.129353E-2,1.7654101E0,6.840397E-2,1.537525E-1,-1.6196713E-2,3.8921308E-2,-0E0,-2.9592268E-2,-6.7664497E-3,1.7727641E-2,2.66E2,5.031291E-1,-3.0753704E-2,2.146996E0,2.7612804E-2,5.996768E-1,1.525715E-2,-1.06445E-2,-1.6452627E-2,1.0594818E-2],"split_indices":[12,1,8,3,14,0,1,0,0,0,0,22,12,0,8,0,12,0,0,0,0],"split_type":[0,0,0,0,0,0,0,0,0,0,0,0,0,0,0,0,0,0,0,0,0],"sum_hessian":[8.219708E1,2.0296537E1,6.190055E1,1.6146805E1,4.149731E0,5.656361E0,5.6244186E1,1.6164597E0,1.4530346E1,2.2542377E0,1.8954936E0,1.2339461E1,4.3904728E1,2.6039963E0,9.735464E0,1.5636726E1,2.8268002E1,6.0572534E0,3.678211E0,4.338244E0,2.3929756E1],"tree_param":{"num_deleted":"0","num_feature":"29","num_nodes":"21","size_leaf_vector":"1"}},{"base_weights":[-2.0618295E-2,-7.363108E-1,1.3888735E-1,-2.809529E-2,-0E0,2.323649E-1,-2.4613936E-2,1.3357045E-2,-1.2894242E-2,7.7715153E-3,6.526149E-1,-2.632349E-2,1.359655E-1,7.361953E-1,-0E0,1.20131895E-2,-1.19868675E-2,2.578049E-2,-0E0],"categories":[],"categories_nodes":[],"categories_segments":[],"categories_sizes":[],"default_left":[0,0,0,0,0,0,0,0,0,0,0,0,0,0,0,0,0,0,0],"id":54,"left_children":[1,3,5,-1,7,9,-1,-1,-1,11,13,-1,15,17,-1,-1,-1,-1,-1],"loss_changes":[1.0244832E1,2.4133568E0,6.4448643E0,0E0,1.440098E0,5.948842E0,0E0,0E0,0E0,5.1134543E0,1.2553406E0,0E0,6.354377E0,1.4810829E0,0E0,0E0,0E0,0E0,0E0],"parents":[2147483647,0,0,1,1,2,2,4,4,5,5,9,9,10,10,12,12,13,13],"right_children":[2,4,6,-1,8,10,-1,-1,-1,12,14,-1,16,18,-1,-1,-1,-1,-1],"split_conditions":[7.8798614E-2,3.356862E1,1.9873838E3,-2.809529E-2,1.6975462E-1,9.9374927E2,-2.4613936E-2,1.3357045E-2,-1.2894242E-2,3.0288963E1,6.1021847E1,-2.632349E-2,5.47E2,7.579191E-1,-0E0,1.20131895E-2,-1.19868675E-2,2.578049E-2,-0E0],"split_indices":[3,15,2,0,18,2,0,0,0,15,23,0,22,24,0,0,0,0,0],"split_type":[0,0,0,0,0,0,0,0,0,0,0,0,0,0,0,0,0,0,0],"sum_hessian":[8.333504E1,1.4441071E1,6.889397E1,1.0914815E1,3.5262558E0,6.4633E1,4.260961E0,1.6843415E0,1.8419144E0,4.422479E1,2.0408216E1,3.6222475E0,4.0602543E1,1.7925213E1,2.4830036E0,2.814239E1,1.2460154E1,1.4629007E1,3.296205E0],"tree_param":{"num_deleted":"0","num_feature":"29","num_nodes":"19","size_leaf_vector":"1"}},{"base_weights":[-6.033292E-2,-2.9222118E-2,1.0496011E-1,-3.4408072E-1,2.6643366E-1,-2.7245266E-2,3.2982796E-1,5.0040776E-1,-8.048338E-2,2.1433128E-2,-1.01422435E-2,-1.6105881E-2,5.8292E-1,-5.1524776E-1,2.498526E-1,-6.6182744E-3,1.9691437E-2,1.2248335E-3,-2.9541183E-2,1.4944254E-2,-1.0155506E-2],"categories":[],"categories_nodes":[],"categories_segments":[],"categories_sizes":[],"default_left":[0,0,0,0,0,0,0,0,0,0,0,0,0,0,0,0,0,0,0,0,0],"id":55,"left_children":[1,-1,3,5,7,-1,9,11,13,-1,-1,-1,15,17,19,-1,-1,-1,-1,-1,-1],"loss_changes":[1.3537178E1,0E0,5.4853964E0,8.314719E0,4.846004E0,0E0,3.2309983E0,3.6149998E0,3.7605605E0,0E0,0E0,0E0,2.485365E0,3.5385273E0,2.466475E0,0E0,0E0,0E0,0E0,0E0,0E0],"parents":[2147483647,0,0,2,2,3,3,4,4,6,6,7,7,8,8,12,12,13,13,14,14],"right_children":[2,-1,4,6,8,-1,10,12,14,-1,-1,-1,16,18,20,-1,-1,-1,-1,-1,-1],"split_conditions":[1.3911608E0,-2.9222118E-2,6.771071E2,2.9213884E1,1.4060123E3,-2.7245266E-2,4.979267E0,2.588169E0,1.5668699E-1,2.1433128E-2,-1.01422435E-2,-1.6105881E-2,3.0387417E1,5.5835094E0,5.2472055E-1,-6.6182744E-3,1.9691437E-2,1.2248335E-3,-2.9541183E-2,1.4944254E-2,-1.0155506E-2],"split_indices":[7,0,10,20,11,0,6,23,18,0,0,0,15,6,18,0,0,0,0,0,0],"split_type":[0,0,0,0,0,0,0,0,0,0,0,0,0,0,0,0,0,0,0,0,0],"sum_hessian":[8.339869E1,1.1739858E1,7.165883E1,1.753569E1,5.412314E1,9.570991E0,7.9646997E0,3.2655445E1,2.1467695E1,5.4408627E0,2.5238373E0,1.148236E0,3.1507208E1,9.43893E0,1.2028766E1,1.7334981E0,2.977371E1,4.6692214E0,4.7697077E0,9.272376E0,2.7563899E0],"tree_param":{"num_deleted":"0","num_feature":"29","num_nodes":"21","size_leaf_vector":"1"}},{"base_weights":[-2.3255821E-2,-2.7829466E-2,1.2565261E-1,2.4069245E-1,-5.0628716E-1,3.3462638E-1,-5.6959766E-1,7.036557E-3,-7.3292124E-1,8.10242E-2,5.7779676E-1,-0E0,-2.2949066E-2,-2.7727617E-2,-0E0,1.2292488E-2,-5.0363317E-3,2.2441104E-2,-8.804183E-3],"categories":[],"categories_nodes":[],"categories_segments":[],"categories_sizes":[],"default_left":[0,0,0,0,0,0,0,0,0,0,0,0,0,0,0,0,0,0,0],"id":56,"left_children":[1,-1,3,5,7,9,11,-1,13,15,17,-1,-1,-1,-1,-1,-1,-1,-1],"loss_changes":[1.1625233E1,0E0,5.29887E0,5.013015E0,2.4340887E0,3.1369667E0,1.1030765E0,0E0,1.2820644E0,2.8432693E0,4.8398294E0,0E0,0E0,0E0,0E0,0E0,0E0,0E0,0E0],"parents":[2147483647,0,0,2,2,3,3,4,4,5,5,6,6,8,8,9,9,10,10],"right_children":[2,-1,4,6,8,10,12,-1,14,16,18,-1,-1,-1,-1,-1,-1,-1,-1],"split_conditions":[1.3105452E0,-2.7829466E-2,2.231372E0,1.9873838E3,9.8927527E2,9.9359125E2,2.910922E1,7.036557E-3,9.943293E2,1.1669759E-1,9.0557925E-2,-0E0,-2.2949066E-2,-2.7727617E-2,-0E0,1.2292488E-2,-5.0363317E-3,2.2441104E-2,-8.804183E-3],"split_indices":[7,0,9,2,2,2,20,0,2,4,1,0,0,0,0,0,0,0,0],"split_type":[0,0,0,0,0,0,0,0,0,0,0,0,0,0,0,0,0,0,0],"sum_hessian":[7.961409E1,1.0251317E1,6.936277E1,6.039735E1,8.965423E0,5.5728115E1,4.669234E0,1.5670044E0,7.398418E0,2.9590635E1,2.6137482E1,1.0865629E0,3.5826707E0,5.4108057E0,1.987612E0,1.3059408E1,1.6531227E1,2.2581892E1,3.5555897E0],"tree_param":{"num_deleted":"0","num_feature":"29","num_nodes":"19","size_leaf_vector":"1"}},{"base_weights":[-4.144533E-2,-5.274244E-1,2.0568874E-1,-3.8580727E-2,-8.357876E-1,3.9668193E-1,-1.4487575E-1,3.4608313E-1,-2.8025514E-2,-0E0,-9.4428706E-1,-5.8929585E-3,6.621258E-1,-3.73441E-1,1.7605623E-2,-1.0054598E-2,5.918232E-1,-0E0,-3.0377926E-2,-3.7586135E-1,3.2612243E-1,-2.3145558E-1,2.5238123E-2,1.1881733E-2,-6.6917825E-1,-1.1036133E-2,2.6839616E-2,1.1878677E-3,-2.431539E-2,-3.585598E-3,1.5146013E-2,5.064518E-3,-2.0581404E-2,-2.7090834E-2,-2.7060814E-3],"categories":[],"categories_nodes":[],"categories_segments":[],"categories_sizes":[],"default_left":[0,0,0,0,0,0,0,0,0,0,0,0,0,0,0,0,0,0,0,0,0,0,0,0,0,0,0,0,0,0,0,0,0,0,0],"id":57,"left_children":[1,3,5,7,9,11,13,15,-1,-1,17,19,21,23,-1,-1,25,-1,-1,27,29,31,-1,-1,33,-1,-1,-1,-1,-1,-1,-1,-1,-1,-1],"loss_changes":[1.0523871E1,3.9785185E0,4.0410604E0,5.839612E0,1.4168282E0,4.417892E0,3.7699833E0,2.3692746E0,0E0,0E0,1.0112467E0,2.286065E0,4.5020666E0,4.6282034E0,0E0,0E0,3.6414466E0,0E0,0E0,2.1478143E0,1.0309439E0,1.4136384E0,0E0,0E0,1.2073064E0,0E0,0E0,0E0,0E0,0E0,0E0,0E0,0E0,0E0,0E0],"parents":[2147483647,0,0,1,1,2,2,3,3,4,4,5,5,6,6,7,7,10,10,11,11,12,12,13,13,16,16,19,19,20,20,21,21,24,24],"right_children":[2,4,6,8,10,12,14,16,-1,-1,18,20,22,24,-1,-1,26,-1,-1,28,30,32,-1,-1,34,-1,-1,-1,-1,-1,-1,-1,-1,-1,-1],"split_conditions":[6.771071E2,3.138945E1,1.4397725E3,1.5417025E0,1.0387988E1,3.1987154E1,1.1543192E3,2.8387892E0,-2.8025514E-2,-0E0,1.4383006E-1,1.0117818E0,1.3192038E-1,8.039203E2,1.7605623E-2,-1.0054598E-2,3.7855245E-2,-0E0,-3.0377926E-2,1.4379573E-1,7.1714044E2,7.4291736E2,2.5238123E-2,1.1881733E-2,9.774592E2,-1.1036133E-2,2.6839616E-2,1.1878677E-3,-2.431539E-2,-3.585598E-3,1.5146013E-2,5.064518E-3,-2.0581404E-2,-2.7090834E-2,-2.7060814E-3],"split_indices":[10,27,11,0,25,15,10,23,0,0,16,0,14,10,0,0,1,0,0,14,10,10,0,0,10,0,0,0,0,0,0,0,0,0,0],"split_type":[0,0,0,0,0,0,0,0,0,0,0,0,0,0,0,0,0,0,0,0,0,0,0,0,0,0,0,0,0,0,0,0,0,0,0],"sum_hessian":[8.2478485E1,2.7721046E1,5.4757435E1,1.2220215E1,1.5500833E1,3.6198875E1,1.8558561E1,9.01648E0,3.2037344E0,2.2017279E0,1.3299105E1,1.4412576E1,2.1786299E1,1.5408213E1,3.1503491E0,1.657954E0,7.358526E0,1.0083084E0,1.2290796E1,7.404024E0,7.008551E0,3.0746748E0,1.8711624E1,3.6199872E0,1.1788226E1,1.2659602E0,6.092566E0,4.1268654E0,3.277159E0,1.3952734E0,5.613278E0,1.7187154E0,1.3559594E0,6.984269E0,4.803957E0],"tree_param":{"num_deleted":"0","num_feature":"29","num_nodes":"35","size_leaf_vector":"1"}},{"base_weights":[-8.220334E-2,-2.7628554E-2,5.8149055E-2,1.1905394E-1,-2.1785403E-2,1.8688911E-1,-2.035025E-2,-1.9202735E-1,3.67086E-1,1.4432078E-2,-1.7188437E-2,-1.0091338E-2,1.37351835E-2],"categories":[],"categories_nodes":[],"categories_segments":[],"categories_sizes":[],"default_left":[0,0,0,0,0,0,0,0,0,0,0,0,0],"id":58,"left_children":[1,-1,3,5,-1,7,-1,9,11,-1,-1,-1,-1],"loss_changes":[9.825137E0,0E0,3.1630235E0,3.593599E0,0E0,4.54648E0,0E0,5.9303246E0,3.2058263E0,0E0,0E0,0E0,0E0],"parents":[2147483647,0,0,2,2,3,3,5,5,7,7,8,8],"right_children":[2,-1,4,6,-1,8,-1,10,12,-1,-1,-1,-1],"split_conditions":[1.3105452E0,-2.7628554E-2,3.1983905E0,2.9810547E3,-2.1785403E-2,4.2558476E-1,-2.035025E-2,5.106347E-1,2.64065E0,1.4432078E-2,-1.7188437E-2,-1.0091338E-2,1.37351835E-2],"split_indices":[7,0,9,2,0,9,0,13,23,0,0,0,0],"split_type":[0,0,0,0,0,0,0,0,0,0,0,0,0],"sum_hessian":[7.688721E1,9.937797E0,6.694941E1,6.4290985E1,2.6584306E0,6.1239567E1,3.0514128E0,1.8800335E1,4.243923E1,6.1300116E0,1.2670324E1,3.6013556E0,3.8837875E1],"tree_param":{"num_deleted":"0","num_feature":"29","num_nodes":"13","size_leaf_vector":"1"}},{"base_weights":[-7.898133E-2,-6.929972E-1,1.1372087E-1,-9.7731704E-1,1.23119585E-1,2.1966913E-1,-2.4496906E-2,-0E0,-3.3653326E-2,1.7328477E-2,-8.165378E-3,-6.5250895E-3,6.935883E-1,-5.1213163E-1,3.415967E-1,2.630484E-2,-0E0,-0E0,-3.3542827E-2,-1.3775943E-2,1.5353792E-2,-1.9324174E-2,1.5853059E-2],"categories":[],"categories_nodes":[],"categories_segments":[],"categories_sizes":[],"default_left":[0,0,0,0,0,0,0,0,0,0,0,0,0,0,0,0,0,0,0,0,0,0,0],"id":59,"left_children":[1,3,5,7,9,11,-1,-1,-1,-1,-1,13,15,17,19,-1,21,-1,-1,-1,-1,-1,-1],"loss_changes":[1.0117052E1,5.4067507E0,6.299367E0,2.6364365E0,1.6526749E0,6.665175E0,0E0,0E0,0E0,0E0,0E0,7.674389E0,2.3327417E0,6.066634E0,3.8998342E0,0E0,2.8224669E0,0E0,0E0,0E0,0E0,0E0,0E0],"parents":[2147483647,0,0,1,1,2,2,3,3,4,4,5,5,11,11,12,12,13,13,14,14,16,16],"right_children":[2,4,6,8,10,12,-1,-1,-1,-1,-1,14,16,18,20,-1,22,-1,-1,-1,-1,-1,-1],"split_conditions":[3.9422297E-1,8.129353E-2,1.9873838E3,2.879922E1,1.1148436E-1,9.937593E2,-2.4496906E-2,-0E0,-3.3653326E-2,1.7328477E-2,-8.165378E-3,2.1071126E0,1.8435549E0,1.9253807E0,3.7594657E-2,2.630484E-2,2.9203014E1,-0E0,-3.3542827E-2,-1.3775943E-2,1.5353792E-2,-1.9324174E-2,1.5853059E-2],"split_indices":[12,1,2,20,1,2,0,0,0,0,0,8,0,8,1,0,20,0,0,0,0,0,0],"split_type":[0,0,0,0,0,0,0,0,0,0,0,0,0,0,0,0,0,0,0,0,0,0,0],"sum_hessian":[7.972427E1,1.8423353E1,6.130092E1,1.3824701E1,4.5986524E0,5.6887337E1,4.4135795E0,1.7182237E0,1.2106478E1,2.2984455E0,2.300207E0,3.9129074E1,1.7758265E1,1.615697E1,2.2972103E1,1.3397145E1,4.36112E0,9.494845E0,6.6621246E0,2.9163659E0,2.0055737E1,1.5945333E0,2.766587E0],"tree_param":{"num_deleted":"0","num_feature":"29","num_nodes":"23","size_leaf_vector":"1"}},{"base_weights":[-6.1324323E-3,-2.7373113E-2,1.3573493E-1,-2.4706233E-1,2.9121408E-1,-7.5649893E-1,2.0829132E-1,-2.9411167E-1,3.8809264E-1,7.148315E-3,-3.1522814E-2,1.3757637E-2,-1.0913744E-2,-2.4773594E-2,7.127598E-4,5.5948246E-1,-3.818497E-2,-9.387632E-3,2.0312661E-2,1.634184E-2,-2.0979544E-2],"categories":[],"categories_nodes":[],"categories_segments":[],"categories_sizes":[],"default_left":[0,0,0,0,0,0,0,0,0,0,0,0,0,0,0,0,0,0,0,0,0],"id":60,"left_children":[1,-1,3,5,7,9,11,13,15,-1,-1,-1,-1,-1,-1,17,19,-1,-1,-1,-1],"loss_changes":[1.1239445E1,0E0,4.485155E0,5.487348E0,3.30651E0,4.1022663E0,2.1278703E0,1.7916044E0,3.7707672E0,0E0,0E0,0E0,0E0,0E0,0E0,4.1777887E0,6.4832616E0,0E0,0E0,0E0,0E0],"parents":[2147483647,0,0,2,2,3,3,4,4,5,5,6,6,7,7,8,8,15,15,16,16],"right_children":[2,-1,4,6,8,10,12,14,16,-1,-1,-1,-1,-1,-1,18,20,-1,-1,-1,-1],"split_conditions":[1.3105452E0,-2.7373113E-2,6.8741205E2,2.9213884E1,6.534048E0,1.0734055E1,2.9361576E1,7.58592E0,8.9881696E-2,7.148315E-3,-3.1522814E-2,1.3757637E-2,-1.0913744E-2,-2.4773594E-2,7.127598E-4,3.0387417E1,5.106347E-1,-9.387632E-3,2.0312661E-2,1.634184E-2,-2.0979544E-2],"split_indices":[7,0,10,20,25,25,20,23,3,0,0,0,0,0,0,15,13,0,0,0,0],"split_type":[0,0,0,0,0,0,0,0,0,0,0,0,0,0,0,0,0,0,0,0,0],"sum_hessian":[8.046851E1,9.897913E0,7.0570595E1,1.9114882E1,5.1455715E1,8.915659E0,1.01992235E1,5.9959893E0,4.545973E1,1.7342426E0,7.181416E0,7.97903E0,2.2201934E0,1.6363049E0,4.3596845E0,3.2814327E1,1.2645398E1,2.9984975E0,2.981583E1,6.5054684E0,6.1399302E0],"tree_param":{"num_deleted":"0","num_feature":"29","num_nodes":"21","size_leaf_vector":"1"}},{"base_weights":[-3.7593845E-2,-5.44343E-1,2.1352533E-1,-6.828723E-2,-8.642579E-1,2.7457196E-1,-1.8344592E-2,3.4537983E-1,-2.180299E-2,-0E0,-2.9700618E-2,-1.3667781E-2,3.4332487E-1,-4.8907264E-3,1.9091627E-2,-2.7754853E-2,4.4116098E-1,-2.056359E-2,1.482223E-2,1.7157309E-2,-0E0],"categories":[],"categories_nodes":[],"categories_segments":[],"categories_sizes":[],"default_left":[0,0,0,0,0,0,0,0,0,0,0,0,0,0,0,0,0,0,0,0,0],"id":61,"left_children":[1,3,5,7,9,11,-1,13,-1,-1,-1,-1,15,-1,-1,17,19,-1,-1,-1,-1],"loss_changes":[1.0611479E1,3.6522646E0,2.9093416E0,4.5007987E0,1.4114523E0,2.8991306E0,0E0,1.8460824E0,0E0,0E0,0E0,0E0,2.0418544E0,0E0,0E0,4.624179E0,2.5928302E0,0E0,0E0,0E0,0E0],"parents":[2147483647,0,0,1,1,2,2,3,3,4,4,5,5,7,7,12,12,15,15,16,16],"right_children":[2,4,6,8,10,12,-1,14,-1,-1,-1,-1,16,-1,-1,18,20,-1,-1,-1,-1],"split_conditions":[6.8741205E2,3.138945E1,3.1983905E0,1.6605719E0,1.0387988E1,1.6905357E0,-1.8344592E-2,2.9203014E1,-2.180299E-2,-0E0,-2.9700618E-2,-1.3667781E-2,1.3377385E-1,-4.8907264E-3,1.9091627E-2,2.9230942E1,2.9280033E1,-2.056359E-2,1.482223E-2,1.7157309E-2,-0E0],"split_indices":[10,27,9,7,25,8,0,20,0,0,0,0,14,0,0,20,20,0,0,0,0],"split_type":[0,0,0,0,0,0,0,0,0,0,0,0,0,0,0,0,0,0,0,0,0],"sum_hessian":[7.826132E1,2.5817772E1,5.244355E1,1.1980207E1,1.38375635E1,5.0637096E1,1.8064525E0,7.47558E0,4.504627E0,2.3280878E0,1.1509476E1,2.7634492E0,4.787365E1,2.4160504E0,5.05953E0,9.22113E0,3.865252E1,4.225936E0,4.995194E0,3.0116604E1,8.535913E0],"tree_param":{"num_deleted":"0","num_feature":"29","num_nodes":"21","size_leaf_vector":"1"}},{"base_weights":[-1.3429521E-2,-2.6857834E-2,1.21635154E-1,-1.305508E-1,3.6741695E-1,-3.5661742E-1,3.480762E-1,4.8395252E-1,-1.7908994E-2,1.297739E-1,-7.7676994E-1,-2.4332541E-1,6.049055E-1,-2.4848036E-1,6.514204E-1,2.1379221E-2,-1.7771034E-2,-2.6498085E-2,-0E0,-2.1919254E-2,7.5242934E-3,2.4813754E-2,-3.2221903E-3,-1.6869813E-2,7.118288E-3,-1.4948781E-3,2.329888E-2],"categories":[],"categories_nodes":[],"categories_segments":[],"categories_sizes":[],"default_left":[0,0,0,0,0,0,0,0,0,0,0,0,0,0,0,0,0,0,0,0,0,0,0,0,0,0,0],"id":62,"left_children":[1,-1,3,5,7,9,11,13,-1,15,17,19,21,23,25,-1,-1,-1,-1,-1,-1,-1,-1,-1,-1,-1,-1],"loss_changes":[1.007772E1,0E0,4.5681148E0,4.0547967E0,4.690868E0,5.749501E0,2.2333972E0,4.77754E0,0E0,6.3807473E0,1.1631918E0,1.6519123E0,1.9991827E0,1.5489519E0,3.0155497E0,0E0,0E0,0E0,0E0,0E0,0E0,0E0,0E0,0E0,0E0,0E0,0E0],"parents":[2147483647,0,0,2,2,3,3,4,4,5,5,6,6,7,7,9,9,10,10,11,11,12,12,13,13,14,14],"right_children":[2,-1,4,6,8,10,12,14,-1,16,18,20,22,24,26,-1,-1,-1,-1,-1,-1,-1,-1,-1,-1,-1,-1],"split_conditions":[1.3105452E0,-2.6857834E-2,2.9213884E1,6.072667E1,1.9873838E3,1.17435465E1,5.25E2,3.0251451E1,-1.7908994E-2,1.8885841E0,2.6365066E0,8.028301E-2,2.9168934E1,1.4004163E3,1.7007664E-2,2.1379221E-2,-1.7771034E-2,-2.6498085E-2,-0E0,-2.1919254E-2,7.5242934E-3,2.4813754E-2,-3.2221903E-3,-1.6869813E-2,7.118288E-3,-1.4948781E-3,2.329888E-2],"split_indices":[7,0,20,25,2,25,22,15,0,7,16,1,20,2,24,0,0,0,0,0,0,0,0,0,0,0,0],"split_type":[0,0,0,0,0,0,0,0,0,0,0,0,0,0,0,0,0,0,0,0,0,0,0,0,0,0,0],"sum_hessian":[7.753631E1,9.294972E0,6.824133E1,3.314058E1,3.5100754E1,2.3564844E1,9.575735E0,3.2667988E1,2.4327683E0,1.1010593E1,1.255425E1,2.3417406E0,7.233994E0,5.343715E0,2.7324272E1,6.4905405E0,4.520053E0,1.0747063E1,1.8071876E0,1.2065017E0,1.1352389E0,5.803157E0,1.4308375E0,3.6800795E0,1.6636355E0,3.7170675E0,2.3607204E1],"tree_param":{"num_deleted":"0","num_feature":"29","num_nodes":"27","size_leaf_vector":"1"}},{"base_weights":[-4.018976E-2,-2.6485076E-2,8.674397E-2,-3.226292E-1,2.29177E-1,-7.1480376E-1,3.55868E-2,-5.2384806E-1,3.2973003E-1,3.4621179E-3,-2.78546E-2,4.6925455E-1,-3.55536E-1,-2.6586443E-2,-0E0,5.735834E-1,-0E0,2.089037E-2,-0E0,3.0001681E-3,-2.2908175E-2,2.069759E-2,-5.7227302E-5,-2.4224402E-2,6.4024795E-3],"categories":[],"categories_nodes":[],"categories_segments":[],"categories_sizes":[],"default_left":[0,0,0,0,0,0,0,0,0,0,0,0,0,0,0,0,0,0,0,0,0,0,0,0,0],"id":63,"left_children":[1,-1,3,5,7,9,11,13,15,-1,-1,17,19,-1,-1,21,23,-1,-1,-1,-1,-1,-1,-1,-1],"loss_changes":[8.877292E0,