{"learner":{"attributes":{"scikit_learn":"{\"_estimator_type\": \"classifier\"}"},"feature_names":[],"feature_types":[],"gradient_booster":{"model":{"cats":{"enc":[],"feature_segments":[],"sorted_idx":[]},"gbtree_model_param":{"num_parallel_tree":"1","num_trees":"400"},"iteration_indptr":[0,1,2,3,4,5,6,7,8,9,10,11,12,13,14,15,16,17,18,19,20,21,22,23,24,25,26,27,28,29,30,31,32,33,34,35,36,37,38,39,40,41,42,43,44,45,46,47,48,49,50,51,52,53,54,55,56,57,58,59,60,61,62,63,64,65,66,67,68,69,70,71,72,73,74,75,76,77,78,79,80,81,82,83,84,85,86,87,88,89,90,91,92,93,94,95,96,97,98,99,100,101,102,103,104,105,106,107,108,109,110,111,112,113,114,115,116,117,118,119,120,121,122,123,124,125,126,127,128,129,130,131,132,133,134,135,136,137,138,139,140,141,142,143,144,145,146,147,148,149,150,151,152,153,154,155,156,157,158,159,160,161,162,163,164,165,166,167,168,169,170,171,172,173,174,175,176,177,178,179,180,181,182,183,184,185,186,187,188,189,190,191,192,193,194,195,196,197,198,199,200,201,202,203,204,205,206,207,208,209,210,211,212,213,214,215,216,217,218,219,220,221,222,223,224,225,226,227,228,229,230,231,232,233,234,235,236,237,238,239,240,241,242,243,244,245,246,247,248,249,250,251,252,253,254,255,256,257,258,259,260,261,262,263,264,265,266,267,268,269,270,271,272,273,274,275,276,277,278,279,280,281,282,283,284,285,286,287,288,289,290,291,292,293,294,295,296,297,298,299,300,301,302,303,304,305,306,307,308,309,310,311,312,313,314,315,316,317,318,319,320,321,322,323,324,325,326,327,328,329,330,331,332,333,334,335,336,337,338,339,340,341,342,343,344,345,346,347,348,349,350,351,352,353,354,355,356,357,358,359,360,361,362,363,364,365,366,367,368,369,370,371,372,373,374,375,376,377,378,379,380,381,382,383,384,385,386,387,388,389,390,391,392,393,394,395,396,397,398,399,400],"tree_info":[0,0,0,0,0,0,0,0,0,0,0,0,0,0,0,0,0,0,0,0,0,0,0,0,0,0,0,0,0,0,0,0,0,0,0,0,0,0,0,0,0,0,0,0,0,0,0,0,0,0,0,0,0,0,0,0,0,0,0,0,0,0,0,0,0,0,0,0,0,0,0,0,0,0,0,0,0,0,0,0,0,0,0,0,0,0,0,0,0,0,0,0,0,0,0,0,0,0,0,0,0,0,0,0,0,0,0,0,0,0,0,0,0,0,0,0,0,0,0,0,0,0,0,0,0,0,0,0,0,0,0,0,0,0,0,0,0,0,0,0,0,0,0,0,0,0,0,0,0,0,0,0,0,0,0,0,0,0,0,0,0,0,0,0,0,0,0,0,0,0,0,0,0,0,0,0,0,0,0,0,0,0,0,0,0,0,0,0,0,0,0,0,0,0,0,0,0,0,0,0,0,0,0,0,0,0,0,0,0,0,0,0,0,0,0,0,0,0,0,0,0,0,0,0,0,0,0,0,0,0,0,0,0,0,0,0,0,0,0,0,0,0,0,0,0,0,0,0,0,0,0,0,0,0,0,0,0,0,0,0,0,0,0,0,0,0,0,0,0,0,0,0,0,0,0,0,0,0,0,0,0,0,0,0,0,0,0,0,0,0,0,0,0,0,0,0,0,0,0,0,0,0,0,0,0,0,0,0,0,0,0,0,0,0,0,0,0,0,0,0,0,0,0,0,0,0,0,0,0,0,0,0,0,0,0,0,0,0,0,0,0,0,0,0,0,0,0,0,0,0,0,0,0,0,0,0,0,0,0,0,0,0,0,0,0,0,0,0,0,0,0,0,0,0,0,0,0,0,0,0,0,0,0,0,0,0,0,0,0,0,0,0,0,0,0,0,0,0,0,0],"trees":[{"base_weights":[4.6533395E-2,-1.4045541E0,5.363151E-1,-8.9655176E-2,-1.1795599E-2,1.3197731E0,-1.8662022E-1,1.9909233E-2,7.504781E-2,-7.4797493E-1,7.417564E-1,-2.3230495E-1,-6.518412E-2,6.890315E-2,-2.3852328E-4,8.761025E-3,-3.072907E-2],"categories":[],"categories_nodes":[],"categories_segments":[],"categories_sizes":[],"default_left":[0,0,0,0,0,0,0,0,0,0,0,0,0,0,0,0,0],"id":0,"left_children":[1,3,5,-1,-1,7,9,-1,-1,11,13,15,-1,-1,-1,-1,-1],"loss_changes":[8.4206E1,1.1676811E1,5.155762E1,0E0,0E0,5.0965347E0,2.601877E1,0E0,0E0,7.54233E0,9.571659E0,3.4010315E0,0E0,0E0,0E0,0E0,0E0],"parents":[2147483647,0,0,1,1,2,2,5,5,6,6,9,9,10,10,11,11],"right_children":[2,4,6,-1,-1,8,10,-1,-1,12,14,16,-1,-1,-1,-1,-1],"split_conditions":[3.91369E-1,3.3187103E1,1.98722E3,-8.9655176E-2,-1.1795599E-2,9.872931E2,1.5386856E-1,1.9909233E-2,7.504781E-2,2.4871843E0,3.501896E-2,4.2277798E-1,-6.518412E-2,6.890315E-2,-2.3852328E-4,8.761025E-3,-3.072907E-2],"split_indices":[12,15,2,0,0,2,14,0,0,0,1,9,0,0,0,0,0],"split_type":[0,0,0,0,0,0,0,0,0,0,0,0,0,0,0,0,0],"sum_hessian":[1.1497154E2,2.7813007E1,8.715853E1,1.975E1,8.063008E0,4.1367886E1,4.579065E1,8.300813E0,3.306707E1,2.9113821E1,1.6676828E1,1.7038618E1,1.2075203E1,8.45122E0,8.22561E0,8.138211E0,8.900406E0],"tree_param":{"num_deleted":"0","num_feature":"29","num_nodes":"17","size_leaf_vector":"1"}},{"base_weights":[-5.23296E-3,9.4208485E-1,-7.876824E-1,-2.536693E-2,1.2512882E0,-1.6585279E-1,-1.3891522E0,7.498058E-2,2.8300742E-2,-6.398511E-1,4.353079E-2,-8.492367E-2,-3.8299117E-2,-5.2444585E-2,1.9204408E-3],"categories":[],"categories_nodes":[],"categories_segments":[],"categories_sizes":[],"default_left":[0,0,0,0,0,0,0,0,0,0,0,0,0,0,0],"id":1,"left_children":[1,3,5,-1,7,9,11,-1,-1,13,-1,-1,-1,-1,-1],"loss_changes":[8.661794E1,2.5225388E1,2.2824287E1,0E0,4.7964935E0,1.7856047E1,2.3386536E0,0E0,0E0,7.5297203E0,0E0,0E0,0E0,0E0,0E0],"parents":[2147483647,0,0,1,1,2,2,4,4,5,5,6,6,9,9],"right_children":[2,4,6,-1,8,10,12,-1,-1,14,-1,-1,-1,-1,-1],"split_conditions":[1.98722E3,3.9474425E-1,2.9316593E1,-2.536693E-2,7.707498E-1,1.8545227E-1,7.4777155E2,7.498058E-2,2.8300742E-2,6.5758835E1,4.353079E-2,-8.492367E-2,-3.8299117E-2,-5.2444585E-2,1.9204408E-3],"split_indices":[2,12,20,0,12,14,11,0,0,27,0,0,0,0,0],"split_type":[0,0,0,0,0,0,0,0,0,0,0,0,0,0,0],"sum_hessian":[1.12959206E2,5.062276E1,6.233644E1,8.390897E0,4.2231865E1,3.231272E1,3.0023722E1,2.8718716E1,1.3513148E1,2.3028875E1,9.283845E0,1.7221905E1,1.2801818E1,1.414356E1,8.885315E0],"tree_param":{"num_deleted":"0","num_feature":"29","num_nodes":"15","size_leaf_vector":"1"}},{"base_weights":[-3.667348E-3,7.777138E-1,-1.0417453E0,1.1071303E0,-5.250558E-2,-8.079322E-2,-3.9559907E-1,1.3127996E0,-1.9512672E-3,3.5783332E-3,-5.3986337E-2,3.0440552E-2,1.413304E0,7.974081E-2,3.9265882E-2],"categories":[],"categories_nodes":[],"categories_segments":[],"categories_sizes":[],"default_left":[0,0,0,0,0,0,0,0,0,0,0,0,0,0,0],"id":2,"left_children":[1,3,5,7,-1,-1,9,11,-1,-1,-1,-1,13,-1,-1],"loss_changes":[9.364578E1,4.1796535E1,1.6183537E1,1.4107368E1,0E0,0E0,9.1217785E0,7.0027924E-1,0E0,0E0,0E0,0E0,9.003067E-1,0E0,0E0],"parents":[2147483647,0,0,1,1,2,2,3,3,6,6,7,7,12,12],"right_children":[2,4,6,8,-1,-1,10,12,-1,-1,-1,-1,14,-1,-1],"split_conditions":[2.7993967E3,2.9366503E1,4.2949513E-1,1.0061791E0,-5.250558E-2,-8.079322E-2,3.5488404E-2,9.873383E2,-1.9512672E-3,3.5783332E-3,-5.3986337E-2,3.0440552E-2,1.974964E3,7.974081E-2,3.9265882E-2],"split_indices":[2,20,12,9,0,0,1,2,0,0,0,0,2,0,0],"split_type":[0,0,0,0,0,0,0,0,0,0,0,0,0,0,0],"sum_hessian":[1.1128997E2,6.3507004E1,4.7782967E1,5.470926E1,8.797747E0,2.3302597E1,2.4480371E1,4.650901E1,8.200249E0,1.5176687E1,9.303683E0,8.195212E0,3.8313797E1,2.6716398E1,1.1597399E1],"tree_param":{"num_deleted":"0","num_feature":"29","num_nodes":"15","size_leaf_vector":"1"}},{"base_weights":[4.49316E-2,5.071035E-1,-7.101431E-2,-3.1420796E-3,1.0390122E0,4.7506616E-1,-6.30777E-2,6.1304636E-2,5.616814E-3,-1.5442054E-2,7.4370587E-1,5.6917068E-2,3.119037E-5],"categories":[],"categories_nodes":[],"categories_segments":[],"categories_sizes":[],"default_left":[0,0,0,0,0,0,0,0,0,0,0,0,0],"id":3,"left_children":[1,3,-1,5,7,9,-1,-1,-1,-1,11,-1,-1],"loss_changes":[8.203139E1,2.5688387E1,0E0,3.098094E1,7.009365E0,8.3745775E0,0E0,0E0,0E0,0E0,7.723856E0,0E0,0E0],"parents":[2147483647,0,0,1,1,3,3,4,4,5,5,10,10],"right_children":[2,4,-1,6,8,10,-1,-1,-1,-1,12,-1,-1],"split_conditions":[2.9366503E1,1.4953035E-1,-7.101431E-2,6.615885E-1,3.3001606E0,1.8358288E0,-6.30777E-2,6.1304636E-2,5.616814E-3,-1.5442054E-2,5.4537384E1,5.6917068E-2,3.119037E-5],"split_indices":[20,14,0,9,0,8,0,0,0,0,23,0,0],"split_type":[0,0,0,0,0,0,0,0,0,0,0,0,0],"sum_hessian":[1.1768344E2,9.071756E1,2.6965878E1,4.683663E1,4.388093E1,3.4553593E1,1.2283037E1,3.552354E1,8.357392E0,8.267626E0,2.6285967E1,1.6033957E1,1.025201E1],"tree_param":{"num_deleted":"0","num_feature":"29","num_nodes":"13","size_leaf_vector":"1"}},{"base_weights":[-8.083812E-2,-7.871328E-2,2.2829497E-1,5.2945834E-1,-7.571517E-1,1.06914595E-1,1.1453532E0,-6.146424E-2,-0E0,6.253324E-1,-3.6166167E-1,7.305567E-2,1.4617135E-2,1.1145291E-2,5.164315E-2,-4.1784216E-2,2.1791488E-2],"categories":[],"categories_nodes":[],"categories_segments":[],"categories_sizes":[],"default_left":[0,0,0,0,0,0,0,0,0,0,0,0,0,0,0,0,0],"id":4,"left_children":[1,-1,3,5,7,9,11,-1,-1,13,15,-1,-1,-1,-1,-1,-1],"loss_changes":[5.6801224E1,0E0,3.0634966E1,1.9649687E1,8.789992E0,1.2597551E1,6.7258835E0,0E0,0E0,2.965434E0,1.1035527E1,0E0,0E0,0E0,0E0,0E0,0E0],"parents":[2147483647,0,0,2,2,3,3,4,4,5,5,6,6,9,9,10,10],"right_children":[2,-1,4,6,8,10,12,-1,-1,14,16,-1,-1,-1,-1,-1,-1],"split_conditions":[4.1495953E0,-7.871328E-2,3.3001606E0,1.5239897E-1,1.5189037E-1,5.764891E-1,1.1692495E-1,-6.146424E-2,-0E0,1.4731184E3,2.5496435E0,7.305567E-2,1.4617135E-2,1.1145291E-2,5.164315E-2,-4.1784216E-2,2.1791488E-2],"split_indices":[6,0,0,14,14,13,4,0,0,11,8,0,0,0,0,0,0],"split_type":[0,0,0,0,0,0,0,0,0,0,0,0,0,0,0,0,0],"sum_hessian":[1.1802016E2,1.9113737E1,9.890642E1,7.6852325E1,2.205409E1,4.7454487E1,2.9397839E1,1.2942148E1,9.111943E0,2.2718002E1,2.4736485E1,1.9987207E1,9.410632E0,1.3604611E1,9.11339E0,1.5847837E1,8.888647E0],"tree_param":{"num_deleted":"0","num_feature":"29","num_nodes":"17","size_leaf_vector":"1"}},{"base_weights":[3.0098135E-2,4.1278404E-1,-1.2174613E0,-1.2350492E-2,9.56717E-1,-7.3578715E-2,-2.9090485E-2,-3.635275E-2,2.983277E-1,6.8110906E-2,5.4264885E-1,-1.3568245E-1,6.837693E-2,-5.590953E-3,5.1214542E-2,3.0651286E-1,-4.423784E-2,-1.6979335E-2,4.901824E-2],"categories":[],"categories_nodes":[],"categories_segments":[],"categories_sizes":[],"default_left":[0,0,0,0,0,0,0,0,0,0,0,0,0,0,0,0,0,0,0],"id":5,"left_children":[1,3,5,7,9,-1,-1,-1,11,-1,13,15,-1,-1,-1,17,-1,-1,-1],"loss_changes":[5.6552723E1,2.1650566E1,1.7367744E0,1.2373599E1,4.3987083E0,0E0,0E0,0E0,1.8499119E1,0E0,8.269247E0,1.0215079E1,0E0,0E0,0E0,9.205669E0,0E0,0E0,0E0],"parents":[2147483647,0,0,1,1,2,2,3,3,4,4,8,8,10,10,11,11,15,15],"right_children":[2,4,6,8,10,-1,-1,-1,12,-1,14,16,-1,-1,-1,18,-1,-1,-1],"split_conditions":[2.9366503E1,1.5239897E-1,3.91369E-1,8.428929E-2,7.35887E-2,-7.3578715E-2,-2.9090485E-2,-3.635275E-2,2.1372275E0,6.8110906E-2,5.389255E-1,1.9511584E0,6.837693E-2,-5.590953E-3,5.1214542E-2,1.7697405E0,-4.423784E-2,-1.6979335E-2,4.901824E-2],"split_indices":[20,14,12,3,18,0,0,0,8,0,24,8,0,0,0,8,0,0,0],"split_type":[0,0,0,0,0,0,0,0,0,0,0,0,0,0,0,0,0,0,0],"sum_hessian":[1.1519148E2,8.948209E1,2.5709385E1,5.0807014E1,3.8675083E1,1.5925973E1,9.783412E0,1.5069377E1,3.5737637E1,1.6615824E1,2.2059258E1,2.632888E1,9.408756E0,9.562728E0,1.2496529E1,1.6878977E1,9.449904E0,8.744611E0,8.134366E0],"tree_param":{"num_deleted":"0","num_feature":"29","num_nodes":"19","size_leaf_vector":"1"}},{"base_weights":[3.36994E-2,-7.368956E-2,3.5580716E-1,1.1099948E0,-1.9249335E-1,1.01749385E-2,6.584977E-2,-5.825275E-1,5.451295E-1,-0E0,-5.8800947E-2,5.2948207E-2,-0E0,-2.368932E-2,2.2177344E-2],"categories":[],"categories_nodes":[],"categories_segments":[],"categories_sizes":[],"default_left":[0,0,0,0,0,0,0,0,0,0,0,0,0,0,0],"id":6,"left_children":[1,-1,3,5,7,-1,-1,9,11,13,-1,-1,-1,-1,-1],"loss_changes":[5.5779015E1,0E0,4.0460827E1,6.3909073E0,1.6976456E1,0E0,0E0,1.3758518E1,5.4416647E0,4.8476844E0,0E0,0E0,0E0,0E0,0E0],"parents":[2147483647,0,0,2,2,3,3,4,4,7,7,8,8,9,9],"right_children":[2,-1,4,6,8,-1,-1,10,12,14,-1,-1,-1,-1,-1],"split_conditions":[4.17275E0,-7.368956E-2,1.9867638E3,2.029749E0,1.5370128E-1,1.01749385E-2,6.584977E-2,2.4871843E0,7.217103E-1,1.9452018E0,-5.8800947E-2,5.2948207E-2,-0E0,-2.368932E-2,2.2177344E-2],"split_indices":[6,0,2,8,14,0,0,0,13,7,0,0,0,0,0],"split_type":[0,0,0,0,0,0,0,0,0,0,0,0,0,0,0],"sum_hessian":[1.1186359E2,1.8161781E1,9.3701805E1,3.896647E1,5.473534E1,8.430277E0,3.053619E1,3.6521942E1,1.8213396E1,1.9122023E1,1.7399921E1,8.208981E0,1.00044155E1,8.771568E0,1.0350454E1],"tree_param":{"num_deleted":"0","num_feature":"29","num_nodes":"15","size_leaf_vector":"1"}},{"base_weights":[1.0692697E-2,-6.1803323E-1,7.510917E-1,-7.051978E-2,-5.6637354E-2,8.903089E-1,-0E0,4.391412E-2,-5.2413946E-1,5.8170676E-2,4.6217945E-1,-1.0469728E0,2.3232259E-2,4.346358E-2,6.594863E-4,-7.051002E-2,-1.9861478E-2],"categories":[],"categories_nodes":[],"categories_segments":[],"categories_sizes":[],"default_left":[0,0,0,0,0,0,0,0,0,0,0,0,0,0,0,0,0],"id":7,"left_children":[1,3,5,-1,7,9,-1,-1,11,-1,13,15,-1,-1,-1,-1,-1],"loss_changes":[5.3605324E1,2.661926E1,5.4254704E0,0E0,1.7638386E1,3.336506E0,0E0,0E0,1.5417493E1,0E0,3.45359E0,2.4255428E0,0E0,0E0,0E0,0E0,0E0],"parents":[2147483647,0,0,1,1,2,2,4,4,5,5,8,8,10,10,11,11],"right_children":[2,4,6,-1,8,10,-1,-1,12,-1,14,16,-1,-1,-1,-1,-1],"split_conditions":[6.969139E2,3.9907095E-1,6.42E2,-7.051978E-2,1.0695045E0,8.496452E-2,-0E0,4.391412E-2,1.4605671E-1,5.8170676E-2,5.111997E-1,5.9056347E1,2.3232259E-2,4.346358E-2,6.594863E-4,-7.051002E-2,-1.9861478E-2],"split_indices":[10,12,22,0,0,3,0,0,14,0,13,27,0,0,0,0,0],"split_type":[0,0,0,0,0,0,0,0,0,0,0,0,0,0,0,0,0],"sum_hessian":[1.1101715E2,5.98497E1,5.1167446E1,2.3195705E1,3.6653996E1,4.2684654E1,8.482793E0,1.1276393E1,2.5377604E1,2.3250425E1,1.9434229E1,1.6853868E1,8.523737E0,8.626752E0,1.0807477E1,8.815428E0,8.03844E0],"tree_param":{"num_deleted":"0","num_feature":"29","num_nodes":"17","size_leaf_vector":"1"}},{"base_weights":[-4.943033E-3,9.188512E-1,-7.821462E-1,-1.37026E-2,1.186079E0,-6.371661E-2,-4.1998863E-1,6.9239795E-2,1.8702501E-2,-9.887683E-1,1.0834438E-1,-1.6873894E-2,-6.68602E-2,3.6887795E-2,-3.425468E-2],"categories":[],"categories_nodes":[],"categories_segments":[],"categories_sizes":[],"default_left":[0,0,0,0,0,0,0,0,0,0,0,0,0,0,0],"id":8,"left_children":[1,3,5,-1,7,-1,9,-1,-1,11,13,-1,-1,-1,-1],"loss_changes":[8.166795E1,1.7595436E1,9.15416E0,0E0,5.019684E0,0E0,1.2479982E1,0E0,0E0,2.7088814E0,1.1898228E1,0E0,0E0,0E0,0E0],"parents":[2147483647,0,0,1,1,2,2,4,4,6,6,9,9,10,10],"right_children":[2,4,6,-1,8,-1,10,-1,-1,12,14,-1,-1,-1,-1],"split_conditions":[1.98722E3,3.9474425E-1,3.9907095E-1,-1.37026E-2,7.6101744E-1,-6.371661E-2,2.1372275E0,6.9239795E-2,1.8702501E-2,3.9199784E-1,2.4447565E0,-1.6873894E-2,-6.68602E-2,3.6887795E-2,-3.425468E-2],"split_indices":[2,12,12,0,12,0,8,0,0,9,8,0,0,0,0],"split_type":[0,0,0,0,0,0,0,0,0,0,0,0,0,0,0],"sum_hessian":[1.09840744E2,4.972687E1,6.0113873E1,8.749046E0,4.0977825E1,2.276174E1,3.735213E1,3.1293373E1,9.684452E0,1.7603928E1,1.9748203E1,8.007858E0,9.59607E0,1.1442066E1,8.306136E0],"tree_param":{"num_deleted":"0","num_feature":"29","num_nodes":"15","size_leaf_vector":"1"}},{"base_weights":[-5.78273E-3,-6.800814E-2,2.4757451E-1,5.205864E-1,-3.8260818E-1,2.6269716E-1,6.37654E-2,-4.879696E-2,6.3759494E-3,-4.3374572E-2,8.2780033E-1,-3.409346E-1,3.2275006E-2,5.939406E-2,8.686624E-3,3.0212144E-3,-4.1918937E-2],"categories":[],"categories_nodes":[],"categories_segments":[],"categories_sizes":[],"default_left":[0,0,0,0,0,0,0,0,0,0,0,0,0,0,0,0,0],"id":9,"left_children":[1,-1,3,5,7,9,-1,-1,-1,11,13,15,-1,-1,-1,-1,-1],"loss_changes":[4.1391026E1,0E0,1.7668114E1,1.2410637E1,1.0001396E1,1.0158169E1,0E0,0E0,0E0,8.012161E0,3.7027369E0,6.1068296E0,0E0,0E0,0E0,0E0,0E0],"parents":[2147483647,0,0,2,2,3,3,4,4,5,5,9,9,10,10,11,11],"right_children":[2,-1,4,6,8,10,-1,-1,-1,12,14,16,-1,-1,-1,-1,-1],"split_conditions":[4.17275E0,-6.800814E-2,2.854693E0,8.789315E-2,1.4605671E-1,2.243973E0,6.37654E-2,-4.879696E-2,6.3759494E-3,5.651704E1,1.994272E0,1.4838533E0,3.2275006E-2,5.939406E-2,8.686624E-3,3.0212144E-3,-4.1918937E-2],"split_indices":[6,0,0,1,14,16,0,0,0,23,7,0,0,0,0,0,0],"split_type":[0,0,0,0,0,0,0,0,0,0,0,0,0,0,0,0,0],"sum_hessian":[1.15039734E2,1.7062824E1,9.7976906E1,6.915735E1,2.8819557E1,5.40478E1,1.5109552E1,1.2932085E1,1.5887471E1,3.568289E1,1.8364908E1,2.6131401E1,9.551491E0,1.0298557E1,8.06635E0,1.4878623E1,1.1252777E1],"tree_param":{"num_deleted":"0","num_feature":"29","num_nodes":"17","size_leaf_vector":"1"}},{"base_weights":[3.4387338E-3,6.0911095E-1,-6.7451924E-1,-4.1802287E-2,8.5519946E-1,-2.0058689E-1,-6.1182298E-2,5.1930726E-1,5.993424E-2,2.1440138E-1,-3.7357423E-2,4.5976113E-3,4.2122975E-2,3.9885323E-2,-1.4085146E-2],"categories":[],"categories_nodes":[],"categories_segments":[],"categories_sizes":[],"default_left":[0,0,0,0,0,0,0,0,0,0,0,0,0,0,0],"id":10,"left_children":[1,3,5,-1,7,9,-1,11,-1,13,-1,-1,-1,-1,-1],"loss_changes":[4.970026E1,2.432552E1,1.3569593E1,0E0,4.388447E0,8.150766E0,0E0,3.8959084E0,0E0,6.492135E0,0E0,0E0,0E0,0E0,0E0],"parents":[2147483647,0,0,1,1,2,2,4,4,5,5,7,7,9,9],"right_children":[2,4,6,-1,8,10,-1,12,-1,14,-1,-1,-1,-1,-1],"split_conditions":[2.219091E3,4.216855E0,2.9318502E1,-4.1802287E-2,7.82975E-2,5.253677E1,-6.1182298E-2,1.17667E3,5.993424E-2,1.11178696E-1,-3.7357423E-2,4.5976113E-3,4.2122975E-2,3.9885323E-2,-1.4085146E-2],"split_indices":[2,6,20,0,1,23,0,11,0,18,0,0,0,0,0],"split_type":[0,0,0,0,0,0,0,0,0,0,0,0,0,0,0],"sum_hessian":[1.17115524E2,6.2352146E1,5.476338E1,8.0793915E0,5.4272755E1,3.1348589E1,2.3414787E1,3.0715588E1,2.3557167E1,1.7989971E1,1.3358617E1,1.4997884E1,1.5717705E1,8.172708E0,9.817264E0],"tree_param":{"num_deleted":"0","num_feature":"29","num_nodes":"15","size_leaf_vector":"1"}},{"base_weights":[1.0125185E-2,6.04978E-1,-7.277554E-1,9.036742E-1,-4.3882206E-2,-3.9409194E-3,-9.1027206E-1,5.49013E-2,-2.0248897E-4,-5.800717E-2,-1.4877224E-2],"categories":[],"categories_nodes":[],"categories_segments":[],"categories_sizes":[],"default_left":[0,0,0,0,0,0,0,0,0,0,0],"id":11,"left_children":[1,3,5,7,-1,-1,9,-1,-1,-1,-1],"loss_changes":[4.8868576E1,2.908982E1,5.2121944E0,9.894211E0,0E0,0E0,4.361902E0,0E0,0E0,0E0,0E0],"parents":[2147483647,0,0,1,1,2,2,3,3,6,6],"right_children":[2,4,6,8,-1,-1,10,-1,-1,-1,-1],"split_conditions":[2.2187324E3,2.9366503E1,2.9158642E1,1.0061791E0,-4.3882206E-2,-3.9409194E-3,4.199593E3,5.49013E-2,-2.0248897E-4,-5.800717E-2,-1.4877224E-2],"split_indices":[2,20,20,9,0,0,2,0,0,0,0],"split_type":[0,0,0,0,0,0,0,0,0,0,0],"sum_hessian":[1.0746934E2,6.007604E1,4.73933E1,5.093304E1,9.142997E0,1.1633525E1,3.5759773E1,4.2059303E1,8.873737E0,2.3552279E1,1.2207496E1],"tree_param":{"num_deleted":"0","num_feature":"29","num_nodes":"11","size_leaf_vector":"1"}},{"base_weights":[-5.271419E-2,5.7872605E-1,-8.367808E-1,-1.7798537E-2,8.1668746E-1,-5.6972723E-2,-6.228143E-3,9.900848E-1,6.35537E-3,5.7585176E-2,1.3706108E-2],"categories":[],"categories_nodes":[],"categories_segments":[],"categories_sizes":[],"default_left":[0,0,0,0,0,0,0,0,0,0,0],"id":12,"left_children":[1,3,5,-1,7,-1,-1,9,-1,-1,-1],"loss_changes":[5.3099747E1,1.3936804E1,9.437065E0,0E0,4.9373283E0,0E0,0E0,2.9991035E0,0E0,0E0,0E0],"parents":[2147483647,0,0,1,1,2,2,4,4,7,7],"right_children":[2,4,6,-1,8,-1,-1,10,-1,-1,-1],"split_conditions":[2.218098E3,3.91369E-1,4E0,-1.7798537E-2,6.776992E-1,-5.6972723E-2,-6.228143E-3,7.6101744E-1,6.35537E-3,5.7585176E-2,1.3706108E-2],"split_indices":[2,12,5,0,24,0,0,12,0,0,0],"split_type":[0,0,0,0,0,0,0,0,0,0,0],"sum_hessian":[1.0303556E2,5.700956E1,4.6025997E1,1.0941005E1,4.6068554E1,3.0964949E1,1.5061049E1,3.5536213E1,1.0532343E1,2.7428932E1,8.10728E0],"tree_param":{"num_deleted":"0","num_feature":"29","num_nodes":"11","size_leaf_vector":"1"}},{"base_weights":[-1.8139437E-2,3.2924706E-1,-1.0467744E0,7.1526873E-1,-3.4111562E-1,-6.6023156E-2,-1.5226351E-2,8.9359164E-1,-4.4928147E-3,-4.5602914E-2,9.99134E-3,5.951955E-1,6.190553E-2,5.8115404E-3,5.4008927E-2],"categories":[],"categories_nodes":[],"categories_segments":[],"categories_sizes":[],"default_left":[0,0,0,0,0,0,0,0,0,0,0,0,0,0,0],"id":13,"left_children":[1,3,5,7,9,-1,-1,11,-1,-1,-1,13,-1,-1,-1],"loss_changes":[3.8796844E1,2.1410292E1,3.9720898E0,8.023521E0,1.0035847E1,0E0,0E0,2.0542564E0,0E0,0E0,0E0,5.607855E0,0E0,0E0,0E0],"parents":[2147483647,0,0,1,1,2,2,3,3,4,4,7,7,11,11],"right_children":[2,4,6,8,10,-1,-1,12,-1,-1,-1,14,-1,-1,-1],"split_conditions":[2.93583E1,2.7993967E3,6.196779E-1,9.9991083E-1,1.470209E-1,-6.6023156E-2,-1.5226351E-2,7.7940255E-2,-4.4928147E-3,-4.5602914E-2,9.99134E-3,2.2203054E0,6.190553E-2,5.8115404E-3,5.4008927E-2],"split_indices":[20,2,24,9,14,0,0,1,0,0,0,16,0,0,0],"split_type":[0,0,0,0,0,0,0,0,0,0,0,0,0,0,0],"sum_hessian":[1.0364009E2,7.812858E1,2.5511515E1,4.9967297E1,2.8161282E1,1.7008379E1,8.503135E0,4.123552E1,8.731778E0,1.3482868E1,1.4678412E1,2.5797876E1,1.5437643E1,1.4745573E1,1.1052304E1],"tree_param":{"num_deleted":"0","num_feature":"29","num_nodes":"15","size_leaf_vector":"1"}},{"base_weights":[3.36174E-2,-6.1717063E-2,2.8021938E-1,8.6342067E-1,-1.7272773E-1,1.0318629E0,1.4044413E-2,3.026668E-1,-7.0785713E-1,6.3300155E-2,2.1517467E-2,-1.5973123E-2,4.4552263E-2,-1.1772399E-3,-5.160565E-2],"categories":[],"categories_nodes":[],"categories_segments":[],"categories_sizes":[],"default_left":[0,0,0,0,0,0,0,0,0,0,0,0,0,0,0],"id":14,"left_children":[1,-1,3,5,7,9,-1,11,13,-1,-1,-1,-1,-1,-1],"loss_changes":[3.3025116E1,0E0,2.4367077E1,2.696209E0,1.3791727E1,2.241167E0,0E0,1.1214791E1,5.0665274E0,0E0,0E0,0E0,0E0,0E0,0E0],"parents":[2147483647,0,0,2,2,3,3,4,4,5,5,7,7,8,8],"right_children":[2,-1,4,6,8,10,-1,12,14,-1,-1,-1,-1,-1,-1],"split_conditions":[4.1495953E0,-6.1717063E-2,1.9867638E3,3.245221E1,3.565991E-2,7.8879017E-1,1.4044413E-2,1.441098E-1,1.1370324E-1,6.3300155E-2,2.1517467E-2,-1.5973123E-2,4.4552263E-2,-1.1772399E-3,-5.160565E-2],"split_indices":[6,0,2,15,1,12,0,14,4,0,0,0,0,0,0],"split_type":[0,0,0,0,0,0,0,0,0,0,0,0,0,0,0],"sum_hessian":[1.0293247E2,1.5125095E1,8.780738E1,3.807481E1,4.973257E1,2.7672237E1,1.0402572E1,2.630149E1,2.343108E1,1.773013E1,9.942109E0,1.2815335E1,1.3486155E1,8.718563E0,1.4712516E1],"tree_param":{"num_deleted":"0","num_feature":"29","num_nodes":"15","size_leaf_vector":"1"}},{"base_weights":[3.161506E-2,6.811417E-1,-4.477814E-1,-1.2836372E-2,9.110568E-1,-6.4645045E-2,-1.8723305E-1,1.848915E-2,5.0974976E-2,-4.19142E-2,1.22708E-1,5.138321E-2,-6.534582E-1,1.025026E-4,-5.7531625E-2],"categories":[],"categories_nodes":[],"categories_segments":[],"categories_sizes":[],"default_left":[0,0,0,0,0,0,0,0,0,0,0,0,0,0,0],"id":15,"left_children":[1,3,5,-1,7,-1,9,-1,-1,-1,11,-1,13,-1,-1],"loss_changes":[3.342551E1,1.0677212E1,1.2247887E1,0E0,7.6275826E-1,0E0,1.0563302E1,0E0,0E0,0E0,2.597178E1,0E0,6.9852E0,0E0,0E0],"parents":[2147483647,0,0,1,1,2,2,4,4,6,6,10,10,12,12],"right_children":[2,4,6,-1,8,-1,10,-1,-1,-1,12,-1,14,-1,-1],"split_conditions":[1.98722E3,3.9474425E-1,1.3080876E-1,-1.2836372E-2,9.873876E2,-6.4645045E-2,2.1346066E0,1.848915E-2,5.0974976E-2,-4.19142E-2,2.4784036E0,5.138321E-2,2.1783118E0,1.025026E-4,-5.7531625E-2],"split_indices":[2,12,14,0,2,0,8,0,0,0,8,0,21,0,0],"split_type":[0,0,0,0,0,0,0,0,0,0,0,0,0,0,0],"sum_hessian":[1.0301236E2,4.382962E1,5.9182735E1,8.155163E0,3.5674458E1,1.1626693E1,4.755604E1,8.196014E0,2.7478443E1,1.4758587E1,3.2797455E1,1.5140646E1,1.7656809E1,8.041035E0,9.615774E0],"tree_param":{"num_deleted":"0","num_feature":"29","num_nodes":"15","size_leaf_vector":"1"}},{"base_weights":[1.0025514E-2,-5.572647E-2,3.300935E-1,9.766158E-1,-1.9039315E-1,5.9333917E-2,2.2691252E-2,-5.045485E-1,3.401959E-2,1.1113493E-2,-7.643455E-1,-9.955958E-3,-6.570928E-2],"categories":[],"categories_nodes":[],"categories_segments":[],"categories_sizes":[],"default_left":[0,0,0,0,0,0,0,0,0,0,0,0,0],"id":16,"left_children":[1,-1,3,5,7,-1,-1,9,-1,-1,11,-1,-1],"loss_changes":[3.5738148E1,0E0,2.7159925E1,2.0273895E0,1.282686E1,0E0,0E0,7.110057E0,0E0,0E0,6.89775E0,0E0,0E0],"parents":[2147483647,0,0,2,2,3,3,4,4,7,7,10,10],"right_children":[2,-1,4,6,8,-1,-1,10,-1,-1,12,-1,-1],"split_conditions":[3.9050692E-1,-5.572647E-2,1.974964E3,7.6101744E-1,1.6862167E-1,5.9333917E-2,2.2691252E-2,1.2969527E0,3.401959E-2,1.1113493E-2,2.0503757E0,-9.955958E-3,-6.570928E-2],"split_indices":[12,0,2,12,14,0,0,0,0,0,21,0,0],"split_type":[0,0,0,0,0,0,0,0,0,0,0,0,0],"sum_hessian":[9.6336266E1,1.9898087E1,7.643818E1,3.3738213E1,4.2699966E1,2.1573553E1,1.2164658E1,3.2419323E1,1.0280643E1,8.105993E0,2.4313328E1,1.3780667E1,1.05326605E1],"tree_param":{"num_deleted":"0","num_feature":"29","num_nodes":"13","size_leaf_vector":"1"}},{"base_weights":[-1.10498756E-1,1.7131926E-1,-4.6463188E-2,5.1299263E-2,-2.5185173E-2,-5.241655E-2,2.2202876E-1,4.283428E-2,2.4065329E-2,2.834127E-1,-2.3750814E-2,-9.5071485E-3,4.1015852E-2],"categories":[],"categories_nodes":[],"categories_segments":[],"categories_sizes":[],"default_left":[0,0,0,0,0,0,0,0,0,0,0,0,0],"id":17,"left_children":[1,3,-1,-1,5,-1,7,-1,9,11,-1,-1,-1],"loss_changes":[2.2438665E1,1.253172E1,0E0,0E0,1.5921391E1,0E0,5.6942806E0,0E0,5.367298E0,7.826825E0,0E0,0E0,0E0],"parents":[2147483647,0,0,1,1,4,4,6,6,8,8,9,9],"right_children":[2,4,-1,-1,6,-1,8,-1,10,12,-1,-1,-1],"split_conditions":[2.93583E1,6.6856235E-2,-4.6463188E-2,5.1299263E-2,5.897035E2,-5.241655E-2,3.19E2,4.283428E-2,5.200762E-2,1.4915572E-1,-2.3750814E-2,-9.5071485E-3,4.1015852E-2],"split_indices":[20,18,0,0,10,0,22,0,1,18,0,0,0],"split_type":[0,0,0,0,0,0,0,0,0,0,0,0,0],"sum_hessian":[9.222309E1,6.933046E1,2.289263E1,1.1858003E1,5.747246E1,1.0316573E1,4.7155888E1,9.028962E0,3.8126926E1,2.6317276E1,1.1809649E1,1.4175111E1,1.2142165E1],"tree_param":{"num_deleted":"0","num_feature":"29","num_nodes":"13","size_leaf_vector":"1"}},{"base_weights":[2.3693608E-2,5.3279835E-1,-4.9378404E-1,-8.322017E-3,7.41088E-1,-2.996129E-2,-4.8715103E-2,9.5931125E-1,1.3999953E-2,-1.7386504E-2,1.7230945E-2,5.8199055E-2,2.390357E-2],"categories":[],"categories_nodes":[],"categories_segments":[],"categories_sizes":[],"default_left":[0,0,0,0,0,0,0,0,0,0,0,0,0],"id":18,"left_children":[1,3,5,-1,7,9,-1,11,-1,-1,-1,-1,-1],"loss_changes":[2.7470934E1,8.248357E0,1.0858574E1,0E0,3.041832E0,3.6530378E0,0E0,7.020645E-1,0E0,0E0,0E0,0E0,0E0],"parents":[2147483647,0,0,1,1,2,2,4,4,5,5,7,7],"right_children":[2,4,6,-1,8,10,-1,12,-1,-1,-1,-1,-1],"split_conditions":[2.218098E3,3.91369E-1,2.9303307E1,-8.322017E-3,8.486599E-2,2.9218979E1,-4.8715103E-2,5.51E2,1.3999953E-2,-1.7386504E-2,1.7230945E-2,5.8199055E-2,2.390357E-2],"split_indices":[2,12,20,0,3,20,0,22,0,0,0,0,0],"split_type":[0,0,0,0,0,0,0,0,0,0,0,0,0],"sum_hessian":[1.0020238E2,5.0967026E1,4.9235355E1,1.1238878E1,3.9728146E1,2.6663504E1,2.2571852E1,2.4762936E1,1.4965211E1,1.5225444E1,1.143806E1,1.4654158E1,1.0108778E1],"tree_param":{"num_deleted":"0","num_feature":"29","num_nodes":"13","size_leaf_vector":"1"}},{"base_weights":[-4.8692837E-2,-9.6503806E-1,2.3644817E-1,-6.1279494E-2,-1.5185217E-2,5.859658E-1,-2.4433005E-1,-7.3603966E-4,8.656579E-1,-7.000781E-1,1.4684545E-2,5.209682E-2,1.5211472E-2,-8.997285E-3,-5.2126456E-2],"categories":[],"categories_nodes":[],"categories_segments":[],"categories_sizes":[],"default_left":[0,0,0,0,0,0,0,0,0,0,0,0,0,0,0],"id":19,"left_children":[1,3,5,-1,-1,7,9,-1,11,13,-1,-1,-1,-1,-1],"loss_changes":[2.644131E1,2.6402874E0,1.3223993E1,0E0,0E0,8.042112E0,8.654891E0,0E0,1.8035278E0,2.3706293E0,0E0,0E0,0E0,0E0,0E0],"parents":[2147483647,0,0,1,1,2,2,5,5,6,6,8,8,9,9],"right_children":[2,4,6,-1,-1,8,10,-1,12,14,-1,-1,-1,-1,-1],"split_conditions":[3.91369E-1,1.6266173E0,2.2181794E3,-6.1279494E-2,-1.5185217E-2,2.91934E1,3.1890043E1,-7.3603966E-4,7.6101744E-1,9.1336414E-2,1.4684545E-2,5.209682E-2,1.5211472E-2,-8.997285E-3,-5.2126456E-2],"split_indices":[12,16,2,0,0,20,15,0,12,18,0,0,0,0,0],"split_type":[0,0,0,0,0,0,0,0,0,0,0,0,0,0,0],"sum_hessian":[9.605537E1,2.2080593E1,7.397477E1,1.407347E1,8.007123E0,4.3183502E1,3.079127E1,1.3753204E1,2.94303E1,1.6847208E1,1.3944062E1,2.0417313E1,9.012987E0,8.479338E0,8.367869E0],"tree_param":{"num_deleted":"0","num_feature":"29","num_nodes":"15","size_leaf_vector":"1"}},{"base_weights":[7.144964E-2,-5.75849E-2,3.0450296E-1,6.7362136E-1,-1.9629344E-1,-0E0,8.684406E-1,2.6077798E-1,-4.349574E-2,5.401146E-2,1.2765433E-2,-1.77794E-2,4.303876E-2],"categories":[],"categories_nodes":[],"categories_segments":[],"categories_sizes":[],"default_left":[0,0,0,0,0,0,0,0,0,0,0,0,0],"id":20,"left_children":[1,-1,3,5,7,-1,9,11,-1,-1,-1,-1,-1],"loss_changes":[2.9802088E1,0E0,1.6940609E1,6.976572E0,1.2675238E1,0E0,4.061474E0,9.797828E0,0E0,0E0,0E0,0E0,0E0],"parents":[2147483647,0,0,2,2,3,3,4,4,6,6,7,7],"right_children":[2,-1,4,6,8,-1,10,12,-1,-1,-1,-1,-1],"split_conditions":[4.1385837E0,-5.75849E-2,2.2187324E3,6.7522784E2,4.271684E-2,-0E0,6.991222E-1,1.441098E-1,-4.349574E-2,5.401146E-2,1.2765433E-2,-1.77794E-2,4.303876E-2],"split_indices":[6,0,2,10,1,0,12,14,0,0,0,0,0],"split_type":[0,0,0,0,0,0,0,0,0,0,0,0,0],"sum_hessian":[1.015727E2,1.465084E1,8.692186E1,5.021699E1,3.6704865E1,1.1549665E1,3.8667328E1,2.2155327E1,1.4549539E1,2.7001368E1,1.1665959E1,1.0919397E1,1.12359295E1],"tree_param":{"num_deleted":"0","num_feature":"29","num_nodes":"13","size_leaf_vector":"1"}},{"base_weights":[5.6200467E-2,3.7053722E-1,-9.041263E-1,7.221151E-1,-2.4902856E-1,-5.6407224E-2,-1.6380584E-2,2.4793798E-3,8.8885224E-1,-4.3377414E-2,9.582473E-3,5.679233E-2,1.9044647E-2],"categories":[],"categories_nodes":[],"categories_segments":[],"categories_sizes":[],"default_left":[0,0,0,0,0,0,0,0,0,0,0,0,0],"id":21,"left_children":[1,3,5,7,9,-1,-1,-1,11,-1,-1,-1,-1],"loss_changes":[3.039292E1,1.7294504E1,1.7214661E0,5.0420227E0,8.4999275E0,0E0,0E0,0E0,3.3070488E0,0E0,0E0,0E0,0E0],"parents":[2147483647,0,0,1,1,2,2,3,3,4,4,8,8],"right_children":[2,4,6,8,10,-1,-1,-1,12,-1,-1,-1,-1],"split_conditions":[2.9358778E1,2.7993967E3,4.0395504E-1,6.567769E2,1.441098E-1,-5.6407224E-2,-1.6380584E-2,2.4793798E-3,5.47E2,-4.3377414E-2,9.582473E-3,5.679233E-2,1.9044647E-2],"split_indices":[20,2,12,10,14,0,0,0,22,0,0,0,0],"split_type":[0,0,0,0,0,0,0,0,0,0,0,0,0],"sum_hessian":[9.734769E1,7.465905E1,2.2688637E1,4.7934303E1,2.6724749E1,1.4336788E1,8.351849E0,1.0634399E1,3.7299904E1,1.0784831E1,1.5939918E1,2.2771011E1,1.4528892E1],"tree_param":{"num_deleted":"0","num_feature":"29","num_nodes":"13","size_leaf_vector":"1"}},{"base_weights":[-2.324985E-2,3.5464066E-1,-4.7817004E-1,4.3708365E-2,-0E0,-7.3717403E-1,2.4277577E-3,1.9770583E-2,-3.679844E-1,-8.613224E-3,-4.781888E-2,-0E0,-3.448404E-2],"categories":[],"categories_nodes":[],"categories_segments":[],"categories_sizes":[],"default_left":[0,0,0,0,0,0,0,0,0,0,0,0,0],"id":22,"left_children":[1,3,5,-1,7,9,-1,-1,11,-1,-1,-1,-1],"loss_changes":[1.683389E1,1.0037157E1,6.53131E0,0E0,5.0747967E0,2.9214E0,0E0,0E0,2.4709303E0,0E0,0E0,0E0,0E0],"parents":[2147483647,0,0,1,1,2,2,4,4,5,5,8,8],"right_children":[2,4,6,-1,8,10,-1,-1,12,-1,-1,-1,-1],"split_conditions":[2.2187324E3,1.8386037E0,4E0,4.3708365E-2,1.6143894E1,3.1398767E3,2.4277577E-3,1.9770583E-2,3.7197047E-1,-8.613224E-3,-4.781888E-2,-0E0,-3.448404E-2],"split_indices":[2,21,5,0,27,2,0,0,9,0,0,0,0],"split_type":[0,0,0,0,0,0,0,0,0,0,0,0,0],"sum_hessian":[9.359053E1,5.0763973E1,4.2826557E1,1.9818857E1,3.0945114E1,2.8810091E1,1.4016467E1,1.4371812E1,1.6573303E1,9.690196E0,1.9119894E1,8.091041E0,8.482262E0],"tree_param":{"num_deleted":"0","num_feature":"29","num_nodes":"13","size_leaf_vector":"1"}},{"base_weights":[-0E0,3.839109E-1,-6.764319E-1,-1.2994197E-2,8.1747246E-1,1.0122519E-2,-1.0113317E0,4.9982783E-1,-3.034451E-2,4.9669415E-2,1.5848136E-2,-6.2018663E-2,-1.7443655E-2,4.464279E-2,-0E0],"categories":[],"categories_nodes":[],"categories_segments":[],"categories_sizes":[],"default_left":[0,0,0,0,0,0,0,0,0,0,0,0,0,0,0],"id":23,"left_children":[1,3,5,7,9,-1,11,13,-1,-1,-1,-1,-1,-1,-1],"loss_changes":[2.6337564E1,1.1694185E1,1.1546537E1,1.1490477E1,1.5269585E0,0E0,2.4591408E0,3.8147225E0,0E0,0E0,0E0,0E0,0E0,0E0,0E0],"parents":[2147483647,0,0,1,1,2,2,3,3,4,4,6,6,7,7],"right_children":[2,4,6,8,10,-1,12,14,-1,-1,-1,-1,-1,-1,-1],"split_conditions":[2.9306633E1,1.5370128E-1,1.4008319E3,1.9747362E3,5.7994704E0,1.0122519E-2,4.094278E3,6.5641177E-1,-3.034451E-2,4.9669415E-2,1.5848136E-2,-6.2018663E-2,-1.7443655E-2,4.464279E-2,-0E0],"split_indices":[20,14,2,2,6,0,2,13,0,0,0,0,0,0,0],"split_type":[0,0,0,0,0,0,0,0,0,0,0,0,0,0,0],"sum_hessian":[9.795942E1,6.3495808E1,3.446361E1,3.3560017E1,2.993579E1,9.31531E0,2.5148304E1,1.7727457E1,1.583256E1,1.9954002E1,9.981787E0,1.6829926E1,8.3183775E0,8.967491E0,8.759966E0],"tree_param":{"num_deleted":"0","num_feature":"29","num_nodes":"15","size_leaf_vector":"1"}},{"base_weights":[8.0770165E-2,-5.4339964E-2,2.8665453E-1,7.403982E-1,-9.848024E-2,7.5593556E-4,4.634368E-2,-7.1254706E-1,3.3397752E-1,-4.8471373E-2,-1.1319841E-2,4.7258995E-2,-1.7413484E-2],"categories":[],"categories_nodes":[],"categories_segments":[],"categories_sizes":[],"default_left":[0,0,0,0,0,0,0,0,0,0,0,0,0],"id":24,"left_children":[1,-1,3,5,7,-1,-1,9,11,-1,-1,-1,-1],"loss_changes":[2.3780066E1,0E0,1.5365147E1,4.9069977E0,1.3221483E1,0E0,0E0,1.5425453E0,1.2894359E1,0E0,0E0,0E0,0E0],"parents":[2147483647,0,0,2,2,3,3,4,4,7,7,8,8],"right_children":[2,-1,4,6,8,-1,-1,10,12,-1,-1,-1,-1],"split_conditions":[4.17275E0,-5.4339964E-2,1.9867638E3,9.872931E2,2.1372275E0,7.5593556E-4,4.634368E-2,9.0964116E-2,2.0891697E0,-4.8471373E-2,-1.1319841E-2,4.7258995E-2,-1.7413484E-2],"split_indices":[6,0,2,2,8,0,0,3,0,0,0,0,0],"split_type":[0,0,0,0,0,0,0,0,0,0,0,0,0],"sum_hessian":[9.599752E1,1.2743464E1,8.325406E1,3.797154E1,4.528252E1,8.75668E0,2.921486E1,1.8654696E1,2.6627823E1,1.0231652E1,8.423044E0,1.4025203E1,1.260262E1],"tree_param":{"num_deleted":"0","num_feature":"29","num_nodes":"13","size_leaf_vector":"1"}},{"base_weights":[6.5509446E-2,-4.1172808E-1,5.869268E-1,-5.7934165E-2,-1.16719585E-2,8.378954E-1,-1.1088817E-2,2.840711E-2,-5.106104E-1,5.49798E-2,4.6612102E-1,-4.85719E-2,8.74767E-4,4.0871494E-2,-0E0],"categories":[],"categories_nodes":[],"categories_segments":[],"categories_sizes":[],"default_left":[0,0,0,0,0,0,0,0,0,0,0,0,0,0,0],"id":25,"left_children":[1,3,5,-1,7,9,-1,-1,11,-1,13,-1,-1,-1,-1],"loss_changes":[2.5446884E1,1.5186573E1,1.0644571E1,0E0,1.12222805E1,1.9242496E0,0E0,0E0,5.70502E0,0E0,3.5941763E0,0E0,0E0,0E0,0E0],"parents":[2147483647,0,0,1,1,2,2,4,4,5,5,8,8,10,10],"right_children":[2,4,6,-1,8,10,-1,-1,12,-1,14,-1,-1,-1,-1],"split_conditions":[6.9521063E2,3.9907095E-1,2.7993967E3,-5.7934165E-2,4.826421E-1,1.8485383E0,-1.1088817E-2,2.840711E-2,9.1404474E-1,5.49798E-2,1.9206667E0,-4.85719E-2,8.74767E-4,4.0871494E-2,-0E0],"split_indices":[10,12,2,0,12,21,0,0,12,0,7,0,0,0,0],"split_type":[0,0,0,0,0,0,0,0,0,0,0,0,0,0,0],"sum_hessian":[9.796778E1,5.0869907E1,4.7097874E1,1.5983768E1,3.488614E1,3.636014E1,1.0737732E1,1.5543534E1,1.9342604E1,1.8251905E1,1.8108236E1,9.938259E0,9.4043455E0,9.917344E0,8.190893E0],"tree_param":{"num_deleted":"0","num_feature":"29","num_nodes":"15","size_leaf_vector":"1"}},{"base_weights":[-1.4138954E-2,4.0293202E-1,-5.652008E-1,-2.0577975E-2,6.3667077E-1,-8.795552E-1,-8.232398E-2,-0E0,4.029317E-2,-5.9144724E-2,-1.2179756E-2,1.18606E-2,-2.037633E-2],"categories":[],"categories_nodes":[],"categories_segments":[],"categories_sizes":[],"default_left":[0,0,0,0,0,0,0,0,0,0,0,0,0],"id":26,"left_children":[1,3,5,-1,7,9,11,-1,-1,-1,-1,-1,-1],"loss_changes":[2.174171E1,1.0758568E1,5.612376E0,0E0,4.907469E0,3.3514862E0,2.2568245E0,0E0,0E0,0E0,0E0,0E0,0E0],"parents":[2147483647,0,0,1,1,2,2,4,4,5,5,6,6],"right_children":[2,4,6,-1,8,10,12,-1,-1,-1,-1,-1,-1],"split_conditions":[2.2187324E3,6.348931E2,3.1943424E1,-2.0577975E-2,9.873876E2,4.199593E3,3.241999E1,-0E0,4.029317E-2,-5.9144724E-2,-1.2179756E-2,1.18606E-2,-2.037633E-2],"split_indices":[2,10,15,0,2,2,15,0,0,0,0,0,0],"split_type":[0,0,0,0,0,0,0,0,0,0,0,0,0],"sum_hessian":[9.026353E1,5.1167614E1,3.9095913E1,1.0593296E1,4.0574318E1,2.2057783E1,1.7038132E1,8.443707E0,3.2130608E1,1.3237528E1,8.820255E0,8.091382E0,8.94675E0],"tree_param":{"num_deleted":"0","num_feature":"29","num_nodes":"13","size_leaf_vector":"1"}},{"base_weights":[7.984265E-2,-7.3617595E-1,3.3518234E-1,-5.4142337E-2,-2.1437022E-3,-1.454827E-2,6.0486907E-1,2.0950001E-1,-3.197676E-2,4.532998E-2,4.510409E-2,2.3956632E-2,-8.843416E-3,-9.23135E-3,1.5770419E-2],"categories":[],"categories_nodes":[],"categories_segments":[],"categories_sizes":[],"default_left":[0,0,0,0,0,0,0,0,0,0,0,0,0,0,0],"id":27,"left_children":[1,3,5,-1,-1,7,9,11,-1,-1,13,-1,-1,-1,-1],"loss_changes":[2.0722975E1,4.999095E0,7.5302114E0,0E0,0E0,5.3087263E0,6.883995E0,3.059052E0,0E0,0E0,1.306851E0,0E0,0E0,0E0,0E0],"parents":[2147483647,0,0,1,1,2,2,5,5,6,6,7,7,10,10],"right_children":[2,4,6,-1,-1,8,10,12,-1,-1,14,-1,-1,-1,-1],"split_conditions":[3.9698505E-1,3.3245365E1,2.1372275E0,-5.4142337E-2,-2.1437022E-3,2.4390187E0,1.1589454E-1,7.707498E-1,-3.197676E-2,4.532998E-2,6.89578E2,2.3956632E-2,-8.843416E-3,-9.23135E-3,1.5770419E-2],"split_indices":[12,15,8,0,0,0,18,12,0,0,10,0,0,0,0],"split_type":[0,0,0,0,0,0,0,0,0,0,0,0,0,0,0],"sum_hessian":[9.605038E1,2.1527628E1,7.452275E1,1.31215515E1,8.406076E0,3.2462887E1,4.2059864E1,2.4286219E1,8.17667E0,2.5943224E1,1.611664E1,1.4783359E1,9.50286E0,8.054934E0,8.0617075E0],"tree_param":{"num_deleted":"0","num_feature":"29","num_nodes":"15","size_leaf_vector":"1"}},{"base_weights":[-1.1706448E-3,-7.992541E-1,2.5163677E-1,-5.3817213E-2,-9.665217E-3,6.206608E-1,-1.0528435E-2,4.6153612E-2,-0E0,-4.769497E-1,3.9721328E-1,-0E0,-4.6664085E-2,3.874516E-2,-5.1369704E-3],"categories":[],"categories_nodes":[],"categories_segments":[],"categories_sizes":[],"default_left":[0,0,0,0,0,0,0,0,0,0,0,0,0,0,0],"id":28,"left_children":[1,3,5,-1,-1,7,9,-1,-1,11,13,-1,-1,-1,-1],"loss_changes":[1.9199177E1,2.8175716E0,7.1644883E0,0E0,0E0,5.5032167E0,8.510565E0,0E0,0E0,4.74896E0,4.8801394E0,0E0,0E0,0E0,0E0],"parents":[2147483647,0,0,1,1,2,2,5,5,6,6,9,9,10,10],"right_children":[2,4,6,-1,-1,8,10,-1,-1,12,14,-1,-1,-1,-1],"split_conditions":[3.9698505E-1,5.306039E-2,4.826421E-1,-5.3817213E-2,-9.665217E-3,9.956322E-2,1.4915572E-1,4.6153612E-2,-0E0,4.1945165E-1,6.540478E-1,-0E0,-4.6664085E-2,3.874516E-2,-5.1369704E-3],"split_indices":[12,1,12,0,0,18,18,0,0,9,9,0,0,0,0],"split_type":[0,0,0,0,0,0,0,0,0,0,0,0,0,0,0],"sum_hessian":[8.980706E1,2.1040241E1,6.8766815E1,1.2806375E1,8.233867E0,2.8218601E1,4.0548218E1,1.8120617E1,1.0097983E1,1.9326813E1,2.1221405E1,1.030472E1,9.022092E0,1.20320015E1,9.189403E0],"tree_param":{"num_deleted":"0","num_feature":"29","num_nodes":"15","size_leaf_vector":"1"}},{"base_weights":[1.7015647E-2,-5.1649448E-2,1.9226173E-1,6.197294E-1,-8.553593E-2,-1.3668527E-2,4.6693545E-2,-4.8240956E-2,1.0652922E-1,4.598714E-2,-1.3436408E-1,-5.661E-1,1.9064248E-2,-5.5224884E-2,-8.111383E-4],"categories":[],"categories_nodes":[],"categories_segments":[],"categories_sizes":[],"default_left":[0,0,0,0,0,0,0,0,0,0,0,0,0,0,0],"id":29,"left_children":[1,-1,3,5,7,-1,-1,-1,9,-1,11,13,-1,-1,-1],"loss_changes":[1.784181E1,0E0,1.0501893E1,1.0533775E1,9.542561E0,0E0,0E0,0E0,9.381795E0,0E0,8.471268E0,5.5505877E0,0E0,0E0,0E0],"parents":[2147483647,0,0,2,2,3,3,4,4,8,8,10,10,11,11],"right_children":[2,-1,4,6,8,-1,-1,-1,10,-1,12,14,-1,-1,-1],"split_conditions":[4.17275E0,-5.1649448E-2,1.9867638E3,9.933817E2,4.7291583E-1,-1.3668527E-2,4.6693545E-2,-4.8240956E-2,7.581173E-2,4.598714E-2,1.1793419E-1,2.066901E0,1.9064248E-2,-5.5224884E-2,-8.111383E-4],"split_indices":[6,0,2,2,16,0,0,0,18,0,4,7,0,0,0],"split_type":[0,0,0,0,0,0,0,0,0,0,0,0,0,0,0],"sum_hessian":[9.5087364E1,1.1792038E1,8.329533E1,3.2548576E1,5.074675E1,8.12298E0,2.4425594E1,8.121703E0,4.2625046E1,8.927358E0,3.369769E1,1.8762466E1,1.4935221E1,8.001482E0,1.0760984E1],"tree_param":{"num_deleted":"0","num_feature":"29","num_nodes":"15","size_leaf_vector":"1"}},{"base_weights":[-1.5250115E-2,-4.3132272E-1,3.9406496E-1,-8.1601804E-1,9.352151E-2,1.0772041E-1,4.712711E-2,-5.2040663E-2,-1.1907029E-2,-2.4180789E-2,3.1331915E-2,4.030967E-1,-2.7843013E-2,-0E0,3.2460693E-2],"categories":[],"categories_nodes":[],"categories_segments":[],"categories_sizes":[],"default_left":[0,0,0,0,0,0,0,0,0,0,0,0,0,0,0],"id":30,"left_children":[1,3,5,7,9,11,-1,-1,-1,-1,-1,13,-1,-1,-1],"loss_changes":[1.5922925E1,9.97962E0,6.576218E0,2.4772282E0,7.161606E0,6.931155E0,0E0,0E0,0E0,0E0,0E0,2.3680634E0,0E0,0E0,0E0],"parents":[2147483647,0,0,1,1,2,2,3,3,4,4,5,5,11,11],"right_children":[2,4,6,8,10,12,-1,-1,-1,-1,-1,14,-1,-1,-1],"split_conditions":[6.89578E2,4E0,9.106815E-2,9.57897E-2,5.2708106E0,7.981969E-1,4.712711E-2,-5.2040663E-2,-1.1907029E-2,-2.4180789E-2,3.1331915E-2,3.0975053E-2,-2.7843013E-2,-0E0,3.2460693E-2],"split_indices":[10,5,1,18,23,9,0,0,0,0,0,1,0,0,0],"split_type":[0,0,0,0,0,0,0,0,0,0,0,0,0,0,0],"sum_hessian":[8.93912E1,4.4882122E1,4.4509075E1,2.5808414E1,1.9073706E1,3.1413422E1,1.3095654E1,1.6804148E1,9.004268E0,8.797549E0,1.0276157E1,2.2813232E1,8.600189E0,9.628858E0,1.3184375E1],"tree_param":{"num_deleted":"0","num_feature":"29","num_nodes":"15","size_leaf_vector":"1"}},{"base_weights":[7.8238E-3,-4.5490965E-2,1.9429678E-1,-7.194284E-2,5.8187103E-1,-3.558743E-2,1.5262248E-1,5.0145578E-2,5.482374E-4,2.8659968E-2,-1.3055107E-1,1.562706E-2,-3.3505056E-2],"categories":[],"categories_nodes":[],"categories_segments":[],"categories_sizes":[],"default_left":[0,0,0,0,0,0,0,0,0,0,0,0,0],"id":31,"left_children":[1,-1,3,5,7,-1,9,-1,-1,-1,11,-1,-1],"loss_changes":[1.551566E1,0E0,8.333782E0,7.241825E0,7.2918787E0,0E0,4.636677E0,0E0,0E0,0E0,5.9345703E0,0E0,0E0],"parents":[2147483647,0,0,2,2,3,3,4,4,6,6,10,10],"right_children":[2,-1,4,6,8,-1,10,-1,-1,-1,12,-1,-1],"split_conditions":[3.7199566E-1,-4.5490965E-2,2.2927094E0,3.0987953E1,8.802839E-2,-3.558743E-2,1.9863706E0,5.0145578E-2,5.482374E-4,2.8659968E-2,3.2106537E1,1.562706E-2,-3.3505056E-2],"split_indices":[12,0,8,15,18,0,8,0,0,0,15,0,0],"split_type":[0,0,0,0,0,0,0,0,0,0,0,0,0],"sum_hessian":[8.869815E1,1.3217011E1,7.548113E1,4.494522E1,3.0535915E1,1.11280575E1,3.381716E1,1.6199594E1,1.4336322E1,1.34935255E1,2.0323637E1,1.1112525E1,9.211112E0],"tree_param":{"num_deleted":"0","num_feature":"29","num_nodes":"13","size_leaf_vector":"1"}},{"base_weights":[4.539941E-2,4.078853E-1,-5.129182E-1,5.7430446E-1,-1.9641353E-2,-4.894399E-2,2.0394945E-3,-0E0,6.815161E-1,5.6225457E-3,8.076472E-1,1.5697055E-2,4.7498103E-2],"categories":[],"categories_nodes":[],"categories_segments":[],"categories_sizes":[],"default_left":[0,0,0,0,0,0,0,0,0,0,0,0,0],"id":32,"left_children":[1,3,5,7,-1,-1,-1,-1,9,-1,11,-1,-1],"loss_changes":[1.8511871E1,8.007144E0,9.744114E0,2.641983E0,0E0,0E0,0E0,0E0,2.1984692E0,0E0,9.7410583E-1,0E0,0E0],"parents":[2147483647,0,0,1,1,2,2,3,3,8,8,10,10],"right_children":[2,4,6,8,-1,-1,-1,-1,10,-1,12,-1,-1],"split_conditions":[2.7993967E3,2.9366503E1,1.4586379E-1,9.933817E2,-1.9641353E-2,-4.894399E-2,2.0394945E-3,-0E0,6.3713934E2,5.6225457E-3,5.5739646E0,1.5697055E-2,4.7498103E-2],"split_indices":[2,20,14,2,0,0,0,0,10,0,6,0,0],"split_type":[0,0,0,0,0,0,0,0,0,0,0,0,0],"sum_hessian":[8.7661835E1,5.4022396E1,3.3639442E1,4.5711693E1,8.310705E0,1.7923538E1,1.5715903E1,8.142398E0,3.7569294E1,8.221882E0,2.934741E1,8.787577E0,2.0559834E1],"tree_param":{"num_deleted":"0","num_feature":"29","num_nodes":"13","size_leaf_vector":"1"}},{"base_weights":[1.9373855E-2,-3.0214992E-1,3.9870262E-1,-5.0046265E-1,2.1200048E-2,6.263809E-1,-1.7345343E-2,1.1483043E-2,-7.298844E-1,-0E0,4.6064697E-2,-3.4819475E-1,-5.4828208E-2,-3.6837496E-2,4.329506E-3],"categories":[],"categories_nodes":[],"categories_segments":[],"categories_sizes":[],"default_left":[0,0,0,0,0,0,0,0,0,0,0,0,0,0,0],"id":33,"left_children":[1,3,5,7,-1,9,-1,-1,11,-1,-1,13,-1,-1,-1],"loss_changes":[1.1108041E1,7.43755E0,7.7501044E0,7.202409E0,0E0,6.301606E0,0E0,0E0,2.8608017E0,0E0,0E0,3.6314433E0,0E0,0E0,0E0],"parents":[2147483647,0,0,1,1,2,2,3,3,5,5,8,8,11,11],"right_children":[2,4,6,8,-1,10,-1,-1,12,-1,-1,14,-1,-1,-1],"split_conditions":[6.969139E2,1.1340322E3,2.7993967E3,1.8783973E0,2.1200048E-2,9.970264E-1,-1.7345343E-2,1.1483043E-2,2.4871843E0,-0E0,4.6064697E-2,3.5632742E3,-5.4828208E-2,-3.6837496E-2,4.329506E-3],"split_indices":[10,11,2,21,0,0,0,0,0,0,0,2,0,0,0],"split_type":[0,0,0,0,0,0,0,0,0,0,0,0,0,0,0],"sum_hessian":[8.6705666E1,4.6435318E1,4.0270348E1,3.7503284E1,8.932032E0,3.1608751E1,8.661598E0,8.445241E0,2.9058044E1,1.0648683E1,2.0960068E1,1.6816221E1,1.2241824E1,8.753988E0,8.062233E0],"tree_param":{"num_deleted":"0","num_feature":"29","num_nodes":"15","size_leaf_vector":"1"}},{"base_weights":[2.215761E-3,2.493733E-1,-3.9271466E-2,5.076839E-1,-2.5680658E-1,1.7189309E-1,4.472887E-2,-3.43177E-2,1.1584519E-2,-1.2707435E-2,3.4689724E-2],"categories":[],"categories_nodes":[],"categories_segments":[],"categories_sizes":[],"default_left":[0,0,0,0,0,0,0,0,0,0,0],"id":34,"left_children":[1,3,-1,5,7,9,-1,-1,-1,-1,-1],"loss_changes":[1.6596596E1,9.069279E0,0E0,5.043892E0,5.3951945E0,6.668736E0,0E0,0E0,0E0,0E0,0E0],"parents":[2147483647,0,0,1,1,3,3,4,4,5,5],"right_children":[2,4,-1,6,8,10,-1,-1,-1,-1,-1],"split_conditions":[2.9357737E1,8.7147176E-1,-3.9271466E-2,2.1590703E0,2.8080277E0,1.3332415E3,4.472887E-2,-3.43177E-2,1.1584519E-2,-1.2707435E-2,3.4689724E-2],"split_indices":[20,9,0,8,8,11,0,0,0,0,0],"split_type":[0,0,0,0,0,0,0,0,0,0,0],"sum_hessian":[8.261853E1,6.440902E1,1.820951E1,4.3296215E1,2.1112806E1,2.5417181E1,1.7879032E1,1.134785E1,9.764957E0,1.4031187E1,1.1385995E1],"tree_param":{"num_deleted":"0","num_feature":"29","num_nodes":"11","size_leaf_vector":"1"}},{"base_weights":[-6.965505E-2,1.2110992E-1,-4.197498E-2,-1.7893049E-1,5.636446E-1,1.8638307E-1,-3.4947444E-2,3.8028378E-2,5.773352E-3,-1.0285324E-2,2.9511333E-2],"categories":[],"categories_nodes":[],"categories_segments":[],"categories_sizes":[],"default_left":[0,0,0,0,0,0,0,0,0,0,0],"id":35,"left_children":[1,3,-1,5,7,9,-1,-1,-1,-1,-1],"loss_changes":[1.2652853E1,9.31733E0,0E0,8.285616E0,1.8848295E0,4.3991456E0,0E0,0E0,0E0,0E0,0E0],"parents":[2147483647,0,0,1,1,3,3,4,4,5,5],"right_children":[2,4,-1,6,8,10,-1,-1,-1,-1,-1],"split_conditions":[2.9366503E1,1.5239897E-1,-4.197498E-2,2.2181794E3,7.217103E-1,2.91934E1,-3.4947444E-2,3.8028378E-2,5.773352E-3,-1.0285324E-2,2.9511333E-2],"split_indices":[20,14,0,2,13,20,0,0,0,0,0],"split_type":[0,0,0,0,0,0,0,0,0,0,0],"sum_hessian":[8.032579E1,6.520427E1,1.5121523E1,3.8894867E1,2.6309404E1,2.3034655E1,1.5860211E1,1.653464E1,9.774765E0,1.1557091E1,1.1477564E1],"tree_param":{"num_deleted":"0","num_feature":"29","num_nodes":"11","size_leaf_vector":"1"}},{"base_weights":[-0E0,4.750804E-1,-3.531326E-1,-6.1293965E-4,6.4738286E-1,-0E0,-4.5431606E-2,9.624315E-3,4.002718E-2,3.9270082E-1,-2.3532493E-2,2.242415E-3,3.140596E-2],"categories":[],"categories_nodes":[],"categories_segments":[],"categories_sizes":[],"default_left":[0,0,0,0,0,0,0,0,0,0,0,0,0],"id":36,"left_children":[1,3,5,-1,7,9,-1,-1,-1,11,-1,-1,-1],"loss_changes":[1.4308477E1,3.393159E0,9.887548E0,0E0,1.1263103E0,6.1542625E0,0E0,0E0,0E0,1.1332796E0,0E0,0E0,0E0],"parents":[2147483647,0,0,1,1,2,2,4,4,5,5,9,9],"right_children":[2,4,6,-1,8,10,-1,-1,-1,12,-1,-1,-1],"split_conditions":[1.9867638E3,6.876228E2,2.9312906E1,-6.1293965E-4,9.933888E2,7.981969E-1,-4.5431606E-2,9.624315E-3,4.002718E-2,1.4379573E-1,-2.3532493E-2,2.242415E-3,3.140596E-2],"split_indices":[2,10,20,0,2,9,0,0,0,14,0,0,0],"split_type":[0,0,0,0,0,0,0,0,0,0,0,0,0],"sum_hessian":[8.122867E1,3.4438435E1,4.6790234E1,8.722787E0,2.5715649E1,2.9444813E1,1.734542E1,8.436575E0,1.7279074E1,1.6635817E1,1.2808995E1,8.532759E0,8.103058E0],"tree_param":{"num_deleted":"0","num_feature":"29","num_nodes":"13","size_leaf_vector":"1"}},{"base_weights":[1.4716289E-2,-7.024794E-1,2.377399E-1,-5.1312137E-2,-7.017975E-3,3.5230163E-2,3.579515E-2,3.0687648E-1,-3.321601E-1,-1.2830578E-2,6.005112E-1,1.090699E-2,-4.0368084E-2,8.821028E-3,4.1420978E-2],"categories":[],"categories_nodes":[],"categories_segments":[],"categories_sizes":[],"default_left":[0,0,0,0,0,0,0,0,0,0,0,0,0,0,0],"id":37,"left_children":[1,3,5,-1,-1,-1,7,9,11,-1,13,-1,-1,-1,-1],"loss_changes":[1.341098E1,2.7159472E0,5.7544756E0,0E0,0E0,0E0,5.0363903E0,5.409424E0,6.0818653E0,0E0,1.2125406E0,0E0,0E0,0E0,0E0],"parents":[2147483647,0,0,1,1,2,2,6,6,7,7,8,8,10,10],"right_children":[2,4,6,-1,-1,-1,8,10,12,-1,14,-1,-1,-1,-1],"split_conditions":[3.9698505E-1,1.5718218E0,1.8474444E0,-5.1312137E-2,-7.017975E-3,3.5230163E-2,6.615885E-1,6.4772564E-1,7.0799476E-1,-1.2830578E-2,2.0253754E0,1.090699E-2,-4.0368084E-2,8.821028E-3,4.1420978E-2],"split_indices":[12,16,21,0,0,0,9,16,13,0,21,0,0,0,0],"split_type":[0,0,0,0,0,0,0,0,0,0,0,0,0,0,0],"sum_hessian":[8.120853E1,1.7711302E1,6.3497227E1,9.626132E0,8.08517E0,1.6922066E1,4.657516E1,2.7791418E1,1.8783743E1,9.023879E0,1.8767538E1,8.71787E0,1.0065874E1,8.5674E0,1.0200139E1],"tree_param":{"num_deleted":"0","num_feature":"29","num_nodes":"15","size_leaf_vector":"1"}},{"base_weights":[7.108381E-2,4.1819665E-1,-3.7803605E-1,-1.533431E-2,5.8143556E-1,-4.8027154E-2,1.1927938E-1,3.8206298E-2,8.301934E-3,3.578413E-2,-2.5238981E-2],"categories":[],"categories_nodes":[],"categories_segments":[],"categories_sizes":[],"default_left":[0,0,0,0,0,0,0,0,0,0,0],"id":38,"left_children":[1,3,5,-1,7,-1,9,-1,-1,-1,-1],"loss_changes":[1.4310486E1,6.6635313E0,1.2092477E1,0E0,2.6057959E0,0E0,9.248462E0,0E0,0E0,0E0,0E0],"parents":[2147483647,0,0,1,1,2,2,4,4,6,6],"right_children":[2,4,6,-1,8,-1,10,-1,-1,-1,-1],"split_conditions":[2.2187324E3,3.91369E-1,1.441098E-1,-1.533431E-2,7.8879017E-1,-4.8027154E-2,3.565991E-2,3.8206298E-2,8.301934E-3,3.578413E-2,-2.5238981E-2],"split_indices":[2,12,14,0,12,0,1,0,0,0,0],"split_type":[0,0,0,0,0,0,0,0,0,0,0],"sum_hessian":[8.763851E1,5.013866E1,3.7499847E1,8.329585E0,4.1809074E1,1.6875734E1,2.0624113E1,2.703602E1,1.4773054E1,1.0805264E1,9.81885E0],"tree_param":{"num_deleted":"0","num_feature":"29","num_nodes":"11","size_leaf_vector":"1"}},{"base_weights":[1.9046059E-2,3.018739E-1,-4.162803E-1,5.147801E-1,-1.2841995E-2,5.1258695E-3,-6.902251E-1,4.183221E-2,2.0042217E-1,-4.726549E-2,-7.798116E-3,-2.2429353E-2,3.2524124E-2],"categories":[],"categories_nodes":[],"categories_segments":[],"categories_sizes":[],"default_left":[0,0,0,0,0,0,0,0,0,0,0,0,0],"id":39,"left_children":[1,3,5,7,-1,-1,9,-1,11,-1,-1,-1,-1],"loss_changes":[1.01364765E1,6.436861E0,4.9756894E0,3.0011463E0,0E0,0E0,2.1249485E0,0E0,7.312434E0,0E0,0E0,0E0,0E0],"parents":[2147483647,0,0,1,1,2,2,3,3,6,6,8,8],"right_children":[2,4,6,8,-1,-1,10,-1,12,-1,-1,-1,-1],"split_conditions":[7.995861E-1,2.9323002E1,7.363887E-2,1.2529449E-1,-1.2841995E-2,5.1258695E-3,1.1340322E3,4.183221E-2,1.5189369E-1,-4.726549E-2,-7.798116E-3,-2.2429353E-2,3.2524124E-2],"split_indices":[9,20,18,18,0,0,11,0,18,0,0,0,0],"split_type":[0,0,0,0,0,0,0,0,0,0,0,0,0],"sum_hessian":[7.875176E1,4.8805153E1,2.9946613E1,3.6100643E1,1.2704509E1,1.0150302E1,1.9796312E1,1.5409638E1,2.0691004E1,1.1724038E1,8.072274E0,8.020554E0,1.2670449E1],"tree_param":{"num_deleted":"0","num_feature":"29","num_nodes":"13","size_leaf_vector":"1"}},{"base_weights":[-1.5420627E-2,1.7666593E-1,-3.9712384E-2,-0E0,3.7605263E-2,3.5420507E-1,-4.6615753E-1,-1.0698704E-2,6.0910976E-1,-4.554972E-2,-1.6099602E-3,9.250144E-4,4.804492E-2],"categories":[],"categories_nodes":[],"categories_segments":[],"categories_sizes":[],"default_left":[0,0,0,0,0,0,0,0,0,0,0,0,0],"id":40,"left_children":[1,3,-1,5,-1,7,9,-1,11,-1,-1,-1,-1],"loss_changes":[1.2909373E1,6.5707817E0,0E0,9.184365E0,0E0,5.1159225E0,4.0443892E0,0E0,4.3214273E0,0E0,0E0,0E0,0E0],"parents":[2147483647,0,0,1,1,3,3,5,5,6,6,8,8],"right_children":[2,4,-1,6,-1,8,10,-1,12,-1,-1,-1,-1],"split_conditions":[3.5756345E3,8.784123E-2,-3.9712384E-2,1.9867638E3,3.7605263E-2,6.876228E2,1.4605671E-1,-1.0698704E-2,2.5763881E0,-4.554972E-2,-1.6099602E-3,9.250144E-4,4.804492E-2],"split_indices":[2,3,0,2,0,10,14,0,8,0,0,0,0],"split_type":[0,0,0,0,0,0,0,0,0,0,0,0,0],"sum_hessian":[8.0351395E1,6.518001E1,1.517138E1,5.185722E1,1.3322793E1,3.015935E1,2.1697868E1,8.832176E0,2.1327175E1,9.060015E0,1.2637853E1,9.277645E0,1.2049529E1],"tree_param":{"num_deleted":"0","num_feature":"29","num_nodes":"13","size_leaf_vector":"1"}},{"base_weights":[3.890962E-2,-3.457958E-2,2.3626919E-1,6.977592E-1,-3.4563567E-2,1.0959181E-2,4.3945648E-2,-4.1494533E-1,4.6446082E-1,8.829962E-4,-4.814304E-2,4.2492513E-2,-0E0],"categories":[],"categories_nodes":[],"categories_segments":[],"categories_sizes":[],"default_left":[0,0,0,0,0,0,0,0,0,0,0,0,0],"id":41,"left_children":[1,-1,3,5,7,-1,-1,9,11,-1,-1,-1,-1],"loss_changes":[1.2239578E1,0E0,8.919732E0,1.3237553E0,8.765983E0,0E0,0E0,6.8476734E0,3.7144046E0,0E0,0E0,0E0,0E0],"parents":[2147483647,0,0,2,2,3,3,4,4,7,7,8,8],"right_children":[2,-1,4,6,8,-1,-1,10,12,-1,-1,-1,-1],"split_conditions":[3.9698505E-1,-3.457958E-2,4.6457493E-1,3.1951803E-1,5.6047473E0,1.0959181E-2,4.3945648E-2,6.9984376E-1,2.1275225E0,8.829962E-4,-4.814304E-2,4.2492513E-2,-0E0],"split_indices":[12,0,12,9,6,0,0,9,7,0,0,0,0],"split_type":[0,0,0,0,0,0,0,0,0,0,0,0,0],"sum_hessian":[8.220836E1,1.5881846E1,6.632651E1,2.4046143E1,4.228037E1,8.574308E0,1.5471834E1,2.4752035E1,1.7528332E1,1.4403095E1,1.034894E1,8.975676E0,8.552657E0],"tree_param":{"num_deleted":"0","num_feature":"29","num_nodes":"13","size_leaf_vector":"1"}},{"base_weights":[5.245332E-2,-4.33659E-2,1.9799325E-1,4.4800425E-1,-1.2118784E-1,2.2788715E-1,4.120237E-2,-4.276279E-1,1.6736744E-2,4.842495E-1,-1.2349792E-2,1.0067152E-2,-4.4092663E-2,3.3984125E-2,4.5617074E-3],"categories":[],"categories_nodes":[],"categories_segments":[],"categories_sizes":[],"default_left":[0,0,0,0,0,0,0,0,0,0,0,0,0,0,0],"id":42,"left_children":[1,-1,3,5,7,9,-1,11,-1,13,-1,-1,-1,-1,-1],"loss_changes":[1.1325886E1,0E0,6.264072E0,2.6917992E0,5.0379963E0,4.1301785E0,0E0,6.887741E0,0E0,1.1405401E0,0E0,0E0,0E0,0E0,0E0],"parents":[2147483647,0,0,2,2,3,3,4,4,5,5,7,7,9,9],"right_children":[2,-1,4,6,8,10,-1,12,-1,14,-1,-1,-1,-1,-1],"split_conditions":[4.3680515E0,-4.33659E-2,2.2187324E3,8.718885E-2,4.0946309E3,8.459607E-2,4.120237E-2,5.6159824E-1,1.6736744E-2,1.4006846E3,-1.2349792E-2,1.0067152E-2,-4.4092663E-2,3.3984125E-2,4.5617074E-3],"split_indices":[6,0,2,3,2,3,0,13,0,2,0,0,0,0,0],"split_type":[0,0,0,0,0,0,0,0,0,0,0,0,0,0,0],"sum_hessian":[8.254214E1,9.452281E0,7.308986E1,4.1411774E1,3.1678085E1,2.898629E1,1.2425484E1,1.9674816E1,1.2003268E1,1.948233E1,9.50396E0,8.255719E0,1.1419098E1,1.1187932E1,8.294397E0],"tree_param":{"num_deleted":"0","num_feature":"29","num_nodes":"15","size_leaf_vector":"1"}},{"base_weights":[9.275141E-3,-3.659306E-2,2.210615E-1,5.6007695E-1,-3.501882E-2,4.2568102E-2,4.387098E-3,1.837355E-2,-3.8786995E-1,-0E0,-3.231701E-2],"categories":[],"categories_nodes":[],"categories_segments":[],"categories_sizes":[],"default_left":[0,0,0,0,0,0,0,0,0,0,0],"id":43,"left_children":[1,-1,3,5,7,-1,-1,-1,9,-1,-1],"loss_changes":[1.24094305E1,0E0,5.7894974E0,3.2552843E0,5.5574517E0,0E0,0E0,0E0,2.2802608E0,0E0,0E0],"parents":[2147483647,0,0,2,2,3,3,4,4,8,8],"right_children":[2,-1,4,6,8,-1,-1,-1,10,-1,-1],"split_conditions":[3.9698505E-1,-3.659306E-2,1.9747855E3,8.5063055E-2,9.791865E-2,4.2568102E-2,4.387098E-3,1.837355E-2,2.9172508E1,-0E0,-3.231701E-2],"split_indices":[12,0,2,3,18,0,0,0,20,0,0],"split_type":[0,0,0,0,0,0,0,0,0,0,0],"sum_hessian":[7.662549E1,1.5413719E1,6.121177E1,2.6159042E1,3.5052727E1,1.45331135E1,1.1625929E1,1.5673921E1,1.9378805E1,8.2214575E0,1.1157348E1],"tree_param":{"num_deleted":"0","num_feature":"29","num_nodes":"11","size_leaf_vector":"1"}},{"base_weights":[2.9251175E-2,2.0224687E-1,-3.2177787E-2,4.1570044E-1,-2.8008943E-2,5.9048945E-1,-1.0077554E-2,8.832177E-3,3.9359167E-2],"categories":[],"categories_nodes":[],"categories_segments":[],"categories_sizes":[],"default_left":[0,0,0,0,0,0,0,0,0],"id":44,"left_children":[1,3,-1,5,-1,7,-1,-1,-1],"loss_changes":[8.992645E0,1.069518E1,0E0,5.94726E0,0E0,2.5754118E0,0E0,0E0,0E0],"parents":[2147483647,0,0,1,1,3,3,5,5],"right_children":[2,4,-1,6,-1,8,-1,-1,-1],"split_conditions":[9.9364257E-1,2.93583E1,-3.2177787E-2,6.6020164E1,-2.8008943E-2,1.4586379E-1,-1.0077554E-2,8.832177E-3,3.9359167E-2],"split_indices":[9,20,0,25,0,14,0,0,0],"split_type":[0,0,0,0,0,0,0,0,0],"sum_hessian":[7.49205E1,6.1300533E1,1.3619967E1,4.911525E1,1.2185285E1,3.897526E1,1.013999E1,1.4598344E1,2.4376917E1],"tree_param":{"num_deleted":"0","num_feature":"29","num_nodes":"9","size_leaf_vector":"1"}},{"base_weights":[5.4751146E-3,1.4856169E-1,-3.1239916E-2,-1.3068111E-1,5.5968714E-1,2.3319949E-1,-4.402646E-2,3.81274E-2,6.6912095E-3,5.477187E-1,-1.3365E-2,4.076035E-2,6.5323496E-3],"categories":[],"categories_nodes":[],"categories_segments":[],"categories_sizes":[],"default_left":[0,0,0,0,0,0,0,0,0,0,0,0,0],"id":45,"left_children":[1,3,-1,5,7,9,-1,-1,-1,11,-1,-1,-1],"loss_changes":[6.94471E0,7.879883E0,0E0,1.162143E1,1.7316399E0,4.8401294E0,0E0,0E0,0E0,1.3737097E0,0E0,0E0,0E0],"parents":[2147483647,0,0,1,1,3,3,4,4,5,5,9,9],"right_children":[2,4,-1,6,8,10,-1,-1,-1,12,-1,-1,-1],"split_conditions":[2.9364155E1,1.5239897E-1,-3.1239916E-2,6.6991085E-1,1.1600812E-1,2.7993967E3,-4.402646E-2,3.81274E-2,6.6912095E-3,1.3423721E-1,-1.3365E-2,4.076035E-2,6.5323496E-3],"split_indices":[20,14,0,9,4,2,0,0,0,14,0,0,0],"split_type":[0,0,0,0,0,0,0,0,0,0,0,0,0],"sum_hessian":[7.558818E1,6.3495193E1,1.2092984E1,3.790061E1,2.5594584E1,2.5996454E1,1.1904156E1,1.5470092E1,1.0124491E1,1.6461922E1,9.5345335E0,8.135928E0,8.325993E0],"tree_param":{"num_deleted":"0","num_feature":"29","num_nodes":"13","size_leaf_vector":"1"}},{"base_weights":[-1.3624981E-2,-3.7078638E-2,1.7087053E-1,3.0916572E-1,-1.6434496E-2,-2.4466101E-2,5.7413805E-1,-2.8903741E-2,2.7204096E-2,-0E0,4.136519E-2],"categories":[],"categories_nodes":[],"categories_segments":[],"categories_sizes":[],"default_left":[0,0,0,0,0,0,0,0,0,0,0],"id":46,"left_children":[1,-1,3,5,-1,7,9,-1,-1,-1,-1],"loss_changes":[1.162691E1,0E0,4.8184457E0,5.09831E0,0E0,8.544543E0,4.769435E0,0E0,0E0,0E0,0E0],"parents":[2147483647,0,0,2,2,3,3,5,5,6,6],"right_children":[2,-1,4,6,-1,8,10,-1,-1,-1,-1],"split_conditions":[3.91369E-1,-3.7078638E-2,9.555603E-1,6.876228E2,-1.6434496E-2,1.4605671E-1,3.0975053E-2,-2.8903741E-2,2.7204096E-2,-0E0,4.136519E-2],"split_indices":[12,0,9,10,0,14,1,0,0,0,0],"split_type":[0,0,0,0,0,0,0,0,0,0,0],"sum_hessian":[8.056052E1,1.5616202E1,6.494431E1,5.2244423E1,1.2699888E1,2.3094294E1,2.915013E1,1.2129465E1,1.0964828E1,9.17921E0,1.9970919E1],"tree_param":{"num_deleted":"0","num_feature":"29","num_nodes":"11","size_leaf_vector":"1"}},{"base_weights":[-4.071573E-2,3.5797536E-1,-5.593498E-1,-7.959015E-3,6.016092E-1,-3.8551502E-2,-3.3836183E-3,4.424328E-2,7.6794247E-3],"categories":[],"categories_nodes":[],"categories_segments":[],"categories_sizes":[],"default_left":[0,0,0,0,0,0,0,0,0],"id":47,"left_children":[1,3,5,-1,7,-1,-1,-1,-1],"loss_changes":[1.674848E1,6.0950513E0,3.1685848E0,0E0,3.2359266E0,0E0,0E0,0E0,0E0],"parents":[2147483647,0,0,1,1,2,2,4,4],"right_children":[2,4,6,-1,8,-1,-1,-1,-1],"split_conditions":[2.2181794E3,6.829289E2,1.6182533E-1,-7.959015E-3,5.47E2,-3.8551502E-2,-3.3836183E-3,4.424328E-2,7.6794247E-3],"split_indices":[2,10,14,0,22,0,0,0,0],"split_type":[0,0,0,0,0,0,0,0,0],"sum_hessian":[7.6574974E1,4.3098904E1,3.347607E1,1.3366717E1,2.9732185E1,2.1896008E1,1.1580066E1,1.6337097E1,1.339509E1],"tree_param":{"num_deleted":"0","num_feature":"29","num_nodes":"9","size_leaf_vector":"1"}},{"base_weights":[-4.8302608E-3,-2.8376445E-2,1.5733172E-1,-1.7687965E-2,3.0274665E-1,3.452313E-2,5.5046752E-2,2.6512793E-1,-1.6501809E-2,-8.370702E-3,2.8367449E-2],"categories":[],"categories_nodes":[],"categories_segments":[],"categories_sizes":[],"default_left":[0,0,0,0,0,0,0,0,0,0,0],"id":48,"left_children":[1,-1,3,-1,5,-1,7,9,-1,-1,-1],"loss_changes":[7.0916877E0,0E0,4.4950886E0,0E0,4.0600457E0,0E0,2.6995227E0,3.3180795E0,0E0,0E0,0E0],"parents":[2147483647,0,0,2,2,4,4,6,6,7,7],"right_children":[2,-1,4,-1,6,-1,8,10,-1,-1,-1],"split_conditions":[7.4777155E2,-2.8376445E-2,3.0970259E1,-1.7687965E-2,8.7808095E-2,3.452313E-2,2.958416E3,9.937604E2,-1.6501809E-2,-8.370702E-3,2.8367449E-2],"split_indices":[11,0,15,0,18,0,2,2,0,0,0],"split_type":[0,0,0,0,0,0,0,0,0,0,0],"sum_hessian":[7.151377E1,1.5570001E1,5.5943768E1,1.0995132E1,4.4948635E1,1.5341523E1,2.9607111E1,2.039959E1,9.207522E0,8.077161E0,1.2322429E1],"tree_param":{"num_deleted":"0","num_feature":"29","num_nodes":"11","size_leaf_vector":"1"}},{"base_weights":[6.916067E-2,3.328397E-1,-3.076877E-1,3.8674913E-2,-1.3758451E-2,-6.6503084E-1,8.094582E-3,-2.296128E-2,2.3560105E-1,-1.3417721E-2,-4.7693964E-2,2.763328E-2,-5.2947733E-3],"categories":[],"categories_nodes":[],"categories_segments":[],"categories_sizes":[],"default_left":[0,0,0,0,0,0,0,0,0,0,0,0,0],"id":49,"left_children":[1,3,5,-1,7,9,-1,-1,11,-1,-1,-1,-1],"loss_changes":[8.272022E0,7.950953E0,6.1096215E0,0E0,3.5494385E0,1.17906E0,0E0,0E0,2.418692E0,0E0,0E0,0E0,0E0],"parents":[2147483647,0,0,1,1,2,2,4,4,5,5,8,8],"right_children":[2,4,6,-1,8,10,-1,-1,12,-1,-1,-1,-1],"split_conditions":[2.7993967E3,3.804034E-2,1.530429E-1,3.8674913E-2,4.185702E-2,3.0312087E-2,8.094582E-3,-2.296128E-2,6.615885E-1,-1.3417721E-2,-4.7693964E-2,2.763328E-2,-5.2947733E-3],"split_indices":[2,24,14,0,1,1,0,0,9,0,0,0,0],"split_type":[0,0,0,0,0,0,0,0,0,0,0,0,0],"sum_hessian":[7.905935E1,4.7431854E1,3.1627491E1,2.0432972E1,2.6998884E1,1.8092037E1,1.3535453E1,9.804887E0,1.7193996E1,9.978139E0,8.113899E0,9.033866E0,8.160131E0],"tree_param":{"num_deleted":"0","num_feature":"29","num_nodes":"13","size_leaf_vector":"1"}},{"base_weights":[5.2648815E-3,1.7404276E-1,-3.1038985E-2,-1.13116935E-1,5.5486643E-1,2.4237442E-1,-4.847411E-1,3.496869E-2,6.05917E-3,3.146105E-2,-1.008582E-2,-3.8935952E-2,-3.332932E-3],"categories":[],"categories_nodes":[],"categories_segments":[],"categories_sizes":[],"default_left":[0,0,0,0,0,0,0,0,0,0,0,0,0],"id":50,"left_children":[1,3,-1,5,7,9,11,-1,-1,-1,-1,-1,-1],"loss_changes":[8.182393E0,7.262208E0,0E0,5.239815E0,1.1921396E0,3.8243337E0,1.8612857E0,0E0,0E0,0E0,0E0,0E0,0E0],"parents":[2147483647,0,0,1,1,3,3,4,4,5,5,6,6],"right_children":[2,4,-1,6,8,10,12,-1,-1,-1,-1,-1,-1],"split_conditions":[2.9358778E1,1.5239897E-1,-3.1038985E-2,5.7666725E-1,5.7346506E0,1.2529449E-1,5.6589708E-2,3.496869E-2,6.05917E-3,3.146105E-2,-1.008582E-2,-3.8935952E-2,-3.332932E-3],"split_indices":[20,14,0,13,6,18,1,0,0,0,0,0,0],"split_type":[0,0,0,0,0,0,0,0,0,0,0,0,0],"sum_hessian":[7.550791E1,6.1240498E1,1.4267415E1,3.4966805E1,2.6273693E1,1.7539179E1,1.7427626E1,1.7923288E1,8.350405E0,9.529874E0,8.009304E0,8.517412E0,8.910213E0],"tree_param":{"num_deleted":"0","num_feature":"29","num_nodes":"13","size_leaf_vector":"1"}},{"base_weights":[8.5299276E-2,2.8169468E-1,-4.3186313E-1,4.459883E-1,-1.1086551E-2,-4.526217E-2,1.0144088E-2,2.1870321E-1,4.437435E-2,5.1399934E-1,-2.3995193E-2,3.997633E-2,4.9803997E-3],"categories":[],"categories_nodes":[],"categories_segments":[],"categories_sizes":[],"default_left":[0,0,0,0,0,0,0,0,0,0,0,0,0],"id":51,"left_children":[1,3,5,7,-1,-1,-1,9,-1,11,-1,-1,-1],"loss_changes":[8.199265E0,5.2078586E0,7.284395E0,3.680728E0,0E0,0E0,0E0,7.4849944E0,0E0,2.3766832E0,0E0,0E0,0E0],"parents":[2147483647,0,0,1,1,2,2,3,3,7,7,9,9],"right_children":[2,4,6,8,-1,-1,-1,10,-1,12,-1,-1,-1],"split_conditions":[2.9323002E1,1.369238E0,5.9004486E-1,7.4022615E-1,-1.1086551E-2,-4.526217E-2,1.0144088E-2,2.958416E3,4.437435E-2,5.47E2,-2.3995193E-2,3.997633E-2,4.9803997E-3],"split_indices":[20,9,24,12,0,0,0,2,0,22,0,0,0],"split_type":[0,0,0,0,0,0,0,0,0,0,0,0,0],"sum_hessian":[7.7070335E1,5.721865E1,1.9851683E1,4.4060753E1,1.3157902E1,1.1334241E1,8.517443E0,3.1808737E1,1.2252013E1,2.323267E1,8.576068E0,1.194017E1,1.12925E1],"tree_param":{"num_deleted":"0","num_feature":"29","num_nodes":"13","size_leaf_vector":"1"}},{"base_weights":[5.4822166E-2,-4.3584973E-2,2.1806063E-1,-1.5398557E-2,3.8445777E-1,6.461266E-1,-1.6947633E-2,4.634255E-2,7.738173E-3,-2.2778627E-2,1.6593108E-2],"categories":[],"categories_nodes":[],"categories_segments":[],"categories_sizes":[],"default_left":[0,0,0,0,0,0,0,0,0,0,0],"id":52,"left_children":[1,-1,3,-1,5,7,9,-1,-1,-1,-1],"loss_changes":[1.0949407E1,0E0,5.816585E0,0E0,5.55755E0,3.4341297E0,3.5482352E0,0E0,0E0,0E0,0E0],"parents":[2147483647,0,0,2,2,4,4,5,5,6,6],"right_children":[2,-1,4,-1,6,8,10,-1,-1,-1,-1],"split_conditions":[1.2809157E-1,-4.3584973E-2,3.9698505E-1,-1.5398557E-2,7.6101744E-1,1.0702959E-1,1.4691159E-1,4.634255E-2,7.738173E-3,-2.2778627E-2,1.6593108E-2],"split_indices":[14,0,12,0,12,18,14,0,0,0,0],"split_type":[0,0,0,0,0,0,0,0,0,0,0],"sum_hessian":[7.004294E1,8.732912E0,6.1310024E1,1.3602355E1,4.770767E1,2.8896723E1,1.8810947E1,1.6614449E1,1.2282273E1,8.696489E0,1.0114458E1],"tree_param":{"num_deleted":"0","num_feature":"29","num_nodes":"11","size_leaf_vector":"1"}},{"base_weights":[-2.2579957E-2,-3.244164E-2,1.3598599E-1,3.122769E-1,-1.5962376E-1,-3.0547375E-2,5.6817716E-1,-2.5769293E-2,1.7265428E-2,1.6482009E-2,-2.20178E-2,7.435426E-3,4.3471236E-2],"categories":[],"categories_nodes":[],"categories_segments":[],"categories_sizes":[],"default_left":[0,0,0,0,0,0,0,0,0,0,0,0,0],"id":53,"left_children":[1,-1,3,5,7,9,11,-1,-1,-1,-1,-1,-1],"loss_changes":[7.916796E0,0E0,3.3629785E0,3.8165953E0,4.5923157E0,3.028935E0,2.2481961E0,0E0,0E0,0E0,0E0,0E0,0E0],"parents":[2147483647,0,0,2,2,3,3,4,4,5,5,6,6],"right_children":[2,-1,4,6,8,10,12,-1,-1,-1,-1,-1,-1],"split_conditions":[3.91369E-1,-3.244164E-2,5.6E2,6.947414E2,1.544621E-1,5.57106E2,5.5667426E-2,-2.5769293E-2,1.7265428E-2,1.6482009E-2,-2.20178E-2,7.435426E-3,4.3471236E-2],"split_indices":[12,0,22,10,14,10,1,0,0,0,0,0,0],"split_type":[0,0,0,0,0,0,0,0,0,0,0,0,0],"sum_hessian":[7.336486E1,1.4210459E1,5.91544E1,3.8044624E1,2.1109777E1,1.6178284E1,2.186634E1,1.2940831E1,8.168945E0,8.169309E0,8.008974E0,1.1082162E1,1.0784178E1],"tree_param":{"num_deleted":"0","num_feature":"29","num_nodes":"13","size_leaf_vector":"1"}},{"base_weights":[-1.7996193E-1,-4.302277E-2,-3.8897756E-2,1.7838281E-1,-4.9112308E-1,3.18985E-2,-3.557257E-2,-6.801654E-4,-4.841192E-2,-3.092546E-1,2.2121772E-2,-3.7669107E-2,1.4086067E-2],"categories":[],"categories_nodes":[],"categories_segments":[],"categories_sizes":[],"default_left":[0,0,0,0,0,0,0,0,0,0,0,0,0],"id":54,"left_children":[1,-1,3,5,7,-1,9,-1,-1,11,-1,-1,-1],"loss_changes":[6.407241E0,0E0,6.467629E0,4.5650854E0,4.3916545E0,0E0,4.18735E0,0E0,0E0,6.2220445E0,0E0,0E0,0E0],"parents":[2147483647,0,0,2,2,3,3,4,4,6,6,9,9],"right_children":[2,-1,4,6,8,-1,10,-1,-1,12,-1,-1,-1],"split_conditions":[1.03198E-1,-4.302277E-2,1.3927494E-1,1.1216606E0,6.540478E-1,3.18985E-2,1.4605671E-1,-6.801654E-4,-4.841192E-2,9.18502E-2,2.2121772E-2,-3.7669107E-2,1.4086067E-2],"split_indices":[4,0,18,0,9,0,14,0,0,3,0,0,0],"split_type":[0,0,0,0,0,0,0,0,0,0,0,0,0],"sum_hessian":[7.012858E1,9.681423E0,6.044715E1,4.0900936E1,1.9546217E1,1.2475746E1,2.842519E1,1.1320804E1,8.225412E0,1.9190058E1,9.235131E0,1.1125505E1,8.064552E0],"tree_param":{"num_deleted":"0","num_feature":"29","num_nodes":"13","size_leaf_vector":"1"}},{"base_weights":[-6.406709E-3,-3.8135644E-2,2.3004213E-1,5.0702137E-1,-1.1152737E-1,-0E0,4.181509E-2,-2.933777E-2,2.3070736E-2],"categories":[],"categories_nodes":[],"categories_segments":[],"categories_sizes":[],"default_left":[0,0,0,0,0,0,0,0,0],"id":55,"left_children":[1,-1,3,5,7,-1,-1,-1,-1],"loss_changes":[1.378541E1,0E0,5.715844E0,5.108306E0,7.7959766E0,0E0,0E0,0E0,0E0],"parents":[2147483647,0,0,2,2,3,3,4,4],"right_children":[2,-1,4,6,8,-1,-1,-1,-1],"split_conditions":[5.905652E2,-3.8135644E-2,6.653381E-1,1.9399004E0,7.82975E-2,-0E0,4.181509E-2,-2.933777E-2,2.3070736E-2],"split_indices":[10,0,9,21,1,0,0,0,0],"split_type":[0,0,0,0,0,0,0,0,0],"sum_hessian":[7.163603E1,1.650531E1,5.5130722E1,3.0717175E1,2.4413548E1,1.3387866E1,1.732931E1,1.3795397E1,1.0618152E1],"tree_param":{"num_deleted":"0","num_feature":"29","num_nodes":"9","size_leaf_vector":"1"}},{"base_weights":[-2.726959E-2,-3.6022937E-1,1.6747667E-1,-4.2965647E-2,1.4973672E-2,4.2880273E-1,-1.4174791E-2,-0E0,3.6371782E-2],"categories":[],"categories_nodes":[],"categories_segments":[],"categories_sizes":[],"default_left":[0,0,0,0,0,0,0,0,0],"id":56,"left_children":[1,3,5,-1,-1,7,-1,-1,-1],"loss_changes":[4.783359E0,9.872208E0,5.60148E0,0E0,0E0,3.9500508E0,0E0,0E0,0E0],"parents":[2147483647,0,0,1,1,2,2,5,5],"right_children":[2,4,6,-1,-1,8,-1,-1,-1],"split_conditions":[9.578925E2,2.048279E0,1.9613717E0,-4.2965647E-2,1.4973672E-2,1.963454E0,-1.4174791E-2,-0E0,3.6371782E-2],"split_indices":[11,7,0,0,0,21,0,0,0],"split_type":[0,0,0,0,0,0,0,0,0],"sum_hessian":[6.842156E1,2.5570822E1,4.2850742E1,1.4644566E1,1.0926256E1,2.7893986E1,1.4956758E1,1.2041795E1,1.5852191E1],"tree_param":{"num_deleted":"0","num_feature":"29","num_nodes":"9","size_leaf_vector":"1"}},{"base_weights":[-3.3501245E-2,-2.6924415E-2,9.036337E-2,5.5058837E-1,-1.9753058E-1,-8.997174E-3,5.0009586E-2,1.938405E-1,-3.5232365E-2,-1.5794113E-2,3.2205828E-2],"categories":[],"categories_nodes":[],"categories_segments":[],"categories_sizes":[],"default_left":[0,0,0,0,0,0,0,0,0,0,0],"id":57,"left_children":[1,-1,3,5,7,-1,-1,9,-1,-1,-1],"loss_changes":[5.087822E0,0E0,8.623383E0,9.013458E0,8.271372E0,0E0,0E0,5.8570232E0,0E0,0E0,0E0],"parents":[2147483647,0,0,2,2,3,3,4,4,7,7],"right_children":[2,-1,4,6,8,-1,-1,10,-1,-1,-1],"split_conditions":[3.9698505E-1,-2.6924415E-2,9.956322E-2,4.7291583E-1,6.540478E-1,-8.997174E-3,5.0009586E-2,1.4915572E-1,-3.5232365E-2,-1.5794113E-2,3.2205828E-2],"split_indices":[12,0,18,16,9,0,0,18,0,0,0],"split_type":[0,0,0,0,0,0,0,0,0,0,0],"sum_hessian":[7.420206E1,1.4091976E1,6.0110085E1,2.309785E1,3.7012234E1,8.833047E0,1.4264804E1,2.1030975E1,1.5981257E1,9.623483E0,1.1407493E1],"tree_param":{"num_deleted":"0","num_feature":"29","num_nodes":"11","size_leaf_vector":"1"}},{"base_weights":[1.17646426E-1,-1.9663103E-2,2.7659679E-2,1.6551337E-1,-4.4126758E-1,-1.6394883E-2,3.362435E-1,-2.9559373E-3,-3.403019E-2,2.9634235E-2,-4.601199E-3],"categories":[],"categories_nodes":[],"categories_segments":[],"categories_sizes":[],"default_left":[0,0,0,0,0,0,0,0,0,0,0],"id":58,"left_children":[1,3,-1,5,7,-1,9,-1,-1,-1,-1],"loss_changes":[4.559369E0,4.605541E0,0E0,3.5177886E0,1.2199969E0,0E0,3.7401562E0,0E0,0E0,0E0,0E0],"parents":[2147483647,0,0,1,1,3,3,4,4,6,6],"right_children":[2,4,-1,6,8,-1,10,-1,-1,-1,-1],"split_conditions":[7.82975E-2,1.9613717E0,2.7659679E-2,1.0505176E-1,4.58E2,-1.6394883E-2,6.084986E-1,-2.9559373E-3,-3.403019E-2,2.9634235E-2,-4.601199E-3],"split_indices":[1,0,0,4,22,0,12,0,0,0,0],"split_type":[0,0,0,0,0,0,0,0,0,0,0],"sum_hessian":[6.941317E1,5.3354492E1,1.605868E1,3.7091927E1,1.6262564E1,8.309038E0,2.8782888E1,8.027757E0,8.234808E0,1.8252932E1,1.0529957E1],"tree_param":{"num_deleted":"0","num_feature":"29","num_nodes":"11","size_leaf_vector":"1"}},{"base_weights":[-6.218047E-2,-3.4487116E-1,2.629594E-1,-5.26531E-2,-0E0,3.7910648E-2,-4.969928E-2,-2.657188E-2,3.337116E-1,-3.1153578E-2,1.5589838E-2,-6.172196E-3,3.613434E-2],"categories":[],"categories_nodes":[],"categories_segments":[],"categories_sizes":[],"default_left":[0,0,0,0,0,0,0,0,0,0,0,0,0],"id":59,"left_children":[1,3,5,-1,7,-1,9,-1,11,-1,-1,-1,-1],"loss_changes":[7.1095333E0,1.0508784E1,5.874161E0,0E0,5.584345E0,0E0,5.2724695E0,0E0,4.0130215E0,0E0,0E0,0E0,0E0],"parents":[2147483647,0,0,1,1,2,2,4,4,6,6,8,8],"right_children":[2,4,6,-1,8,-1,10,-1,12,-1,-1,-1,-1],"split_conditions":[4E0,6.071759E2,1.1600812E-1,-5.26531E-2,1.420478E0,3.7910648E-2,2.322792E0,-2.657188E-2,7.335474E2,-3.1153578E-2,1.5589838E-2,-6.172196E-3,3.613434E-2],"split_indices":[5,10,4,0,0,0,8,0,10,0,0,0,0],"split_type":[0,0,0,0,0,0,0,0,0,0,0,0,0],"sum_hessian":[7.293094E1,3.9769787E1,3.3161148E1,1.1956327E1,2.7813461E1,1.2349129E1,2.081202E1,9.934172E0,1.787929E1,8.022854E0,1.27891655E1,8.256008E0,9.623281E0],"tree_param":{"num_deleted":"0","num_feature":"29","num_nodes":"13","size_leaf_vector":"1"}},{"base_weights":[1.367276E-1,-2.5075203E-2,2.3501001E-1,4.1289997E-1,-1.8465497E-1,7.689671E-2,7.549531E-1,8.408041E-3,-2.5687352E-2,1.9442722E-2,-1.6901795E-2,4.687993E-2,1.4618098E-2],"categories":[],"categories_nodes":[],"categories_segments":[],"categories_sizes":[],"default_left":[0,0,0,0,0,0,0,0,0,0,0,0,0],"id":60,"left_children":[1,-1,3,5,7,9,11,-1,-1,-1,-1,-1,-1],"loss_changes":[4.853995E0,0E0,5.3193445E0,5.0982065E0,2.7483187E0,3.8708217E0,8.0635357E-1,0E0,0E0,0E0,0E0,0E0,0E0],"parents":[2147483647,0,0,2,2,3,3,4,4,5,5,6,6],"right_children":[2,-1,4,6,8,10,12,-1,-1,-1,-1,-1,-1],"split_conditions":[4.501773E0,-2.5075203E-2,7.8879017E-1,1.4341925E-1,1.9469856E0,1.9613717E0,1.5665646E-1,8.408041E-3,-2.5687352E-2,1.9442722E-2,-1.6901795E-2,4.687993E-2,1.4618098E-2],"split_indices":[6,0,12,14,7,0,14,0,0,0,0,0,0],"split_type":[0,0,0,0,0,0,0,0,0,0,0,0,0],"sum_hessian":[7.374935E1,8.067491E0,6.568186E1,4.698799E1,1.8693869E1,2.5676756E1,2.1311234E1,8.760519E0,9.933351E0,1.541674E1,1.0260016E1,1.3031457E1,8.279778E0],"tree_param":{"num_deleted":"0","num_feature":"29","num_nodes":"13","size_leaf_vector":"1"}},{"base_weights":[1.043072E-1,2.7022287E-1,-3.1815954E-2,4.7245452E-1,-1.9110955E-1,5.887002E-1,-0E0,-3.87303E-2,2.1378E-2,5.0252345E-3,7.082743E-1,4.6768803E-2,8.8169975E-3],"categories":[],"categories_nodes":[],"categories_segments":[],"categories_sizes":[],"default_left":[0,0,0,0,0,0,0,0,0,0,0,0,0],"id":61,"left_children":[1,3,-1,5,7,9,-1,-1,-1,-1,11,-1,-1],"loss_changes":[9.3884E0,6.2273498E0,0E0,2.3977766E0,8.042615E0,1.5618525E0,0E0,0E0,0E0,0E0,2.4800053E0,0E0,0E0],"parents":[2147483647,0,0,1,1,3,3,4,4,5,5,10,10],"right_children":[2,4,-1,6,8,10,-1,-1,-1,-1,12,-1,-1],"split_conditions":[2.93583E1,9.0732926E-1,-3.1815954E-2,6.874814E-1,7.444125E2,5.919057E2,-0E0,-3.87303E-2,2.1378E-2,5.0252345E-3,8.371109E2,4.6768803E-2,8.8169975E-3],"split_indices":[20,9,0,24,10,10,0,0,0,0,10,0,0],"split_type":[0,0,0,0,0,0,0,0,0,0,0,0,0],"sum_hessian":[7.309311E1,6.130492E1,1.1788186E1,4.334126E1,1.7963661E1,3.4121483E1,9.219776E0,9.401113E0,8.56255E0,8.260044E0,2.5861439E1,1.6401993E1,9.459447E0],"tree_param":{"num_deleted":"0","num_feature":"29","num_nodes":"13","size_leaf_vector":"1"}},{"base_weights":[5.9555948E-2,-3.173555E-1,2.4772128E-1,-4.3243125E-2,5.1470404E-3,3.906633E-1,-5.283405E-3,3.4233812E-2,1.15894884E-1,2.6303897E-2,-8.013178E-3],"categories":[],"categories_nodes":[],"categories_segments":[],"categories_sizes":[],"default_left":[0,0,0,0,0,0,0,0,0,0,0],"id":62,"left_children":[1,3,5,-1,-1,7,-1,-1,9,-1,-1],"loss_changes":[5.4848514E0,6.3509254E0,2.8740783E0,0E0,0E0,2.5731788E0,0E0,0E0,2.9940434E0,0E0,0E0],"parents":[2147483647,0,0,1,1,2,2,5,5,8,8],"right_children":[2,4,6,-1,-1,8,-1,-1,10,-1,-1],"split_conditions":[3E0,5.7307067E0,2.638973E0,-4.3243125E-2,5.1470404E-3,8.466892E-2,-5.283405E-3,3.4233812E-2,1.9534662E0,2.6303897E-2,-8.013178E-3],"split_indices":[5,6,0,0,0,3,0,0,7,0,0],"split_type":[0,0,0,0,0,0,0,0,0,0,0],"sum_hessian":[7.3610695E1,2.3169594E1,5.0441097E1,9.659983E0,1.3509612E1,3.67714E1,1.3669696E1,1.54432E1,2.1328201E1,8.581914E0,1.2746286E1],"tree_param":{"num_deleted":"0","num_feature":"29","num_nodes":"11","size_leaf_vector":"1"}},{"base_weights":[1.2477083E-1,-2.1292682E-1,4.308157E-1,-3.5646882E-2,3.1752568E-2,4.6185073E-2,1.4017786E-1,1.3562682E-2,-1.1834171E-2,-8.504301E-3,2.1573918E-2],"categories":[],"categories_nodes":[],"categories_segments":[],"categories_sizes":[],"default_left":[0,0,0,0,0,0,0,0,0,0,0],"id":63,"left_children":[1,3,5,-1,7,-1,9,-1,-1,-1,-1],"loss_changes":[7.5152187E0,4.5194283E0,4.666914E0,0E0,1.684097E0,0E0,2.7143917E0,0E0,0E0,0E0,0E0],"parents":[2147483647,0,0,1,1,2,2,4,4,6,6],"right_children":[2,4,6,-1,8,-1,10,-1,-1,-1,-1],"split_conditions":[1.4605671E-1,9.5090674E2,2.6E2,-3.5646882E-2,3.1973082E1,4.6185073E-2,7.1679246E-1,1.3562682E-2,-1.1834171E-2,-8.504301E-3,2.1573918E-2],"split_indices":[14,11,22,0,15,0,13,0,0,0,0],"split_type":[0,0,0,0,0,0,0,0,0,0,0],"sum_hessian":[6.788646E1,3.1786839E1,3.6099625E1,9.857882E0,2.1928957E1,1.11366005E1,2.4963022E1,1.2562355E1,9.366601E0,1.1659883E1,1.3303141E1],"tree_param":{"num_deleted":"0","num_feature":"29","num_nodes":"11","size_leaf_vector":"1"}},{"base_weights":[8.930471E-3,3.5302228E-1,-4.0832028E-1,-5.9912526E-3,6.491997E-1,4.5232233E-3,-6.457022E-1,4.2207643E-2,7.46514E-3,-1.6165465E-3,-4.876363E-2],"categories":[],"categories_nodes":[],"categories_segments":[],"categories_sizes":[],"default_left":[0,0,0,0,0,0,0,0,0,0,0],"id":64,"left_children":[1,3,5,-1,7,-1,9,-1,-1,-1,-1],"loss_changes":[1.0350971E1,6.0566206E0,4.1873636E0,0E0,1.7565994E0,0E0,4.007658E0,0E0,0E0,0E0,0E0],"parents":[2147483647,0,0,1,1,2,2,4,4,6,6],"right_children":[2,4,6,-1,8,-1,10,-1,-1,-1,-1],"split_conditions":[2.2181794E3,1.0111915E0,1.3313363E-1,-5.9912526E-3,1.9867638E3,4.5232233E-3,3.177287E1,4.2207643E-2,7.46514E-3,-1.6165465E-3,-4.876363E-2],"split_indices":[2,0,14,0,2,0,25,0,0,0,0],"split_type":[0,0,0,0,0,0,0,0,0,0,0],"sum_hessian":[6.8280334E1,3.8246223E1,3.0034111E1,1.4538381E1,2.3707844E1,9.404651E0,2.062946E1,1.534571E1,8.362135E0,8.508121E0,1.212134E1],"tree_param":{"num_deleted":"0","num_feature":"29","num_nodes":"11","size_leaf_vector":"1"}},{"base_weights":[-2.097986E-2,5.612479E-2,-2.1785464E-2,4.3157765E-1,-1.6348158E-1,3.696137E-2,-5.0383606E-3,4.1730125E-2,-2.7682526E-2,-2.0021915E-1,2.704438E-2,-2.1892814E-2,9.382719E-4],"categories":[],"categories_nodes":[],"categories_segments":[],"categories_sizes":[],"default_left":[0,0,0,0,0,0,0,0,0,0,0,0,0],"id":65,"left_children":[1,3,-1,5,7,-1,-1,9,-1,11,-1,-1,-1],"loss_changes":[2.5842328E0,5.437099E0,0E0,4.479776E0,3.5137663E0,0E0,0E0,3.6846957E0,0E0,1.2238979E0,0E0,0E0,0E0],"parents":[2147483647,0,0,1,1,3,3,4,4,7,7,9,9],"right_children":[2,4,-1,6,8,-1,-1,10,-1,12,-1,-1,-1],"split_conditions":[2.9366503E1,1.0397185E-1,-2.1785464E-2,2.7152147E0,6.9984376E-1,3.696137E-2,-5.0383606E-3,5.413019E-2,-2.7682526E-2,1.3031067E3,2.704438E-2,-2.1892814E-2,9.382719E-4],"split_indices":[20,18,0,0,9,0,0,1,0,11,0,0,0],"split_type":[0,0,0,0,0,0,0,0,0,0,0,0,0],"sum_hessian":[7.1349304E1,6.060553E1,1.0743774E1,2.2494263E1,3.8111267E1,1.4358355E1,8.135908E0,2.5306013E1,1.2805256E1,1.7176422E1,8.129591E0,8.3737335E0,8.802689E0],"tree_param":{"num_deleted":"0","num_feature":"29","num_nodes":"13","size_leaf_vector":"1"}},{"base_weights":[-0E0,1.2921387E-1,-2.8287102E-2,2.6329046E-1,-2.112143E-2,6.501605E-2,3.326951E-2,3.4442142E-1,-2.0577526E-2,4.366413E-2,-3.2526236E-3],"categories":[],"categories_nodes":[],"categories_segments":[],"categories_sizes":[],"default_left":[0,0,0,0,0,0,0,0,0,0,0],"id":66,"left_children":[1,3,-1,5,-1,7,-1,9,-1,-1,-1],"loss_changes":[5.2867613E0,4.4928E0,0E0,3.4767356E0,0E0,5.050297E0,0E0,5.8182983E0,0E0,0E0,0E0],"parents":[2147483647,0,0,1,1,3,3,5,5,7,7],"right_children":[2,4,-1,6,-1,8,-1,10,-1,-1,-1],"split_conditions":[2.9366503E1,3.5758376E3,-2.8287102E-2,1.5621588E-1,-2.112143E-2,5.6E2,3.326951E-2,5.7666725E-1,-2.0577526E-2,4.366413E-2,-3.2526236E-3],"split_indices":[20,2,0,14,0,22,0,13,0,0,0],"split_type":[0,0,0,0,0,0,0,0,0,0,0],"sum_hessian":[6.826256E1,5.6812714E1,1.14498415E1,4.7274475E1,9.538239E0,3.4050907E1,1.3223567E1,2.247678E1,1.1574128E1,9.352776E0,1.3124004E1],"tree_param":{"num_deleted":"0","num_feature":"29","num_nodes":"11","size_leaf_vector":"1"}},{"base_weights":[-3.2453485E-2,1.02724105E-1,-3.5222813E-2,3.3480263E-1,-3.4181353E-1,-8.17381E-3,3.343821E-2,-3.930768E-2,1.0345512E-2,-1.2930909E-2,1.20569235E-2],"categories":[],"categories_nodes":[],"categories_segments":[],"categories_sizes":[],"default_left":[0,0,0,0,0,0,0,0,0,0,0],"id":67,"left_children":[1,3,-1,5,7,9,-1,-1,-1,-1,-1],"loss_changes":[6.7902274E0,6.3404865E0,0E0,5.0021424E0,5.633109E0,1.4641836E0,0E0,0E0,0E0,0E0,0E0],"parents":[2147483647,0,0,1,1,3,3,4,4,5,5],"right_children":[2,4,-1,6,8,10,-1,-1,-1,-1,-1],"split_conditions":[2.9366503E1,2.638973E0,-3.5222813E-2,1.3974726E0,7.0075464E2,2.2203054E0,3.343821E-2,-3.930768E-2,1.0345512E-2,-1.2930909E-2,1.20569235E-2],"split_indices":[20,0,0,0,10,16,0,0,0,0,0],"split_type":[0,0,0,0,0,0,0,0,0,0,0],"sum_hessian":[6.784425E1,5.727355E1,1.0570704E1,3.8692127E1,1.8581423E1,1.9312344E1,1.9379786E1,1.02926E1,8.288823E0,1.0597543E1,8.7148E0],"tree_param":{"num_deleted":"0","num_feature":"29","num_nodes":"11","size_leaf_vector":"1"}},{"base_weights":[2.0549553E-2,-2.2795903E-2,1.4224397E-1,2.968508E-2,-3.5027135E-2,-2.1779982E-2,7.474247E-2,3.4427232E-1,-1.3062461E-2,3.0388717E-2,-0E0],"categories":[],"categories_nodes":[],"categories_segments":[],"categories_sizes":[],"default_left":[0,0,0,0,0,0,0,0,0,0,0],"id":68,"left_children":[1,-1,3,-1,5,-1,7,9,-1,-1,-1],"loss_changes":[4.1032934E0,0E0,5.0509176E0,0E0,2.159663E0,0E0,3.3815508E0,2.1415243E0,0E0,0E0,0E0],"parents":[2147483647,0,0,2,2,4,4,6,6,7,7],"right_children":[2,-1,4,-1,6,-1,8,10,-1,-1,-1],"split_conditions":[3.984509E-1,-2.2795903E-2,1.7448336E0,2.968508E-2,6.5133586E0,-2.1779982E-2,2.958416E3,2.092849E0,-1.3062461E-2,3.0388717E-2,-0E0],"split_indices":[12,0,7,0,23,0,2,7,0,0,0],"split_type":[0,0,0,0,0,0,0,0,0,0,0],"sum_hessian":[6.92346E1,1.2132193E1,5.7102406E1,1.5570699E1,4.1531708E1,8.635892E0,3.2895813E1,1.9051609E1,1.3844205E1,1.0552147E1,8.499462E0],"tree_param":{"num_deleted":"0","num_feature":"29","num_nodes":"11","size_leaf_vector":"1"}},{"base_weights":[1.2174424E-1,-1.8381087E-2,2.197206E-1,-7.919792E-2,4.000448E-1,9.999794E-3,-1.7045157E-2,7.40067E-2,6.7785233E-1,2.4088083E-2,-1.2837102E-2,4.974817E-2,9.86342E-3],"categories":[],"categories_nodes":[],"categories_segments":[],"categories_sizes":[],"default_left":[0,0,0,0,0,0,0,0,0,0,0,0,0],"id":69,"left_children":[1,-1,3,5,7,-1,-1,9,11,-1,-1,-1,-1],"loss_changes":[3.4341338E0,0E0,3.4718056E0,1.9092039E0,3.0524225E0,0E0,0E0,3.1915622E0,2.0534935E0,0E0,0E0,0E0,0E0],"parents":[2147483647,0,0,2,2,3,3,4,4,7,7,8,8],"right_children":[2,-1,4,6,8,-1,-1,10,12,-1,-1,-1,-1],"split_conditions":[1.3074902E-1,-1.8381087E-2,2.091143E0,5.7666725E-1,3E0,9.999794E-3,-1.7045157E-2,1.551414E-1,3.565991E-2,2.4088083E-2,-1.2837102E-2,4.974817E-2,9.86342E-3],"split_indices":[14,0,8,13,5,0,0,14,1,0,0,0,0],"split_type":[0,0,0,0,0,0,0,0,0,0,0,0,0],"sum_hessian":[6.7797585E1,9.540042E0,5.8257545E1,2.1299223E1,3.6958324E1,9.60907E0,1.1690153E1,1.8996458E1,1.7961864E1,8.775892E0,1.0220567E1,8.904937E0,9.056927E0],"tree_param":{"num_deleted":"0","num_feature":"29","num_nodes":"13","size_leaf_vector":"1"}},{"base_weights":[8.783686E-2,2.058494E-1,-1.9308804E-2,4.0197128E-1,-1.6210258E-2,3.3045277E-2,3.433E-3,2.3951748E-1,-2.6398972E-2,-1.2492218E-2,3.7176836E-2],"categories":[],"categories_nodes":[],"categories_segments":[],"categories_sizes":[],"default_left":[0,0,0,0,0,0,0,0,0,0,0],"id":70,"left_children":[1,3,-1,5,7,-1,-1,9,-1,-1,-1],"loss_changes":[4.1059704E0,2.8160372E0,0E0,2.4010353E0,4.17084E0,0E0,0E0,5.539346E0,0E0,0E0,0E0],"parents":[2147483647,0,0,1,1,3,3,4,4,7,7],"right_children":[2,4,-1,6,8,-1,-1,10,-1,-1,-1],"split_conditions":[2.9366503E1,5.47E2,-1.9308804E-2,6.538946E-1,1.9206667E0,3.3045277E-2,3.433E-3,1.544621E-1,-2.6398972E-2,-1.2492218E-2,3.7176836E-2],"split_indices":[20,22,0,13,7,0,0,14,0,0,0],"split_type":[0,0,0,0,0,0,0,0,0,0,0],"sum_hessian":[7.01699E1,5.7932926E1,1.2236976E1,3.1098316E1,2.6834608E1,1.55513735E1,1.5546944E1,1.795138E1,8.883228E0,9.116532E0,8.834848E0],"tree_param":{"num_deleted":"0","num_feature":"29","num_nodes":"11","size_leaf_vector":"1"}},{"base_weights":[6.7598373E-3,-2.3559142E-2,1.0473936E-1,4.4713607E-1,-4.7659885E-2,-0E0,3.649242E-2,-3.3231062E-1,2.0053187E-2,-3.070656E-2,7.2600255E-3],"categories":[],"categories_nodes":[],"categories_segments":[],"categories_sizes":[],"default_left":[0,0,0,0,0,0,0,0,0,0,0],"id":71,"left_children":[1,-1,3,5,7,-1,-1,9,-1,-1,-1],"loss_changes":[3.049518E0,0E0,3.2711704E0,2.0816274E0,5.464397E0,0E0,0E0,4.0246525E0,0E0,0E0,0E0],"parents":[2147483647,0,0,2,2,3,3,4,4,7,7],"right_children":[2,-1,4,6,8,-1,-1,10,-1,-1,-1],"split_conditions":[3.7582594E-1,-2.3559142E-2,8.802839E-2,6.738865E-2,5.5926085E0,-0E0,3.649242E-2,2.129989E0,2.0053187E-2,-3.070656E-2,7.2600255E-3],"split_indices":[12,0,18,18,6,0,0,16,0,0,0],"split_type":[0,0,0,0,0,0,0,0,0,0,0],"sum_hessian":[6.492571E1,8.88138E0,5.6044334E1,1.7081062E1,3.8963272E1,8.011503E0,9.069559E0,2.4839384E1,1.4123889E1,1.5919053E1,8.920331E0],"tree_param":{"num_deleted":"0","num_feature":"29","num_nodes":"11","size_leaf_vector":"1"}},{"base_weights":[6.1982524E-2,-1.4199951E-1,2.8880852E-1,-2.2195082E-2,8.940428E-2,2.2998076E-2,3.1767527E-4,3.1235596E-2,-1.425609E-2],"categories":[],"categories_nodes":[],"categories_segments":[],"categories_sizes":[],"default_left":[0,0,0,0,0,0,0,0,0],"id":72,"left_children":[1,3,5,-1,7,-1,-1,-1,-1],"loss_changes":[3.3988729E0,2.8477118E0,1.4535632E0,0E0,4.88123E0,0E0,0E0,0E0,0E0],"parents":[2147483647,0,0,1,1,2,2,4,4],"right_children":[2,4,6,-1,8,-1,-1,-1,-1],"split_conditions":[4.6907413E1,2.2927094E0,1.07445784E-1,-2.2195082E-2,2.4784036E0,2.2998076E-2,3.1767527E-4,3.1235596E-2,-1.425609E-2],"split_indices":[23,8,18,0,8,0,0,0,0],"split_type":[0,0,0,0,0,0,0,0,0],"sum_hessian":[6.810065E1,3.508906E1,3.301158E1,1.5365939E1,1.9723124E1,1.867091E1,1.4340673E1,8.1184635E0,1.1604659E1],"tree_param":{"num_deleted":"0","num_feature":"29","num_nodes":"9","size_leaf_vector":"1"}},{"base_weights":[7.519601E-2,-1.7764663E-2,1.689629E-1,3.5310123E-2,-0E0,-1.9675888E-2,1.978962E-1,2.5998725E-2,-8.293819E-2,7.5430493E-3,-1.7693216E-2],"categories":[],"categories_nodes":[],"categories_segments":[],"categories_sizes":[],"default_left":[0,0,0,0,0,0,0,0,0,0,0],"id":73,"left_children":[1,-1,3,-1,5,-1,7,-1,9,-1,-1],"loss_changes":[2.8223188E0,0E0,5.1795077E0,0E0,3.7940466E0,0E0,3.3196192E0,0E0,1.3928566E0,0E0,0E0],"parents":[2147483647,0,0,2,2,4,4,6,6,8,8],"right_children":[2,-1,4,-1,6,-1,8,-1,10,-1,-1],"split_conditions":[4.7291583E-1,-1.7764663E-2,9.3338895E-1,3.5310123E-2,3.1472966E-2,-1.9675888E-2,6.90859E-1,2.5998725E-2,1.6495699E0,7.5430493E-3,-1.7693216E-2],"split_indices":[16,0,16,0,1,0,13,0,16,0,0],"split_type":[0,0,0,0,0,0,0,0,0,0,0],"sum_hessian":[6.72525E1,1.0077144E1,5.7175358E1,1.1772953E1,4.5402405E1,1.4070978E1,3.1331427E1,1.4630082E1,1.6701344E1,8.450064E0,8.251281E0],"tree_param":{"num_deleted":"0","num_feature":"29","num_nodes":"11","size_leaf_vector":"1"}},{"base_weights":[9.3460135E-2,-2.3393605E-2,2.0950674E-1,-9.4084464E-2,4.094361E-1,-1.9592982E-2,6.5225824E-3,-4.900419E-3,5.672786E-1,4.2019784E-2,3.680046E-4],"categories":[],"categories_nodes":[],"categories_segments":[],"categories_sizes":[],"default_left":[0,0,0,0,0,0,0,0,0,0,0],"id":74,"left_children":[1,-1,3,5,7,-1,-1,-1,9,-1,-1],"loss_changes":[4.704603E0,0E0,3.944402E0,1.8978598E0,3.406887E0,0E0,0E0,0E0,4.181447E0,0E0,0E0],"parents":[2147483647,0,0,2,2,3,3,4,4,8,8],"right_children":[2,-1,4,6,8,-1,-1,-1,10,-1,-1],"split_conditions":[1.3080876E-1,-2.3393605E-2,2.091143E0,5.593346E0,8.102254E2,-1.9592982E-2,6.5225824E-3,-4.900419E-3,3.245221E1,4.2019784E-2,3.680046E-4],"split_indices":[14,0,8,6,11,0,0,0,15,0,0],"split_type":[0,0,0,0,0,0,0,0,0,0,0],"sum_hessian":[6.9195755E1,1.0077496E1,5.9118263E1,2.2901083E1,3.621718E1,1.0161513E1,1.273957E1,8.021019E0,2.8196161E1,1.7678236E1,1.0517925E1],"tree_param":{"num_deleted":"0","num_feature":"29","num_nodes":"11","size_leaf_vector":"1"}},{"base_weights":[1.5092685E-3,-2.5675554E-2,1.2365038E-1,-1.4348504E-1,3.9851737E-1,1.5957125E-2,-3.848802E-1,3.222538E-2,-0E0,7.5032166E-4,-3.644642E-2],"categories":[],"categories_nodes":[],"categories_segments":[],"categories_sizes":[],"default_left":[0,0,0,0,0,0,0,0,0,0,0],"id":75,"left_children":[1,-1,3,5,7,-1,9,-1,-1,-1,-1],"loss_changes":[4.5422125E0,0E0,4.7675385E0,3.8304074E0,3.11139E0,0E0,3.476685E0,0E0,0E0,0E0,0E0],"parents":[2147483647,0,0,2,2,3,3,4,4,6,6],"right_children":[2,-1,4,6,8,-1,10,-1,-1,-1,-1],"split_conditions":[3.91369E-1,-2.5675554E-2,2.1372275E0,1.8783973E0,1.5690461E0,1.5957125E-2,1.4006046E3,3.222538E-2,-0E0,7.5032166E-4,-3.644642E-2],"split_indices":[12,0,8,21,16,0,2,0,0,0,0],"split_type":[0,0,0,0,0,0,0,0,0,0,0],"sum_hessian":[7.128733E1,1.1652266E1,5.963507E1,2.9805174E1,2.9829897E1,9.288521E0,2.0516653E1,1.7659805E1,1.2170091E1,9.700851E0,1.0815802E1],"tree_param":{"num_deleted":"0","num_feature":"29","num_nodes":"11","size_leaf_vector":"1"}},{"base_weights":[4.5295727E-2,-1.23515375E-1,3.175593E-1,1.036656E-1,-4.087226E-2,5.48955E-1,-5.537856E-3,-2.2950299E-1,4.0419564E-2,-0E0,4.7940914E-2,-2.7976263E-2,1.1452792E-2],"categories":[],"categories_nodes":[],"categories_segments":[],"categories_sizes":[],"default_left":[0,0,0,0,0,0,0,0,0,0,0,0,0],"id":76,"left_children":[1,3,5,7,-1,9,-1,11,-1,-1,-1,-1,-1],"loss_changes":[3.3357508E0,7.2658076E0,3.1167803E0,8.511562E0,0E0,4.4320655E0,0E0,4.0203686E0,0E0,0E0,0E0,0E0,0E0],"parents":[2147483647,0,0,1,1,2,2,3,3,5,5,7,7],"right_children":[2,4,6,8,-1,10,-1,12,-1,-1,-1,-1,-1],"split_conditions":[1.5370128E-1,3.1392285E3,8.428929E-2,8.746679E-2,-4.087226E-2,8.17245E-2,-5.537856E-3,1.1635092E3,4.0419564E-2,-0E0,4.7940914E-2,-2.7976263E-2,1.1452792E-2],"split_indices":[14,2,3,3,0,3,0,11,0,0,0,0,0],"split_type":[0,0,0,0,0,0,0,0,0,0,0,0,0],"sum_hessian":[6.675991E1,4.074999E1,2.6009922E1,3.1438305E1,9.311685E0,1.727905E1,8.730872E0,2.178047E1,9.657834E0,8.138534E0,9.140517E0,1.3043293E1,8.737177E0],"tree_param":{"num_deleted":"0","num_feature":"29","num_nodes":"13","size_leaf_vector":"1"}},{"base_weights":[1.1274224E-1,-7.834792E-2,3.856104E-1,-3.062124E-2,1.194802E-1,3.2561745E-2,-0E0,3.2470893E-2,-1.2909101E-1,-2.484494E-2,1.0641729E-2],"categories":[],"categories_nodes":[],"categories_segments":[],"categories_sizes":[],"default_left":[0,0,0,0,0,0,0,0,0,0,0],"id":77,"left_children":[1,3,5,-1,7,-1,-1,-1,9,-1,-1],"loss_changes":[3.801686E0,4.7300367E0,2.9128852E0,0E0,4.5041714E0,0E0,0E0,0E0,3.1317554E0,0E0,0E0],"parents":[2147483647,0,0,1,1,2,2,4,4,8,8],"right_children":[2,4,6,-1,8,-1,-1,-1,10,-1,-1],"split_conditions":[5.476446E-2,3E0,1.9867638E3,-3.062124E-2,5.0167966E0,3.2561745E-2,-0E0,3.2470893E-2,6.248529E1,-2.484494E-2,1.0641729E-2],"split_indices":[1,5,2,0,6,0,0,0,25,0,0],"split_type":[0,0,0,0,0,0,0,0,0,0,0],"sum_hessian":[6.680446E1,3.9050602E1,2.775386E1,1.0105292E1,2.8945309E1,1.5300229E1,1.2453631E1,8.854463E0,2.0090845E1,9.946873E0,1.0143972E1],"tree_param":{"num_deleted":"0","num_feature":"29","num_nodes":"11","size_leaf_vector":"1"}},{"base_weights":[1.3868366E-1,-7.612072E-2,4.3054137E-1,1.8136008E-1,-3.1739734E-2,-0E0,6.221894E-1,-1.1153545E-2,2.2301225E-2,4.402932E-2,1.2398627E-2],"categories":[],"categories_nodes":[],"categories_segments":[],"categories_sizes":[],"default_left":[0,0,0,0,0,0,0,0,0,0,0],"id":78,"left_children":[1,3,5,7,-1,-1,9,-1,-1,-1,-1],"loss_changes":[4.4108763E0,6.068602E0,2.1925344E0,3.2697246E0,0E0,0E0,9.1137075E-1,0E0,0E0,0E0,0E0],"parents":[2147483647,0,0,1,1,2,2,3,3,6,6],"right_children":[2,4,6,8,-1,-1,10,-1,-1,-1,-1],"split_conditions":[1.5239897E-1,5.47E2,3.1917446E1,7.631791E-1,-3.1739734E-2,-0E0,6.822502E2,-1.1153545E-2,2.2301225E-2,4.402932E-2,1.2398627E-2],"split_indices":[14,22,15,16,0,0,10,0,0,0,0],"split_type":[0,0,0,0,0,0,0,0,0,0,0],"sum_hessian":[6.448534E1,3.7010895E1,2.7474443E1,2.564667E1,1.1364225E1,9.697378E0,1.7777065E1,9.521732E0,1.6124935E1,8.124605E0,9.65246E0],"tree_param":{"num_deleted":"0","num_feature":"29","num_nodes":"11","size_leaf_vector":"1"}},{"base_weights":[3.443907E-2,-1.102048E-1,2.9527325E-2,2.1752264E-1,-2.824173E-1,-8.888477E-3,3.0866543E-2,-5.5692506E-1,-0E0,-0E0,-4.786342E-2,2.2180943E-2,-2.1740083E-2],"categories":[],"categories_nodes":[],"categories_segments":[],"categories_sizes":[],"default_left":[0,0,0,0,0,0,0,0,0,0,0,0,0],"id":79,"left_children":[1,3,-1,5,7,-1,-1,9,11,-1,-1,-1,-1],"loss_changes":[5.594222E0,3.1189244E0,0E0,3.3184102E0,2.8498178E0,0E0,0E0,3.7812018E0,4.200054E0,0E0,0E0,0E0,0E0],"parents":[2147483647,0,0,1,1,3,3,4,4,7,7,8,8],"right_children":[2,4,-1,6,8,-1,-1,10,12,-1,-1,-1,-1],"split_conditions":[9.106815E-2,1.8485383E0,2.9527325E-2,1.7734745E0,4E0,-8.888477E-3,3.0866543E-2,1.3327639E-1,1.1638623E-1,-0E0,-4.786342E-2,2.2180943E-2,-2.1740083E-2],"split_indices":[1,21,0,21,5,0,0,14,4,0,0,0,0],"split_type":[0,0,0,0,0,0,0,0,0,0,0,0,0],"sum_hessian":[6.294343E1,5.051024E1,1.2433193E1,1.6217695E1,3.429254E1,8.08457E0,8.133125E0,1.6520737E1,1.7771807E1,8.125622E0,8.395115E0,8.850655E0,8.921151E0],"tree_param":{"num_deleted":"0","num_feature":"29","num_nodes":"13","size_leaf_vector":"1"}},{"base_weights":[1.099748E-1,2.1764094E-1,-2.02355E-2,3.3104596E-1,-6.712895E-3,1.5789707E-1,3.985532E-2,-9.920963E-3,3.9064974E-1,7.7681086E-4,2.9444411E-2],"categories":[],"categories_nodes":[],"categories_segments":[],"categories_sizes":[],"default_left":[0,0,0,0,0,0,0,0,0,0,0],"id":80,"left_children":[1,3,-1,5,-1,7,-1,-1,9,-1,-1],"loss_changes":[3.8062441E0,2.4889379E0,0E0,2.9239802E0,0E0,3.260272E0,0E0,0E0,1.4247446E0,0E0,0E0],"parents":[2147483647,0,0,1,1,3,3,5,5,8,8],"right_children":[2,4,-1,6,-1,8,-1,-1,10,-1,-1],"split_conditions":[2.9366503E1,6.4949776E1,-2.02355E-2,6.0903374E1,-6.712895E-3,1.4605671E-1,3.985532E-2,-9.920963E-3,1.4347355E1,7.7681086E-4,2.9444411E-2],"split_indices":[20,27,0,25,0,14,0,0,25,0,0],"split_type":[0,0,0,0,0,0,0,0,0,0,0],"sum_hessian":[6.519616E1,5.5675274E1,9.520883E0,4.3270153E1,1.2405121E1,3.4283638E1,8.986516E0,1.2813906E1,2.146973E1,9.041003E0,1.2428728E1],"tree_param":{"num_deleted":"0","num_feature":"29","num_nodes":"11","size_leaf_vector":"1"}},{"base_weights":[7.559097E-2,-2.3474066E-1,1.9827338E-1,3.6157032E-3,-2.7073288E-2,4.1863167E-1,-2.9551113E-2,-0E0,3.1221319E-2,-3.0449728E-2,1.4498691E-2],"categories":[],"categories_nodes":[],"categories_segments":[],"categories_sizes":[],"default_left":[0,0,0,0,0,0,0,0,0,0,0],"id":81,"left_children":[1,3,5,-1,-1,7,9,-1,-1,-1,-1],"loss_changes":[2.57968E0,2.0459428E0,2.6988204E0,0E0,0E0,2.2809815E0,5.1480684E0,0E0,0E0,0E0,0E0],"parents":[2147483647,0,0,1,1,2,2,5,5,6,6],"right_children":[2,4,6,-1,-1,8,10,-1,-1,-1,-1],"split_conditions":[5.595071E-1,2.7993967E3,4.815437E-2,3.6157032E-3,-2.7073288E-2,1.11390464E-1,8.000668E-2,-0E0,3.1221319E-2,-3.0449728E-2,1.4498691E-2],"split_indices":[13,2,1,0,0,4,1,0,0,0,0],"split_type":[0,0,0,0,0,0,0,0,0,0,0],"sum_hessian":[6.379147E1,1.6401257E1,4.739021E1,8.145428E0,8.25583E0,2.4353983E1,2.3036226E1,8.658586E0,1.5695398E1,8.100073E0,1.4936153E1],"tree_param":{"num_deleted":"0","num_feature":"29","num_nodes":"11","size_leaf_vector":"1"}},{"base_weights":[1.9949857E-2,-2.2389035E-1,2.8112397E-1,1.3806269E-2,-4.3197557E-1,2.979493E-2,3.9599996E-2,-0E0,-3.637135E-2,-1.254751E-2,1.90387E-2],"categories":[],"categories_nodes":[],"categories_segments":[],"categories_sizes":[],"default_left":[0,0,0,0,0,0,0,0,0,0,0],"id":82,"left_children":[1,3,5,-1,7,9,-1,-1,-1,-1,-1],"loss_changes":[4.2590446E0,3.7973235E0,3.7785456E0,0E0,2.9855309E0,2.704652E0,0E0,0E0,0E0,0E0,0E0],"parents":[2147483647,0,0,1,1,2,2,4,4,5,5],"right_children":[2,4,6,-1,8,10,-1,-1,-1,-1,-1],"split_conditions":[2.3299499E0,5.112677E-1,1.1344226E3,1.3806269E-2,1.9703933E0,3.1202043E3,3.9599996E-2,-0E0,-3.637135E-2,-1.254751E-2,1.90387E-2],"split_indices":[8,13,11,0,8,2,0,0,0,0,0],"split_type":[0,0,0,0,0,0,0,0,0,0,0],"sum_hessian":[6.2450996E1,3.1454853E1,3.0996145E1,8.345152E0,2.3109701E1,2.2850187E1,8.145957E0,1.0612728E1,1.2496973E1,1.2220515E1,1.0629671E1],"tree_param":{"num_deleted":"0","num_feature":"29","num_nodes":"11","size_leaf_vector":"1"}},{"base_weights":[-2.7178885E-2,-2.1905574E-1,2.7870697E-1,5.686766E-2,-4.2686614E-1,-4.6563945E-3,2.4472598E-2,1.6942611E-2,-8.2467375E-3,-3.45747E-2,-0E0],"categories":[],"categories_nodes":[],"categories_segments":[],"categories_sizes":[],"default_left":[0,0,0,0,0,0,0,0,0,0,0],"id":83,"left_children":[1,3,5,7,9,-1,-1,-1,-1,-1,-1],"loss_changes":[3.9775815E0,2.6879332E0,2.279216E0,1.3945814E0,2.7862172E0,0E0,0E0,0E0,0E0,0E0,0E0],"parents":[2147483647,0,0,1,1,2,2,3,3,4,4],"right_children":[2,4,6,8,10,-1,-1,-1,-1,-1,-1],"split_conditions":[1.5239897E-1,3.9199784E-1,6.788279E-1,1.15234785E-1,5.286337E1,-4.6563945E-3,2.4472598E-2,1.6942611E-2,-8.2467375E-3,-3.45747E-2,-0E0],"split_indices":[14,9,13,4,23,0,0,0,0,0,0],"split_type":[0,0,0,0,0,0,0,0,0,0,0],"sum_hessian":[6.419769E1,4.0804234E1,2.339346E1,1.711981E1,2.3684425E1,8.007981E0,1.5385477E1,8.0651455E0,9.054664E0,1.3614518E1,1.0069907E1],"tree_param":{"num_deleted":"0","num_feature":"29","num_nodes":"11","size_leaf_vector":"1"}},{"base_weights":[8.747425E-2,3.7257543E-1,-1.1895806E-1,-1.1326598E-2,3.2780163E-2,-2.9957867E-1,1.6879344E-2,-0E0,-3.367561E-2],"categories":[],"categories_nodes":[],"categories_segments":[],"categories_sizes":[],"default_left":[0,0,0,0,0,0,0,0,0],"id":84,"left_children":[1,3,5,-1,-1,7,-1,-1,-1],"loss_changes":[4.068396E0,5.4281487E0,3.3556063E0,0E0,0E0,3.4799025E0,0E0,0E0,0E0],"parents":[2147483647,0,0,1,1,2,2,5,5],"right_children":[2,4,6,-1,-1,8,-1,-1,-1],"split_conditions":[1.974964E3,9.8900116E2,5.7948765E1,-1.1326598E-2,3.2780163E-2,3.5488404E-2,1.6879344E-2,-0E0,-3.367561E-2],"split_indices":[2,2,23,0,0,1,0,0,0],"split_type":[0,0,0,0,0,0,0,0,0],"sum_hessian":[6.3466053E1,2.699543E1,3.6470623E1,8.222605E0,1.8772825E1,2.7409534E1,9.0610895E0,1.5919502E1,1.1490032E1],"tree_param":{"num_deleted":"0","num_feature":"29","num_nodes":"9","size_leaf_vector":"1"}},{"base_weights":[-6.8462566E-2,6.3414045E-2,-3.5414007E-2,-1.5600784E-1,2.7278885E-2,2.273313E-3,-2.3092361E-2,-1.411657E-2,1.8961003E-2],"categories":[],"categories_nodes":[],"categories_segments":[],"categories_sizes":[],"default_left":[0,0,0,0,0,0,0,0,0],"id":85,"left_children":[1,3,-1,5,-1,7,-1,-1,-1],"loss_changes":[5.626936E0,5.911784E0,0E0,2.0168998E0,0E0,2.967287E0,0E0,0E0,0E0],"parents":[2147483647,0,0,1,1,3,3,5,5],"right_children":[2,4,-1,6,-1,8,-1,-1,-1],"split_conditions":[3.5003607E0,6.3007005E-2,-3.5414007E-2,6.084986E-1,2.7278885E-2,3.13737E-2,-2.3092361E-2,-1.411657E-2,1.8961003E-2],"split_indices":[0,1,0,12,0,1,0,0,0],"split_type":[0,0,0,0,0,0,0,0,0],"sum_hessian":[5.9802082E1,5.0428307E1,9.373776E0,3.487388E1,1.5554429E1,2.3211508E1,1.166237E1,1.2755973E1,1.0455535E1],"tree_param":{"num_deleted":"0","num_feature":"29","num_nodes":"9","size_leaf_vector":"1"}},{"base_weights":[1.245839E-1,1.9665764E-1,-1.3519334E-2,-1.4143993E-1,3.5742566E-1,-1.6779426E-2,3.1001368E-3,4.575702E-1,-0E0,3.5509016E-2,6.0474197E-3],"categories":[],"categories_nodes":[],"categories_segments":[],"categories_sizes":[],"default_left":[0,0,0,0,0,0,0,0,0,0,0],"id":86,"left_children":[1,3,-1,5,7,-1,-1,9,-1,-1,-1],"loss_changes":[2.1198065E0,3.6409984E0,0E0,9.99102E-1,1.5478358E0,0E0,0E0,2.3429518E0,0E0,0E0,0E0],"parents":[2147483647,0,0,1,1,3,3,4,4,7,7],"right_children":[2,4,-1,6,8,-1,-1,10,-1,-1,-1],"split_conditions":[3.6084127E0,3.13737E-2,-1.3519334E-2,6.2087433E1,2.9304613E1,-1.6779426E-2,3.1001368E-3,1.1638623E-1,-0E0,3.5509016E-2,6.0474197E-3],"split_indices":[0,1,0,25,20,0,0,4,0,0,0],"split_type":[0,0,0,0,0,0,0,0,0,0,0],"sum_hessian":[7.0024574E1,6.1138252E1,8.886324E0,1.8778067E1,4.2360184E1,1.0201351E1,8.576715E0,3.2460384E1,9.899802E0,1.642775E1,1.6032633E1],"tree_param":{"num_deleted":"0","num_feature":"29","num_nodes":"11","size_leaf_vector":"1"}},{"base_weights":[-0E0,-1.9192478E-1,2.9698133E-1,1.4326002E-1,-5.696152E-1,-0E0,3.0233711E-2,-7.935502E-3,1.8117163E-2,-4.1857205E-2,-7.3435055E-3],"categories":[],"categories_nodes":[],"categories_segments":[],"categories_sizes":[],"default_left":[0,0,0,0,0,0,0,0,0,0,0],"id":87,"left_children":[1,3,5,7,9,-1,-1,-1,-1,-1,-1],"loss_changes":[3.8192558E0,5.6027756E0,2.135403E0,1.7231824E0,1.5822086E0,0E0,0E0,0E0,0E0,0E0,0E0],"parents":[2147483647,0,0,1,1,2,2,3,3,4,4],"right_children":[2,4,6,8,10,-1,-1,-1,-1,-1,-1],"split_conditions":[1.530429E-1,4.1945165E-1,7.60688E2,9.47654E2,1.6242604E0,-0E0,3.0233711E-2,-7.935502E-3,1.8117163E-2,-4.1857205E-2,-7.3435055E-3],"split_indices":[14,9,10,11,0,0,0,0,0,0,0],"split_type":[0,0,0,0,0,0,0,0,0,0,0],"sum_hessian":[6.3345318E1,3.9283985E1,2.4061333E1,2.0769478E1,1.8514507E1,1.3934462E1,1.0126871E1,8.004921E0,1.2764556E1,9.413827E0,9.100681E0],"tree_param":{"num_deleted":"0","num_feature":"29","num_nodes":"11","size_leaf_vector":"1"}},{"base_weights":[-1.6229536E-2,-2.1462634E-2,7.461317E-2,3.296882E-1,-1.19810015E-1,-1.5463355E-2,3.7603017E-2,-3.4425962E-1,1.4917766E-2,-3.2788306E-2,2.4462072E-3],"categories":[],"categories_nodes":[],"categories_segments":[],"categories_sizes":[],"default_left":[0,0,0,0,0,0,0,0,0,0,0],"id":88,"left_children":[1,-1,3,5,7,-1,-1,9,-1,-1,-1],"loss_changes":[2.6454904E0,0E0,2.8239756E0,7.344759E0,3.096966E0,0E0,0E0,3.0125258E0,0E0,0E0,0E0],"parents":[2147483647,0,0,2,2,3,3,4,4,7,7],"right_children":[2,-1,4,6,8,-1,-1,10,-1,-1,-1],"split_conditions":[3.91369E-1,-2.1462634E-2,1.07445784E-1,4.7291583E-1,1.4827648E3,-1.5463355E-2,3.7603017E-2,5.6243617E-2,1.4917766E-2,-3.2788306E-2,2.4462072E-3],"split_indices":[12,0,18,16,11,0,0,1,0,0,0],"split_type":[0,0,0,0,0,0,0,0,0,0,0],"sum_hessian":[6.207532E1,1.0840723E1,5.1234596E1,2.26712E1,2.8563398E1,8.764395E0,1.3906804E1,1.959499E1,8.968407E0,1.0897366E1,8.697625E0],"tree_param":{"num_deleted":"0","num_feature":"29","num_nodes":"11","size_leaf_vector":"1"}},